~o
<STREAMINFO> 1 39
<VECSIZE> 39<NULLD><MFCC_E_D_A_Z><DIAGC>
~v "varFloor1"
<VARIANCE> 39
 1.940626e-01 2.580380e-01 3.045278e-01 4.024863e-01 3.977280e-01 4.335414e-01 3.944307e-01 3.802805e-01 3.843127e-01 3.788873e-01 3.727506e-01 2.808717e-01 4.201884e-02 1.727558e-02 2.008319e-02 2.395293e-02 2.979196e-02 3.174845e-02 3.073428e-02 3.106606e-02 3.051769e-02 2.963091e-02 2.809530e-02 2.698685e-02 2.135077e-02 3.249670e-03 3.209226e-03 3.451951e-03 3.810104e-03 4.859538e-03 5.499548e-03 5.540641e-03 5.598343e-03 5.685749e-03 5.420071e-03 5.166098e-03 4.965994e-03 4.004153e-03 4.042022e-04
~s "N2m"
<NUMMIXES> 16
<MIXTURE> 1 4.046304e-02
<MEAN> 39
 8.119974e+00 4.093391e-01 4.052399e+00 6.972914e+00 -4.147757e+00 -2.720488e+00 2.301192e+00 -1.123472e+01 -4.540070e+00 3.982454e+00 -5.359019e+00 -2.401297e+00 1.452220e+01 1.676605e-01 7.897224e-01 1.215157e+00 1.480721e+00 -7.799441e-01 -5.846673e-02 1.027646e+00 -2.683889e+00 -4.570738e-01 1.028097e+00 -9.678943e-01 7.360278e-01 -2.692183e-01 -6.462727e-02 -1.168004e-01 -3.779516e-01 -7.570221e-01 1.250022e-01 2.140421e-01 -4.734883e-01 1.033591e+00 2.683671e-01 -6.246424e-01 4.273492e-01 -1.804217e-01 1.208930e-01
<VARIANCE> 39
 1.094775e+01 1.533526e+01 2.330260e+01 3.198852e+01 3.397224e+01 4.337933e+01 3.664919e+01 4.379244e+01 3.792972e+01 3.090256e+01 3.832862e+01 3.030826e+01 2.174335e+00 5.118368e-01 1.106119e+00 1.557384e+00 2.391830e+00 2.423954e+00 2.659953e+00 2.748705e+00 3.628282e+00 3.157554e+00 2.950693e+00 2.840413e+00 2.197345e+00 4.779443e-02 1.039906e-01 1.793799e-01 3.139614e-01 2.917134e-01 4.799776e-01 3.659049e-01 3.692812e-01 4.371017e-01 4.018980e-01 3.519341e-01 4.067271e-01 3.414796e-01 8.684150e-03
<GCONST> 1.003121e+02
<MIXTURE> 2 5.431357e-02
<MEAN> 39
 7.981412e+00 -1.805963e+00 9.607404e-01 2.304060e+00 -3.816025e+00 -2.552309e+00 -4.882048e+00 1.849175e+00 -4.500305e+00 -1.594264e+00 1.123939e+00 -7.560907e+00 1.548495e+01 6.858857e-01 1.052520e+00 -6.133617e-02 1.120030e+00 4.562472e-01 3.679964e-01 1.037622e+00 -2.635437e+00 -8.579209e-01 1.682914e+00 -6.813655e-01 -1.387659e-01 -4.315058e-01 -1.754681e-01 6.958166e-02 2.825247e-01 -2.025454e-01 -3.262480e-01 3.581117e-02 5.406390e-01 -3.633903e-01 1.135479e-02 -2.242223e-02 -2.561915e-01 5.349025e-01 4.867598e-02
<VARIANCE> 39
 1.109052e+01 1.532691e+01 2.855189e+01 2.337301e+01 3.356096e+01 4.066531e+01 4.099327e+01 3.920134e+01 5.316630e+01 3.763198e+01 3.461676e+01 2.733873e+01 1.984380e+00 5.980726e-01 1.103956e+00 2.869941e+00 2.837390e+00 3.190592e+00 4.055617e+00 3.361640e+00 5.023368e+00 3.855940e+00 2.880008e+00 3.846081e+00 2.890992e+00 6.079806e-02 7.984794e-02 1.433154e-01 2.139005e-01 2.164152e-01 3.900675e-01 3.368700e-01 4.273736e-01 5.157184e-01 6.049006e-01 4.218101e-01 4.023988e-01 2.696611e-01 5.397604e-03
<GCONST> 1.022475e+02
<MIXTURE> 3 3.774156e-02
<MEAN> 39
 8.577694e+00 4.219523e-01 1.391103e+00 -1.325294e+00 -9.010326e+00 -7.848132e+00 -2.686327e+00 -1.064552e+01 -6.358769e+00 -1.518636e+00 -3.032944e+00 1.589182e+00 1.602069e+01 1.064443e+00 1.623472e+00 9.928395e-01 6.002122e-01 -8.718178e-01 6.466171e-01 -7.171534e-01 -2.663309e+00 9.303194e-01 5.433338e-01 -1.313752e-01 2.758864e-01 -2.411583e-01 -2.450006e-01 -3.472499e-01 -2.749933e-01 -3.337547e-01 4.012503e-01 3.556610e-01 -1.965031e-01 6.338383e-01 6.141622e-02 -3.009424e-01 7.175537e-03 -3.188042e-01 1.015904e-01
<VARIANCE> 39
 1.380233e+01 2.070637e+01 2.851477e+01 3.490102e+01 3.723411e+01 6.101906e+01 5.275689e+01 5.751833e+01 7.824115e+01 7.434294e+01 9.446801e+01 7.474577e+01 7.021914e-01 8.558179e-01 1.805087e+00 2.758638e+00 3.014771e+00 4.330625e+00 5.805408e+00 5.859518e+00 5.455025e+00 6.080643e+00 5.377138e+00 4.929838e+00 4.450934e+00 5.103397e-02 1.025688e-01 1.895492e-01 3.065090e-01 3.056643e-01 4.708862e-01 5.675297e-01 6.222333e-01 6.725336e-01 8.372827e-01 6.378809e-01 7.090955e-01 5.434802e-01 6.330839e-03
<GCONST> 1.148597e+02
<MIXTURE> 4 5.612110e-02
<MEAN> 39
 7.939734e+00 2.174761e+00 3.565301e+00 5.723094e+00 -4.445927e+00 -2.803524e+00 2.066149e-01 -3.822793e+00 -4.784013e+00 -7.631923e-01 -8.842884e-01 -3.146680e+00 1.393581e+01 1.453356e+00 5.090519e-01 -1.456748e+00 2.340204e+00 1.125541e+00 -8.235989e-01 4.686395e-01 -1.573235e+00 3.326447e-01 5.244261e-01 -1.052249e+00 1.204309e-01 -5.649730e-01 -3.923045e-01 -3.929585e-02 4.982583e-01 -6.552616e-01 -4.612346e-01 2.572720e-01 5.604181e-03 8.653026e-02 2.483887e-03 -3.660460e-02 9.536117e-02 5.446065e-02 1.738051e-01
<VARIANCE> 39
 8.792249e+00 1.647009e+01 1.631782e+01 2.443130e+01 2.452491e+01 2.552515e+01 3.082929e+01 3.730496e+01 3.386600e+01 3.161699e+01 2.637751e+01 2.881063e+01 1.968591e+00 7.089872e-01 1.848669e+00 2.705353e+00 2.582919e+00 3.209054e+00 4.843907e+00 4.346014e+00 4.724982e+00 3.905972e+00 3.670070e+00 3.106567e+00 2.599348e+00 8.419000e-02 9.695636e-02 2.069236e-01 2.071756e-01 2.405034e-01 2.989299e-01 3.250356e-01 3.220982e-01 3.597659e-01 3.364267e-01 2.956484e-01 2.796041e-01 2.424239e-01 9.074028e-03
<GCONST> 9.957529e+01
<MIXTURE> 5 1.076277e-01
<MEAN> 39
 7.179502e+00 -9.503941e-01 4.869550e-02 -4.570282e+00 -4.980135e+00 7.757143e-01 -1.653562e+00 -2.192352e+00 -6.148197e+00 -2.838839e+00 -2.950059e+00 -3.331799e+00 1.590191e+01 1.332402e-01 5.207283e-01 7.473035e-01 6.552360e-01 -4.141533e-01 -3.321893e-01 1.298249e-01 -3.429687e-01 4.287899e-02 2.053499e-01 -4.807405e-01 2.825109e-01 -2.069618e-01 -2.966738e-02 2.436250e-02 -7.847821e-02 1.957120e-02 1.203708e-01 -7.547750e-02 -1.201050e-01 -4.443135e-02 1.657858e-01 1.743399e-02 6.171985e-02 -5.230699e-02 1.420194e-02
<VARIANCE> 39
 1.402527e+01 1.935894e+01 5.364333e+01 3.519688e+01 4.639547e+01 5.751458e+01 4.504271e+01 4.345071e+01 4.399867e+01 4.351234e+01 4.576540e+01 3.308591e+01 2.226356e+00 2.888806e-01 6.324807e-01 1.350723e+00 1.318463e+00 1.930056e+00 1.634452e+00 1.976309e+00 1.930385e+00 1.944430e+00 1.811866e+00 1.884262e+00 1.501716e+00 1.892175e-02 3.867500e-02 7.652067e-02 1.711478e-01 1.364752e-01 2.045979e-01 2.257200e-01 2.604770e-01 2.355869e-01 2.635263e-01 2.381530e-01 2.723190e-01 2.030614e-01 2.379798e-03
<GCONST> 8.852044e+01
<MIXTURE> 6 6.307588e-02
<MEAN> 39
 6.572442e+00 3.540409e+00 3.906557e+00 -3.850841e+00 -7.526313e+00 -6.526351e-03 -5.775883e+00 -9.739212e+00 -5.942140e+00 -5.153548e-01 -6.225058e+00 -3.576852e+00 1.538161e+01 2.021784e+00 1.920900e-01 -1.797240e+00 3.238387e+00 5.929976e-01 -1.262607e+00 -1.854231e-01 -5.369517e-01 4.416651e-01 -5.408125e-01 -1.268055e-01 8.468030e-02 -4.769806e-01 -2.647108e-01 -4.764344e-02 1.705202e-01 -2.356966e-01 -1.109564e-01 -1.123190e-01 2.284181e-01 2.900233e-01 1.599580e-02 -2.403240e-01 1.769619e-01 3.715406e-02 1.023468e-01
<VARIANCE> 39
 1.194844e+01 2.001884e+01 2.062490e+01 4.093262e+01 2.832564e+01 3.395756e+01 4.180220e+01 3.940928e+01 4.245832e+01 3.838107e+01 4.746378e+01 3.734391e+01 1.656473e+00 7.147824e-01 1.555696e+00 2.237628e+00 3.048708e+00 3.717882e+00 4.707510e+00 5.228436e+00 4.038519e+00 4.206227e+00 3.633765e+00 3.418288e+00 2.922007e+00 8.318875e-02 1.402428e-01 2.138841e-01 2.578812e-01 4.293183e-01 4.049323e-01 4.099353e-01 4.570636e-01 4.104706e-01 4.632215e-01 3.914499e-01 4.209318e-01 3.502349e-01 6.280080e-03
<GCONST> 1.061609e+02
<MIXTURE> 7 8.189649e-02
<MEAN> 39
 7.355441e+00 -1.010215e+00 2.422173e+00 2.858312e+00 -2.300324e+00 1.302641e+00 -3.095901e+00 -7.832655e+00 -2.321637e+00 1.173886e+00 -4.026251e+00 -2.900020e+00 1.465624e+01 -3.567929e-01 8.588843e-01 2.860132e+00 2.250967e+00 -1.443310e+00 -3.082861e-01 2.195995e-01 -2.238768e+00 -2.178840e-01 3.151971e-01 -8.620441e-01 7.950944e-01 -4.433443e-01 6.602795e-02 -3.824716e-02 -5.473498e-01 -6.019704e-01 1.908973e-01 1.189478e-01 4.703923e-02 4.330230e-01 1.321085e-01 -3.425404e-01 1.629114e-01 -9.110425e-02 1.300103e-01
<VARIANCE> 39
 7.267082e+00 1.541604e+01 2.882514e+01 3.302234e+01 3.141036e+01 3.804895e+01 4.842655e+01 4.077710e+01 3.914049e+01 3.665599e+01 3.051967e+01 2.757593e+01 2.313151e+00 5.156332e-01 1.155506e+00 1.887455e+00 3.213342e+00 3.806089e+00 2.969086e+00 3.653640e+00 3.916618e+00 3.736753e+00 3.211429e+00 3.349321e+00 2.618207e+00 6.367128e-02 6.330507e-02 1.365276e-01 3.214138e-01 2.513893e-01 3.332831e-01 2.673242e-01 3.106267e-01 3.524274e-01 3.409864e-01 3.112510e-01 3.306589e-01 2.771471e-01 6.417223e-03
<GCONST> 9.946529e+01
<MIXTURE> 8 6.226914e-02
<MEAN> 39
 4.647131e+00 -5.246228e-01 2.875767e+00 -4.149632e+00 -6.622277e+00 -6.940443e+00 -3.856911e-01 -4.370966e-01 -1.127108e+01 -3.636020e+00 -2.486923e+00 -1.166420e+00 1.605142e+01 1.008493e+00 1.838231e+00 2.768774e-01 1.432157e+00 -1.471993e-01 3.336121e-02 -1.368700e-01 -1.950880e+00 2.549985e-01 5.618538e-01 -5.123659e-01 9.529621e-02 -5.820157e-01 -6.611712e-02 1.040076e-02 -1.921460e-01 1.777598e-01 2.127977e-01 4.702381e-01 -2.351321e-01 -4.849852e-01 7.805078e-01 -3.583672e-03 -1.261422e-01 -1.593761e-01 2.693046e-02
<VARIANCE> 39
 1.345044e+01 2.427115e+01 3.404954e+01 4.605122e+01 4.690644e+01 4.899543e+01 4.526793e+01 4.747654e+01 4.815302e+01 4.891151e+01 4.312482e+01 4.085020e+01 2.589661e+00 1.446422e+00 1.936838e+00 3.490892e+00 3.487009e+00 4.584948e+00 5.053249e+00 5.024765e+00 6.310720e+00 4.927536e+00 4.461567e+00 3.759816e+00 3.178221e+00 1.184674e-01 2.611650e-01 3.312189e-01 3.744029e-01 5.264332e-01 7.236128e-01 5.988169e-01 6.404582e-01 6.311064e-01 5.567768e-01 6.087405e-01 5.555190e-01 4.857941e-01 1.479931e-02
<GCONST> 1.175737e+02
<MIXTURE> 9 7.925352e-02
<MEAN> 39
 4.760749e+00 -1.351533e+00 -1.746264e-01 -7.612744e+00 -2.816905e+00 -3.790976e+00 -5.534421e+00 -5.256557e+00 -8.906885e+00 -4.969847e+00 -6.047041e+00 -2.908494e+00 1.669758e+01 2.207714e-01 5.344966e-01 3.422399e-01 4.535475e-01 8.224949e-03 -3.527875e-01 -1.723579e-01 -2.421152e-01 -6.093025e-03 -8.878363e-02 -1.976876e-01 8.581662e-02 -1.476147e-01 1.769605e-02 6.014992e-02 -6.670437e-03 1.128750e-01 -1.316866e-01 5.326539e-02 5.896145e-02 4.080522e-02 2.309238e-01 5.889388e-02 1.218808e-01 -2.820501e-02 -2.166141e-03
<VARIANCE> 39
 1.393518e+01 3.432913e+01 5.226760e+01 4.889194e+01 5.005435e+01 6.999811e+01 5.154960e+01 6.062963e+01 5.468928e+01 5.810377e+01 4.686533e+01 4.163491e+01 1.560960e+00 2.905087e-01 7.251373e-01 1.255901e+00 1.388940e+00 1.860757e+00 1.802315e+00 2.082907e+00 2.126915e+00 2.138843e+00 1.985903e+00 1.762796e+00 1.660677e+00 1.947171e-02 5.733189e-02 1.018700e-01 1.988714e-01 2.364881e-01 2.729886e-01 3.308097e-01 3.445378e-01 3.704735e-01 3.698233e-01 3.642700e-01 3.062780e-01 2.675629e-01 3.036606e-03
<GCONST> 9.530074e+01
<MIXTURE> 10 7.676493e-02
<MEAN> 39
 7.483977e+00 -8.798350e-01 1.272949e+00 1.507123e-01 -3.217836e+00 -7.954418e+00 -7.772305e+00 -3.900788e+00 -3.172923e+00 -5.203158e+00 -8.371761e+00 -3.467835e+00 1.509012e+01 2.999107e-01 1.328328e+00 2.893351e+00 1.094561e+00 -2.218604e+00 -7.210043e-02 -1.720652e-03 -1.404741e+00 5.763817e-01 -4.150957e-01 -5.828188e-01 4.836558e-01 -3.904816e-01 -4.645070e-02 -1.573059e-01 -5.177273e-01 -4.186474e-01 2.201654e-01 5.183423e-01 2.274159e-01 1.168408e-01 -1.892818e-01 -2.324648e-01 4.114586e-01 -7.260868e-03 1.243309e-01
<VARIANCE> 39
 6.182718e+00 1.617839e+01 3.101847e+01 2.928540e+01 3.438815e+01 4.527139e+01 4.110716e+01 4.091970e+01 3.950063e+01 4.843377e+01 3.330944e+01 3.388782e+01 2.270647e+00 5.988993e-01 1.331991e+00 2.278012e+00 2.941130e+00 3.907327e+00 4.764171e+00 4.451565e+00 4.696140e+00 4.382800e+00 4.910223e+00 3.899673e+00 3.597851e+00 6.425013e-02 6.105218e-02 1.456548e-01 3.840989e-01 2.452079e-01 3.972183e-01 3.702827e-01 4.007018e-01 4.039246e-01 4.439836e-01 4.529277e-01 3.790435e-01 3.639209e-01 5.442943e-03
<GCONST> 1.042621e+02
<MIXTURE> 11 7.522348e-02
<MEAN> 39
 9.049956e+00 2.762289e+00 4.873389e-01 3.147487e+00 -4.995780e+00 -7.171205e+00 -2.583442e+00 -5.362990e+00 -6.041805e+00 -3.312433e+00 -4.662377e+00 -4.009277e+00 1.475750e+01 1.057476e+00 3.441748e-01 -1.071147e+00 1.630813e+00 6.239721e-01 -9.052895e-01 2.612655e-01 -6.338311e-01 1.899385e-01 1.830078e-01 -4.922582e-01 -1.666960e-01 -2.217225e-01 -4.825197e-01 2.058252e-02 6.712451e-01 -8.961695e-01 -3.691776e-01 7.754530e-01 -1.293203e-01 -1.132527e-01 2.709746e-02 1.799161e-01 6.423036e-02 1.631562e-02 1.119067e-01
<VARIANCE> 39
 8.330391e+00 1.938673e+01 2.117048e+01 3.462472e+01 3.165312e+01 3.292215e+01 4.578536e+01 4.623624e+01 4.192341e+01 3.770577e+01 4.607387e+01 3.469350e+01 2.376943e+00 4.492298e-01 1.204577e+00 1.593991e+00 1.808415e+00 2.190467e+00 3.068963e+00 3.405979e+00 2.974631e+00 2.949333e+00 2.939045e+00 2.786987e+00 2.471446e+00 3.456523e-02 8.127216e-02 1.696500e-01 2.173436e-01 2.508282e-01 3.333609e-01 3.509808e-01 5.016067e-01 4.255807e-01 4.318151e-01 3.680182e-01 3.641035e-01 2.854212e-01 6.746696e-03
<GCONST> 9.897887e+01
<MIXTURE> 12 6.199926e-02
<MEAN> 39
 7.557892e+00 -2.134765e+00 -5.583684e+00 -1.846916e+00 1.529176e+00 -5.899592e+00 -7.329147e+00 1.294919e+00 -7.938956e+00 -3.515839e+00 -2.505007e+00 -8.425979e+00 1.607466e+01 4.036126e-01 9.558650e-01 7.568039e-01 7.997314e-01 -8.199030e-01 -8.723120e-02 8.029042e-01 -1.166570e+00 -5.560922e-01 7.452942e-01 -4.495851e-01 1.654456e-01 -3.085104e-01 -6.584124e-02 6.853550e-03 3.955119e-01 -8.082369e-02 -3.786083e-01 3.493678e-01 3.033108e-01 -4.667556e-01 3.523200e-01 -1.751124e-01 -1.735335e-01 5.436491e-01 4.670569e-04
<VARIANCE> 39
 1.010144e+01 1.754294e+01 3.454877e+01 2.869778e+01 4.964124e+01 5.657076e+01 5.336389e+01 4.400531e+01 4.943429e+01 6.520160e+01 4.908250e+01 3.372421e+01 2.022741e+00 4.559076e-01 9.010302e-01 2.041154e+00 1.797570e+00 2.581103e+00 3.178997e+00 2.932824e+00 3.292523e+00 3.020036e+00 2.776412e+00 2.843270e+00 2.716631e+00 3.879597e-02 7.056408e-02 1.234294e-01 2.352421e-01 2.243481e-01 3.608454e-01 4.159875e-01 4.713211e-01 5.311174e-01 4.946008e-01 5.166600e-01 4.714957e-01 3.259268e-01 4.289088e-03
<GCONST> 1.016984e+02
<MIXTURE> 13 4.734579e-02
<MEAN> 39
 7.573135e+00 2.087364e+00 7.467961e-01 -3.985580e+00 -6.966134e+00 -4.783281e+00 -6.548776e+00 -8.157630e+00 -4.880864e+00 -5.498798e+00 -8.741003e+00 -2.880295e-01 1.519006e+01 2.018843e+00 -3.486773e-02 -1.616962e+00 2.937097e+00 -4.763149e-02 -1.136480e+00 -7.094689e-02 1.700430e-01 4.047273e-02 -9.944449e-01 3.428878e-01 -2.359270e-01 -4.204041e-01 -4.808838e-01 1.346495e-01 4.587955e-01 -6.212831e-01 -7.310849e-02 4.172254e-01 4.933844e-02 3.136055e-02 -7.327111e-02 2.792712e-01 2.103868e-01 -3.319050e-01 1.305692e-01
<VARIANCE> 39
 1.061400e+01 2.017387e+01 1.947232e+01 3.327546e+01 2.695559e+01 3.100463e+01 3.496947e+01 4.248526e+01 4.103036e+01 3.460987e+01 3.815392e+01 3.612756e+01 2.698093e+00 6.606103e-01 1.385446e+00 1.883340e+00 2.842625e+00 3.451765e+00 3.967535e+00 5.131371e+00 3.719279e+00 3.715222e+00 3.535889e+00 3.347934e+00 2.941397e+00 7.696331e-02 1.163780e-01 1.904052e-01 2.191763e-01 3.394775e-01 3.567615e-01 3.684760e-01 4.691985e-01 4.325721e-01 4.331802e-01 3.722247e-01 3.836526e-01 3.169954e-01 8.456229e-03
<GCONST> 1.037465e+02
<MIXTURE> 14 5.867240e-02
<MEAN> 39
 8.241714e+00 1.608544e+00 3.211538e+00 2.662311e+00 -7.733204e+00 -1.635383e+00 8.541093e-01 -1.058171e+01 -5.819893e+00 3.730615e-01 -5.078576e+00 -3.676335e+00 1.480634e+01 8.160059e-01 7.956057e-01 4.189203e-01 6.673615e-01 -6.419035e-01 1.790032e+00 2.469281e-01 -3.433007e+00 6.132949e-01 9.895657e-01 -1.012405e+00 1.679576e-02 -2.954670e-01 -2.540619e-01 -2.357820e-01 -2.028378e-02 -3.865733e-01 8.260158e-02 -2.936803e-01 -2.712057e-01 9.667693e-01 1.597699e-01 -4.506689e-01 2.199922e-01 1.468224e-01 1.314961e-01
<VARIANCE> 39
 7.589247e+00 1.568813e+01 2.107236e+01 3.051271e+01 2.896964e+01 3.682203e+01 3.669754e+01 3.808362e+01 4.299558e+01 3.795405e+01 3.931385e+01 3.237078e+01 2.340290e+00 5.112865e-01 1.192575e+00 1.608041e+00 2.255438e+00 2.772207e+00 3.178930e+00 4.315560e+00 3.814062e+00 4.496280e+00 3.231740e+00 3.390664e+00 2.910794e+00 4.704152e-02 6.224265e-02 1.334559e-01 2.520238e-01 2.092924e-01 4.032288e-01 3.619143e-01 3.799199e-01 4.516646e-01 4.075175e-01 3.507356e-01 3.696414e-01 3.168506e-01 6.646453e-03
<GCONST> 9.969035e+01
<MIXTURE> 15 4.776849e-02
<MEAN> 39
 6.887607e+00 -1.507699e+00 3.899139e+00 -4.049182e+00 -1.085172e+01 -6.912371e+00 -3.486361e+00 -7.685459e+00 -4.936267e+00 -7.769657e+00 -2.386339e+00 1.680008e+00 1.581944e+01 5.336524e-01 1.278970e+00 1.701660e+00 -3.800338e-01 -1.660587e+00 1.426527e+00 2.939939e-03 -1.605451e+00 -1.398594e-01 -5.412679e-01 4.958309e-01 -1.031630e-03 -2.237847e-01 -6.673782e-02 -2.099612e-01 -7.950963e-01 -7.205290e-02 8.243389e-01 7.987559e-02 -1.568353e-01 3.858576e-01 -4.111384e-02 3.308443e-01 -9.009194e-02 -4.356183e-01 9.207749e-02
<VARIANCE> 39
 1.162606e+01 2.332951e+01 2.993094e+01 4.190010e+01 3.667588e+01 8.084977e+01 4.542421e+01 5.249373e+01 5.739331e+01 5.446869e+01 7.981942e+01 6.265787e+01 1.342977e+00 6.765264e-01 1.266267e+00 2.356631e+00 2.495568e+00 3.451966e+00 4.164608e+00 4.328931e+00 4.612799e+00 4.445660e+00 4.589902e+00 4.050247e+00 3.924573e+00 4.361909e-02 9.614391e-02 1.788957e-01 3.239997e-01 3.678389e-01 4.352472e-01 6.679097e-01 5.911273e-01 6.607228e-01 6.575513e-01 5.709082e-01 6.859486e-01 5.311882e-01 7.956204e-03
<GCONST> 1.117833e+02
<MIXTURE> 16 4.946060e-02
<MEAN> 39
 5.071242e+00 -2.433791e+00 -4.609357e+00 -3.241338e+00 -4.133061e-01 -1.321690e+01 -1.159250e+00 -2.631357e+00 -7.881456e+00 -6.341553e+00 -4.962996e+00 1.105772e-01 1.631649e+01 1.044051e+00 1.528440e+00 1.623772e+00 7.574303e-01 -1.858235e+00 6.371050e-01 -3.970231e-01 -1.766273e+00 2.289479e-01 5.171929e-01 -4.383900e-01 1.309119e-01 -5.374818e-01 1.241928e-01 -1.200574e-01 3.271230e-01 -9.542690e-02 -4.040042e-01 1.135288e+00 -4.954600e-01 -2.507586e-01 3.266023e-01 2.206551e-02 2.193805e-01 -3.572097e-01 2.268957e-02
<VARIANCE> 39
 9.702243e+00 2.457616e+01 2.959216e+01 3.759652e+01 4.882291e+01 4.133867e+01 4.623957e+01 5.861386e+01 5.634045e+01 5.813570e+01 5.533459e+01 4.286874e+01 1.854127e+00 8.864444e-01 1.466582e+00 4.121896e+00 3.038761e+00 5.453034e+00 5.616268e+00 4.882498e+00 4.820497e+00 5.029058e+00 4.469265e+00 3.869911e+00 3.631329e+00 7.322598e-02 1.116165e-01 2.087442e-01 3.576180e-01 3.772579e-01 5.499256e-01 5.440601e-01 6.785415e-01 8.270798e-01 6.956479e-01 7.482848e-01 6.385220e-01 4.575807e-01 7.988257e-03
<GCONST> 1.144155e+02
~s "N3m"
<NUMMIXES> 16
<MIXTURE> 1 4.605629e-02
<MEAN> 39
 9.700669e+00 1.826991e+00 2.893062e+00 7.115756e+00 -7.533428e+00 -1.668066e+00 9.949991e-01 -7.727352e+00 -8.586016e+00 2.055346e+00 6.294793e-01 -6.501881e+00 1.438553e+01 1.177068e-01 1.370761e+00 5.198174e-02 2.382930e-01 5.184361e-01 -1.721243e-03 4.287792e-01 3.934509e-02 -5.149665e-01 8.131669e-02 -3.673008e-01 4.525540e-01 -3.404438e-01 -4.671503e-01 2.138287e-01 1.348129e-01 -4.713639e-01 6.845554e-01 2.810712e-02 -1.657839e-01 4.939855e-01 4.168149e-01 -2.960284e-01 -3.111022e-01 4.320012e-01 -5.828322e-02
<VARIANCE> 39
 1.206714e+01 1.556326e+01 2.198026e+01 3.358906e+01 3.497024e+01 3.973486e+01 3.642232e+01 4.846549e+01 3.746627e+01 3.651176e+01 3.384772e+01 3.121930e+01 2.098040e+00 3.861169e-01 7.566561e-01 8.740298e-01 1.336801e+00 1.562772e+00 1.991463e+00 1.925640e+00 2.201571e+00 2.211128e+00 1.948707e+00 1.775761e+00 1.655386e+00 3.786147e-02 1.686606e-01 2.036890e-01 3.126276e-01 3.674040e-01 4.291562e-01 4.701541e-01 4.023373e-01 5.261077e-01 4.227929e-01 4.070007e-01 3.494187e-01 3.477819e-01 1.780351e-02
<GCONST> 9.734051e+01
<MIXTURE> 2 4.625027e-02
<MEAN> 39
 9.017262e+00 3.682276e+00 3.793123e+00 5.647842e+00 -3.875757e+00 -2.013738e+00 3.898518e-01 -8.102170e+00 -4.286761e+00 1.559334e+00 -2.752435e+00 -2.749780e+00 1.365420e+01 1.143145e-01 5.910728e-01 -3.589897e-02 1.325672e-01 -2.938565e-02 1.575026e-01 8.930857e-02 -1.967594e-02 -2.475019e-01 -5.880297e-02 1.159174e-01 1.099020e-01 -1.192434e-01 -6.670872e-02 3.902552e-02 1.829289e-02 -1.268788e-01 6.664758e-02 4.656812e-02 -1.020170e-01 2.177109e-01 -1.126567e-03 -1.720654e-01 -1.956341e-02 3.520055e-02 -1.036451e-03
<VARIANCE> 39
 9.058423e+00 1.883449e+01 2.043226e+01 2.966262e+01 2.925838e+01 3.075956e+01 3.367239e+01 3.825094e+01 3.840161e+01 3.490379e+01 3.401760e+01 3.228266e+01 2.010023e+00 1.318352e-01 3.889081e-01 4.354121e-01 6.498823e-01 8.308625e-01 1.009990e+00 1.040205e+00 1.165916e+00 1.188722e+00 1.267158e+00 1.071802e+00 1.008283e+00 8.709081e-03 2.946277e-02 5.769899e-02 8.847556e-02 1.073679e-01 1.465410e-01 1.559282e-01 1.564145e-01 1.826126e-01 1.781380e-01 1.801658e-01 1.616591e-01 1.621901e-01 2.444993e-03
<GCONST> 7.215334e+01
<MIXTURE> 3 6.587745e-02
<MEAN> 39
 1.002222e+01 1.796157e+00 2.686606e+00 2.985956e-01 -7.006641e+00 -4.085162e+00 -5.194287e+00 -9.568254e+00 -5.107874e+00 -2.600251e-01 -3.872091e+00 -4.180061e+00 1.564809e+01 2.049374e-01 3.492331e-01 4.596835e-02 1.028519e-01 -1.625998e-01 3.555164e-01 4.106880e-02 -1.555742e-01 -3.659314e-02 5.310014e-02 1.562127e-01 2.315039e-01 -4.776485e-02 -2.095719e-02 2.095912e-02 -2.823551e-02 -3.248659e-02 1.617298e-02 9.735228e-03 4.825956e-02 1.335728e-01 -4.705298e-02 -1.434843e-01 -3.438191e-02 1.031973e-01 -4.557982e-03
<VARIANCE> 39
 1.165694e+01 2.074881e+01 2.968817e+01 4.077570e+01 4.128920e+01 6.319336e+01 5.560568e+01 5.571969e+01 5.185514e+01 5.949972e+01 6.199465e+01 5.331615e+01 9.841523e-01 1.427855e-01 3.897688e-01 5.454617e-01 8.019797e-01 9.954797e-01 1.290466e+00 1.408446e+00 1.568217e+00 1.552772e+00 1.563700e+00 1.449267e+00 1.354952e+00 4.219843e-03 2.099266e-02 4.419045e-02 8.177112e-02 1.062023e-01 1.328110e-01 1.891852e-01 1.985711e-01 2.172453e-01 2.201521e-01 2.313897e-01 2.221108e-01 2.087034e-01 7.261389e-04
<GCONST> 7.788049e+01
<MIXTURE> 4 9.030749e-02
<MEAN> 39
 8.656107e+00 1.767896e+00 5.169206e+00 4.645233e+00 -8.431725e+00 8.899940e-01 -1.970036e+00 -1.242014e+01 -5.412465e-01 -3.096758e-01 -5.348787e+00 -8.805417e-01 1.472480e+01 2.639647e-01 7.190432e-01 2.148458e-01 4.079509e-01 -3.136722e-01 2.821768e-01 7.653311e-02 -3.547302e-01 -5.619963e-02 -2.258063e-02 -8.762583e-02 1.663919e-01 -1.616223e-01 -1.544697e-01 8.868333e-02 -3.051981e-01 -3.598421e-01 5.990789e-01 -2.778119e-01 -1.485064e-02 8.551478e-01 -3.649369e-01 -3.678416e-02 1.256988e-01 -1.956223e-01 1.608842e-03
<VARIANCE> 39
 9.697359e+00 1.872645e+01 2.096852e+01 3.628799e+01 3.070509e+01 3.911636e+01 4.828451e+01 4.538742e+01 3.804603e+01 4.185830e+01 3.258625e+01 3.397550e+01 2.007151e+00 2.330623e-01 5.979756e-01 7.957413e-01 9.385104e-01 1.303742e+00 1.346130e+00 1.437218e+00 1.915581e+00 1.768963e+00 1.657029e+00 1.526708e+00 1.418193e+00 1.859496e-02 1.032882e-01 1.572402e-01 3.084965e-01 3.134455e-01 3.610240e-01 3.557707e-01 4.014713e-01 4.676881e-01 3.621738e-01 3.826939e-01 3.423640e-01 3.084803e-01 9.967267e-03
<GCONST> 9.153797e+01
<MIXTURE> 5 7.718500e-02
<MEAN> 39
 9.936975e+00 1.762511e+00 2.014034e+00 -9.849329e-01 -7.837701e+00 -2.288033e+00 -9.918308e+00 -6.017958e+00 -4.083488e+00 -5.686378e+00 -4.275492e+00 -4.834125e+00 1.545226e+01 4.659459e-01 5.434682e-01 1.893695e-01 2.332869e-01 -1.755832e-01 6.602013e-01 -4.475550e-01 -1.900244e-02 5.349175e-02 -3.958053e-02 2.055137e-01 -6.621385e-02 -1.323950e-01 -3.081802e-01 8.475997e-02 -2.401417e-02 -1.059974e-01 3.297210e-01 -1.931063e-01 6.038530e-01 2.098374e-03 -2.183210e-01 1.860184e-01 -6.290105e-02 2.052717e-01 -7.722550e-03
<VARIANCE> 39
 1.067529e+01 2.343258e+01 3.092384e+01 3.233607e+01 4.193262e+01 5.574606e+01 3.915339e+01 5.337869e+01 4.827202e+01 4.759176e+01 5.115978e+01 4.646285e+01 1.448927e+00 3.692626e-01 7.814161e-01 1.238660e+00 1.315708e+00 1.930938e+00 2.246385e+00 2.570494e+00 2.465344e+00 2.471312e+00 2.457279e+00 2.181477e+00 2.187848e+00 1.666941e-02 1.311006e-01 1.765141e-01 3.653694e-01 3.446053e-01 4.882030e-01 5.412901e-01 4.253979e-01 4.836166e-01 5.046185e-01 4.778844e-01 4.583936e-01 4.282106e-01 8.960439e-03
<GCONST> 1.007087e+02
<MIXTURE> 6 4.739081e-02
<MEAN> 39
 8.601013e+00 2.223347e+00 4.824136e+00 4.802821e+00 -6.591835e+00 -4.862607e-03 -8.853495e-01 -9.855799e+00 -1.440200e+00 -3.212814e-01 -3.891577e+00 -1.628088e+00 1.420251e+01 3.664874e-02 2.173059e-01 7.372316e-02 3.069709e-03 -6.103044e-02 7.520408e-02 1.334057e-02 -4.391469e-02 -4.575793e-02 6.205048e-02 -9.492155e-03 4.424607e-02 -4.701988e-02 -4.166938e-02 2.235859e-02 -1.131187e-01 -1.704475e-01 1.560776e-01 -8.778559e-02 -4.707626e-02 2.620786e-01 -1.720657e-01 4.532672e-02 2.403010e-02 -6.703587e-02 1.198127e-02
<VARIANCE> 39
 8.765924e+00 1.944202e+01 1.998711e+01 3.380471e+01 3.105596e+01 3.418709e+01 3.950072e+01 4.213540e+01 3.840410e+01 3.548507e+01 3.272046e+01 3.074873e+01 2.674548e+00 6.796125e-02 1.758593e-01 2.131191e-01 2.795576e-01 3.520362e-01 4.051207e-01 4.678745e-01 5.008655e-01 5.515636e-01 5.487427e-01 5.208920e-01 4.873552e-01 3.996524e-03 3.035198e-02 5.137327e-02 1.003964e-01 1.031811e-01 1.186692e-01 1.345282e-01 1.396423e-01 1.680636e-01 1.471808e-01 1.473478e-01 1.364627e-01 1.210613e-01 1.618390e-03
<GCONST> 6.081316e+01
<MIXTURE> 7 8.759146e-02
<MEAN> 39
 8.392216e+00 1.484622e+00 4.591695e+00 1.333242e+00 -6.118944e+00 -2.075792e+00 -3.748973e+00 -7.737462e+00 -4.812814e+00 -1.137399e+00 -3.635088e+00 -3.420548e+00 1.519008e+01 6.016977e-02 1.581426e-01 2.442108e-02 4.541950e-02 -4.353337e-02 8.493538e-02 9.468623e-03 -3.904634e-02 1.622576e-02 4.033484e-02 2.800910e-02 4.579370e-02 -3.276587e-02 3.454338e-03 7.443497e-03 -3.447304e-02 -8.124943e-03 -1.124671e-02 -4.065052e-03 9.832112e-03 -4.500186e-03 -3.527815e-03 -3.105910e-04 -1.258195e-02 1.789588e-02 1.091927e-03
<VARIANCE> 39
 1.270011e+01 1.898589e+01 2.755897e+01 5.055489e+01 3.629520e+01 5.448717e+01 4.683259e+01 5.058395e+01 4.615544e+01 5.032579e+01 5.154422e+01 4.056537e+01 2.573008e+00 5.655549e-02 1.380495e-01 1.775130e-01 2.599506e-01 3.336698e-01 3.807900e-01 4.444803e-01 4.935026e-01 5.087095e-01 5.166089e-01 4.925778e-01 4.598548e-01 3.249670e-03 8.696192e-03 1.915609e-02 2.909154e-02 3.886928e-02 5.055010e-02 6.080241e-02 6.894296e-02 7.225913e-02 7.833974e-02 7.788467e-02 7.653957e-02 7.287705e-02 4.042022e-04
<GCONST> 5.136988e+01
<MIXTURE> 8 5.143725e-02
<MEAN> 39
 6.367055e+00 1.467514e+00 3.302246e+00 -9.534923e-01 -5.144160e+00 -3.839726e+00 -3.801868e+00 -2.049317e+00 -7.578765e+00 -2.043955e+00 -3.236159e+00 -2.821008e+00 1.511686e+01 -4.266635e-01 1.970638e+00 8.321223e-02 1.345484e+00 7.392954e-01 -3.792560e-01 8.034622e-01 -7.950823e-01 5.132188e-01 -6.218811e-02 -1.368665e-01 4.312794e-01 -4.883377e-01 -7.729765e-01 1.767954e-01 -1.616383e-01 1.126338e-01 5.594171e-01 3.193767e-01 2.903011e-01 2.340494e-02 4.720968e-01 -4.549428e-02 1.530096e-01 5.067262e-02 4.973977e-02
<VARIANCE> 39
 1.821477e+01 2.411825e+01 4.518475e+01 5.028262e+01 5.013896e+01 5.426251e+01 4.983503e+01 5.462661e+01 5.216335e+01 4.858266e+01 3.945573e+01 3.875573e+01 3.606997e+00 1.170723e+00 2.115167e+00 2.895113e+00 3.068408e+00 4.077373e+00 3.745485e+00 4.044050e+00 3.711393e+00 3.681984e+00 3.333356e+00 3.252506e+00 2.721915e+00 1.325666e-01 2.923044e-01 3.758641e-01 4.945555e-01 6.144241e-01 6.657207e-01 6.820207e-01 6.599254e-01 6.805332e-01 6.527300e-01 6.085640e-01 5.035339e-01 5.192277e-01 3.682229e-02
<GCONST> 1.183987e+02
<MIXTURE> 9 9.139642e-02
<MEAN> 39
 8.695245e+00 3.504153e+00 2.999823e+00 6.349764e-01 -7.410747e+00 -4.719185e+00 -2.683213e+00 -1.134516e+01 -2.692722e+00 -2.596090e+00 -9.689083e+00 -1.875335e+00 1.488025e+01 2.913853e-01 5.164921e-01 1.230211e-01 3.228798e-01 -2.189988e-01 2.697995e-01 -9.116908e-02 -3.877017e-01 3.470453e-01 -4.804582e-02 -1.991793e-01 2.143957e-02 -9.358863e-02 -2.149571e-01 -7.581984e-02 -3.673146e-02 -2.190917e-01 2.463864e-01 9.611250e-02 -1.417998e-01 6.313959e-01 -3.176114e-01 -9.036992e-02 4.775650e-01 -1.606569e-01 1.991259e-02
<VARIANCE> 39
 8.216364e+00 1.768021e+01 2.219094e+01 3.299602e+01 3.398279e+01 4.769818e+01 5.157477e+01 4.539931e+01 4.107733e+01 4.957974e+01 3.977577e+01 3.573705e+01 2.366146e+00 2.048292e-01 5.067039e-01 6.449196e-01 8.540717e-01 1.130200e+00 1.234738e+00 1.445552e+00 1.619939e+00 1.609698e+00 1.651275e+00 1.583680e+00 1.381382e+00 1.083215e-02 1.074595e-01 1.500967e-01 3.234298e-01 3.143965e-01 3.780125e-01 4.216329e-01 4.477924e-01 4.104306e-01 3.940539e-01 4.311316e-01 3.633718e-01 3.241806e-01 7.748873e-03
<GCONST> 9.098340e+01
<MIXTURE> 10 5.659938e-02
<MEAN> 39
 8.309381e+00 1.360231e+00 1.814555e+00 -4.776123e+00 -8.477888e+00 -4.339211e+00 -5.401027e+00 -8.978602e+00 -5.965566e+00 -8.991096e+00 -4.597351e+00 8.232570e-02 1.566715e+01 4.306032e-01 6.805438e-01 1.452162e-01 1.014828e-01 -3.363377e-01 5.039977e-01 -2.202180e-01 -4.031245e-02 1.874757e-01 -3.304781e-01 -1.660633e-01 -2.845889e-01 -1.154294e-01 -2.017762e-01 -1.822931e-02 -1.359918e-01 1.437293e-01 3.140858e-01 -1.170357e-01 3.273473e-02 3.049570e-01 2.031924e-02 4.589526e-01 -5.551143e-02 -2.448321e-01 -5.877610e-03
<VARIANCE> 39
 1.312055e+01 2.416209e+01 3.355356e+01 4.213053e+01 4.475671e+01 5.848970e+01 4.165537e+01 6.143582e+01 5.895477e+01 4.862187e+01 6.423933e+01 6.215062e+01 1.730555e+00 3.415803e-01 6.897522e-01 1.066905e+00 1.271917e+00 1.735472e+00 1.996298e+00 2.191345e+00 2.278270e+00 2.376025e+00 2.512758e+00 2.488235e+00 2.118035e+00 1.601353e-02 1.398164e-01 1.790746e-01 3.598456e-01 3.740021e-01 4.804999e-01 5.038843e-01 4.495956e-01 5.554362e-01 6.008945e-01 4.950428e-01 5.465224e-01 4.953126e-01 9.287992e-03
<GCONST> 1.025369e+02
<MIXTURE> 11 7.839770e-02
<MEAN> 39
 8.817462e+00 1.289552e+00 2.977789e+00 -2.672748e+00 -7.173090e+00 -4.617400e+00 -5.256705e+00 -7.790027e+00 -5.960774e+00 -5.215179e+00 -5.133284e+00 -2.590595e+00 1.570218e+01 1.609755e-01 3.432522e-01 7.949593e-02 1.995536e-04 -1.876392e-01 1.514005e-01 -1.857500e-02 -7.763538e-02 1.412057e-01 7.925226e-02 -9.557893e-02 -5.302166e-02 -4.393492e-02 -1.712128e-02 2.250127e-02 -9.411358e-02 7.588442e-02 3.181969e-02 -1.504747e-03 7.923631e-03 2.785241e-02 7.062421e-02 1.043773e-01 -4.931480e-02 -8.259187e-03 -4.660849e-03
<VARIANCE> 39
 1.060828e+01 2.093788e+01 3.190212e+01 3.642955e+01 4.192334e+01 6.608629e+01 5.407968e+01 6.167413e+01 5.294408e+01 6.163129e+01 6.124256e+01 5.721089e+01 1.197590e+00 1.419753e-01 3.792103e-01 5.460435e-01 7.394672e-01 9.771657e-01 1.219583e+00 1.402752e+00 1.515183e+00 1.516061e+00 1.606206e+00 1.494639e+00 1.436072e+00 4.446398e-03 2.705143e-02 5.949183e-02 1.095052e-01 1.236854e-01 1.689564e-01 2.271459e-01 2.506063e-01 2.700681e-01 2.625787e-01 2.758824e-01 2.730767e-01 2.562145e-01 9.742145e-04
<GCONST> 8.104317e+01
<MIXTURE> 12 5.082469e-02
<MEAN> 39
 8.786286e+00 2.562990e+00 3.051433e+00 1.247896e+00 -7.350271e+00 -3.309019e+00 -2.751184e+00 -8.182376e+00 -3.486428e+00 -3.924534e+00 -6.815373e+00 -2.069603e+00 1.464643e+01 7.632685e-02 1.539173e-01 7.541692e-02 3.285489e-02 -1.032152e-01 6.807569e-02 -1.987342e-02 -4.662222e-02 8.970371e-02 1.344120e-02 -2.751751e-02 -6.408790e-03 -3.251352e-02 -1.290690e-01 -1.941921e-02 -5.357918e-02 -2.274345e-01 1.524253e-01 1.500742e-02 -1.046168e-01 2.426611e-01 -1.082072e-01 8.348563e-02 1.598216e-01 -9.422192e-02 2.612047e-02
<VARIANCE> 39
 8.389553e+00 1.732269e+01 2.489875e+01 3.618939e+01 3.167970e+01 4.754485e+01 5.058648e+01 4.801289e+01 4.151266e+01 4.975702e+01 4.362925e+01 3.548701e+01 2.782145e+00 6.812567e-02 1.754229e-01 2.335076e-01 3.042853e-01 3.936800e-01 4.537501e-01 5.283373e-01 5.961558e-01 6.046216e-01 6.464872e-01 6.171529e-01 5.686689e-01 3.249670e-03 5.376037e-02 8.146609e-02 2.020751e-01 1.698594e-01 1.973456e-01 2.423033e-01 2.422874e-01 2.519740e-01 2.361559e-01 2.513831e-01 2.324125e-01 1.958083e-01 2.154693e-03
<GCONST> 7.021582e+01
<MIXTURE> 13 6.054154e-02
<MEAN> 39
 7.011755e+00 1.164919e+00 6.450259e+00 2.135078e+00 -4.265812e+00 -2.092527e+00 -6.458459e-01 -7.417327e+00 -4.670273e+00 1.636123e+00 -6.127944e+00 -3.141308e+00 1.443764e+01 1.665949e-01 5.761745e-01 -5.987497e-02 3.462172e-01 -1.533025e-01 5.178146e-02 1.258856e-01 -2.089293e-01 -5.715976e-02 1.602159e-01 -6.736359e-02 -7.344940e-02 -1.573045e-01 1.289914e-02 1.355603e-01 -1.913520e-01 4.466083e-02 2.757617e-02 6.788623e-02 -2.501423e-02 1.007339e-01 5.225631e-03 -1.345638e-01 1.244919e-01 -1.790746e-02 -2.683847e-02
<VARIANCE> 39
 9.188384e+00 1.813716e+01 2.186372e+01 3.549062e+01 3.686863e+01 4.210583e+01 4.014495e+01 4.323980e+01 4.159155e+01 4.007030e+01 4.214644e+01 2.969387e+01 2.462658e+00 2.363213e-01 4.439539e-01 5.169157e-01 6.691741e-01 8.618777e-01 9.058189e-01 9.246970e-01 9.856193e-01 1.019810e+00 1.063032e+00 9.961151e-01 8.763887e-01 2.094306e-02 3.857255e-02 7.100299e-02 1.021554e-01 1.228920e-01 1.501937e-01 1.474932e-01 1.578726e-01 1.656247e-01 1.655109e-01 1.722165e-01 1.674144e-01 1.439046e-01 4.150956e-03
<GCONST> 7.562853e+01
<MIXTURE> 14 4.238989e-02
<MEAN> 39
 7.814799e+00 1.930817e+00 2.232026e+00 -3.784385e+00 -4.286118e+00 -4.870088e+00 -6.023058e+00 -4.879041e+00 -6.024776e+00 -5.285495e+00 -7.127865e+00 -2.688161e+00 1.541260e+01 5.207372e-02 1.654935e-01 2.929390e-02 4.083538e-03 -4.369867e-02 -4.924162e-02 -7.793199e-02 -1.967501e-02 8.471575e-02 3.500309e-02 -6.192674e-02 -8.189096e-02 -2.949701e-02 -1.483366e-02 -7.622303e-03 -1.702522e-02 3.365830e-02 -8.261216e-02 7.831198e-02 3.001155e-02 -1.104006e-01 7.819196e-02 7.766498e-02 4.218748e-02 -3.877549e-02 2.723525e-03
<VARIANCE> 39
 1.513407e+01 2.688202e+01 3.628339e+01 4.808992e+01 4.155788e+01 5.972475e+01 5.002153e+01 5.285598e+01 4.191938e+01 5.367528e+01 4.458852e+01 4.225081e+01 2.913933e+00 7.427176e-02 2.081487e-01 2.898852e-01 4.095644e-01 5.373832e-01 6.110134e-01 6.472424e-01 6.934860e-01 7.194371e-01 7.172835e-01 6.725165e-01 6.084356e-01 3.403438e-03 1.524627e-02 3.769188e-02 6.091540e-02 7.149026e-02 1.006591e-01 1.096731e-01 1.230156e-01 1.222055e-01 1.242418e-01 1.286280e-01 1.141869e-01 1.116204e-01 5.687773e-04
<GCONST> 6.414998e+01
<MIXTURE> 15 5.496513e-02
<MEAN> 39
 7.857378e+00 2.642331e+00 1.121497e+00 -2.316115e+00 -6.927379e+00 -5.294573e+00 -4.679884e+00 -1.150891e+01 -4.584582e+00 -1.481376e+00 -5.719975e+00 -1.082060e+00 1.525885e+01 5.425045e-01 1.239922e+00 2.672816e-02 1.007996e+00 -8.770569e-02 7.414180e-01 -4.892912e-01 -5.315105e-01 1.134666e-01 -1.474579e-01 2.241107e-02 -4.167095e-01 -3.457683e-01 -4.966420e-01 -1.241022e-01 7.447399e-02 -6.390280e-02 4.420975e-01 2.146173e-01 1.934232e-01 8.742962e-01 -9.710838e-02 -1.632582e-01 2.849859e-01 -1.025077e-01 -1.079612e-02
<VARIANCE> 39
 1.880222e+01 2.930338e+01 3.922279e+01 7.060570e+01 5.344744e+01 6.806789e+01 6.484158e+01 5.869004e+01 6.097318e+01 6.153086e+01 7.418369e+01 6.032288e+01 2.447757e+00 1.122385e+00 1.539925e+00 2.706805e+00 3.589963e+00 3.548041e+00 4.072479e+00 3.966315e+00 4.349630e+00 3.874127e+00 3.626287e+00 3.740388e+00 3.080056e+00 7.227734e-02 3.257725e-01 3.796995e-01 7.114457e-01 9.321620e-01 9.441875e-01 9.819677e-01 9.911507e-01 9.349026e-01 9.059961e-01 8.869958e-01 8.760805e-01 6.994708e-01 2.870564e-02
<GCONST> 1.237777e+02
<MIXTURE> 16 5.275521e-02
<MEAN> 39
 9.439545e+00 2.414937e+00 1.982894e+00 5.177486e+00 -5.760435e+00 -4.859357e+00 9.025224e-01 -6.392569e+00 -8.430964e+00 1.864403e+00 -3.625690e+00 -5.324091e+00 1.443470e+01 2.188697e-01 7.684737e-01 -8.710112e-02 5.634063e-01 3.267247e-02 -1.481967e-01 3.317676e-01 -1.871164e-01 -2.332371e-01 1.035241e-01 -3.899501e-02 -1.059074e-01 -2.045302e-01 -4.447101e-01 1.125024e-01 2.741722e-01 -5.296606e-01 2.416627e-01 3.952864e-01 -3.627876e-01 3.134460e-01 3.868341e-01 -3.988065e-01 1.336501e-01 2.461079e-01 1.657141e-02
<VARIANCE> 39
 1.024479e+01 1.940829e+01 2.760296e+01 3.921056e+01 3.897557e+01 4.057195e+01 4.924862e+01 4.410635e+01 3.989468e+01 4.000399e+01 4.287454e+01 3.066352e+01 2.688159e+00 3.431204e-01 8.649464e-01 7.815468e-01 1.058206e+00 1.174697e+00 1.328133e+00 1.400343e+00 1.545219e+00 1.458730e+00 1.519207e+00 1.391621e+00 1.231706e+00 3.204791e-02 1.575943e-01 2.291208e-01 4.006932e-01 4.266497e-01 4.841003e-01 4.573705e-01 4.535198e-01 4.312525e-01 3.588175e-01 3.948143e-01 3.708826e-01 2.998712e-01 1.602251e-02
<GCONST> 9.574616e+01
~s "N4m"
<NUMMIXES> 16
<MIXTURE> 1 4.153797e-02
<MEAN> 39
 6.412080e+00 6.874240e+00 4.111498e+00 2.635128e+00 -3.184884e+00 -4.531018e+00 -5.394127e+00 -7.550693e+00 -6.504606e+00 -3.618224e+00 -4.829769e+00 -3.580294e+00 1.228764e+01 -2.452677e+00 -1.324980e-01 5.289540e-01 2.523675e+00 2.482772e+00 1.469567e+00 2.066453e+00 1.891429e+00 1.632518e+00 1.629199e+00 2.028288e+00 7.109432e-01 -1.271061e+00 -5.649562e-01 -7.421480e-01 -4.826731e-01 -5.194271e-02 2.654108e-01 5.661730e-01 5.926472e-01 6.957582e-01 7.943547e-01 3.802013e-01 5.350121e-01 5.281901e-01 9.086277e-03
<VARIANCE> 39
 1.404131e+01 2.316346e+01 2.808679e+01 3.515866e+01 3.823019e+01 3.364933e+01 2.891137e+01 4.095374e+01 4.306957e+01 4.123080e+01 3.453373e+01 3.198315e+01 3.129738e+00 1.358958e+00 2.806701e+00 2.444138e+00 3.087337e+00 3.507595e+00 3.794075e+00 3.520358e+00 4.347074e+00 4.226070e+00 4.425002e+00 4.079685e+00 3.462825e+00 2.790047e-01 2.935576e-01 4.556323e-01 4.948355e-01 6.183544e-01 6.889175e-01 5.976338e-01 5.890945e-01 6.930556e-01 7.418947e-01 7.581412e-01 6.222357e-01 5.470189e-01 5.268458e-02
<GCONST> 1.176239e+02
<MIXTURE> 2 6.633228e-02
<MEAN> 39
 1.051340e+01 5.260125e+00 3.008372e+00 5.448534e+00 -6.467954e+00 -2.057147e+00 1.497376e+00 -7.800291e+00 -8.400978e+00 2.662809e+00 -3.015316e+00 -4.381949e+00 1.372180e+01 -7.578680e-01 1.918396e+00 6.015456e-01 4.505087e-02 2.071579e+00 2.925169e-01 6.884606e-02 1.215403e+00 4.479767e-01 -4.878864e-01 -3.187264e-01 8.150190e-01 -7.511644e-01 -8.181022e-01 -2.553348e-01 8.456531e-02 -6.865434e-02 6.955142e-01 1.403582e-01 -1.749455e-01 4.223034e-01 6.071779e-01 -3.520327e-01 8.722316e-02 3.059475e-01 -1.355397e-01
<VARIANCE> 39
 1.212636e+01 1.606302e+01 1.908281e+01 2.878307e+01 3.130258e+01 3.863166e+01 3.842798e+01 3.880884e+01 4.197911e+01 3.304881e+01 3.879434e+01 3.279014e+01 2.131293e+00 9.504619e-01 1.583404e+00 1.588223e+00 2.360605e+00 2.559572e+00 3.247174e+00 3.363544e+00 3.303220e+00 3.570276e+00 3.029436e+00 3.108440e+00 2.552153e+00 1.479018e-01 1.851855e-01 2.865091e-01 2.841249e-01 3.779559e-01 4.255310e-01 4.938752e-01 4.527664e-01 5.206057e-01 5.502515e-01 4.189908e-01 4.785272e-01 4.222192e-01 3.245459e-02
<GCONST> 1.069327e+02
<MIXTURE> 3 5.141651e-02
<MEAN> 39
 9.430477e+00 3.536607e+00 -2.943114e-01 2.091925e+00 -1.935462e+00 -2.956674e-01 -8.747634e-01 -4.082084e+00 -3.069218e+00 1.195001e-01 -2.236969e+00 -1.498776e+00 1.352771e+01 1.039830e-01 3.418149e-01 -4.615787e-01 -6.856847e-01 3.195046e-01 5.235748e-01 4.714021e-02 3.501071e-01 -3.685940e-01 -1.633362e-01 5.118753e-01 2.922459e-01 -4.720800e-02 -1.616853e-01 -1.531581e-01 6.185640e-02 -3.037201e-01 -2.416551e-02 6.823069e-02 -6.035135e-02 1.801861e-01 1.820796e-02 -1.223874e-01 4.969952e-02 -2.113752e-02 7.274835e-02
<VARIANCE> 39
 1.171894e+01 2.069580e+01 3.223262e+01 3.969518e+01 3.134455e+01 3.341019e+01 4.639585e+01 4.043337e+01 3.841077e+01 3.613511e+01 3.435474e+01 2.805229e+01 2.844355e+00 4.636635e-01 8.340341e-01 1.522961e+00 1.946954e+00 1.741518e+00 2.112423e+00 2.099056e+00 2.272142e+00 2.088450e+00 2.203368e+00 1.910455e+00 1.574971e+00 5.998510e-02 8.734439e-02 1.199332e-01 2.493077e-01 2.364436e-01 3.182281e-01 3.029818e-01 3.552137e-01 3.620265e-01 3.563250e-01 3.207107e-01 2.986550e-01 2.508973e-01 6.313240e-03
<GCONST> 9.517564e+01
<MIXTURE> 4 5.284013e-02
<MEAN> 39
 8.278774e+00 9.719017e+00 4.425863e+00 4.095459e+00 -1.571895e+00 -1.725160e+00 2.831750e-01 -3.559718e+00 -3.788614e+00 -7.447874e-01 -2.603842e+00 -7.502384e-01 1.182062e+01 -2.106221e+00 7.095445e-01 6.759280e-01 1.182248e+00 2.453857e+00 6.716042e-01 2.571312e-01 1.125496e+00 5.897435e-01 -2.588820e-01 4.654657e-01 2.684665e-01 -9.453723e-01 -7.553161e-01 -1.002752e+00 -3.260617e-01 9.587604e-02 1.654163e-01 2.873003e-01 1.229835e-01 6.579693e-02 2.659574e-01 8.895829e-02 1.022956e-01 5.316541e-02 -3.862422e-03
<VARIANCE> 39
 1.027814e+01 1.303937e+01 1.571145e+01 2.146413e+01 2.164128e+01 2.635951e+01 2.710715e+01 3.088175e+01 3.106182e+01 2.741660e+01 2.833629e+01 2.406164e+01 2.537685e+00 1.113978e+00 2.059552e+00 1.958207e+00 2.761894e+00 2.777171e+00 3.434957e+00 3.629196e+00 3.763932e+00 4.120806e+00 3.631873e+00 3.916825e+00 3.023064e+00 2.234595e-01 1.833486e-01 2.062682e-01 2.576561e-01 3.504005e-01 3.462760e-01 4.023973e-01 4.073209e-01 4.654231e-01 4.649662e-01 3.973028e-01 4.030525e-01 3.699221e-01 3.183482e-02
<GCONST> 1.043899e+02
<MIXTURE> 5 9.384300e-02
<MEAN> 39
 1.041269e+01 5.096773e+00 2.408802e+00 -6.127472e-01 -9.037770e+00 -1.580396e+00 -7.507235e+00 -8.386553e+00 -3.282409e+00 -6.558974e+00 -7.568666e+00 -2.083975e+00 1.442441e+01 -3.880075e-01 1.435663e+00 5.742649e-01 1.175723e+00 1.495353e+00 -1.614633e-01 6.325244e-01 5.105435e-01 -4.211589e-01 5.461913e-01 3.882919e-01 -3.366529e-01 -5.742667e-01 -8.160575e-01 -2.418719e-01 4.236076e-02 3.534324e-01 9.431977e-01 -1.135293e-01 6.307365e-01 4.164407e-01 -3.824940e-02 4.156149e-01 4.584056e-01 3.697706e-02 -1.455754e-01
<VARIANCE> 39
 8.468199e+00 1.591928e+01 2.197108e+01 2.698421e+01 2.964058e+01 3.840408e+01 3.545871e+01 4.281822e+01 3.999606e+01 3.516196e+01 3.868912e+01 3.456822e+01 2.291496e+00 7.471665e-01 1.120545e+00 1.462580e+00 2.025926e+00 2.576899e+00 2.540494e+00 2.670841e+00 3.119962e+00 2.877534e+00 2.817312e+00 2.769147e+00 2.489789e+00 1.014095e-01 1.720195e-01 2.675820e-01 3.252864e-01 3.602768e-01 4.134395e-01 5.224647e-01 4.926991e-01 5.468541e-01 5.289825e-01 4.674419e-01 5.133517e-01 4.450234e-01 3.153317e-02
<GCONST> 1.048510e+02
<MIXTURE> 6 6.766546e-02
<MEAN> 39
 7.746400e+00 9.057555e-01 2.458779e+00 -4.150784e+00 -6.243565e+00 1.659670e+00 -4.460795e+00 -4.917984e+00 -5.385925e+00 -6.290863e-01 -2.456721e+00 -4.618260e+00 1.570591e+01 5.929471e-02 1.662675e-01 -1.733615e-01 -5.004278e-01 4.489770e-02 4.045663e-01 1.653844e-01 4.257235e-02 -1.433536e-01 1.734763e-03 3.191885e-01 2.347285e-01 9.172899e-03 -8.947458e-02 -1.294919e-01 -2.018385e-01 -1.615541e-01 1.745957e-01 -1.413060e-01 9.261416e-02 2.030845e-01 7.174024e-02 -1.653246e-01 6.641416e-02 1.325934e-01 5.328810e-02
<VARIANCE> 39
 2.307006e+01 2.722817e+01 5.987954e+01 6.433333e+01 4.921791e+01 5.100027e+01 5.927067e+01 5.777288e+01 4.661522e+01 4.555025e+01 5.296742e+01 3.748666e+01 2.592680e+00 1.943566e-01 4.720264e-01 8.394766e-01 9.762812e-01 1.123576e+00 1.247130e+00 1.467973e+00 1.443384e+00 1.378573e+00 1.393412e+00 1.293286e+00 1.165326e+00 1.467534e-02 5.083547e-02 8.704863e-02 2.011367e-01 2.434780e-01 3.270000e-01 3.655365e-01 3.599217e-01 3.863149e-01 3.418445e-01 3.014513e-01 3.120666e-01 2.528509e-01 3.124221e-03
<GCONST> 9.077737e+01
<MIXTURE> 7 6.581467e-02
<MEAN> 39
 1.369924e+00 5.800602e+00 5.227806e+00 8.221549e+00 3.564090e+00 -7.160410e-02 -1.512371e+00 -5.239331e+00 -5.191787e+00 -3.259912e+00 -3.616739e+00 -2.783647e+00 1.019959e+01 -2.523319e+00 -1.624708e+00 -1.005068e+00 8.863078e-01 1.716180e+00 1.703139e+00 1.923243e+00 2.417792e+00 2.249782e+00 1.391539e+00 2.011548e+00 1.243383e+00 -8.936133e-01 1.007849e-01 -4.319384e-01 -5.239672e-01 -5.565407e-01 -5.365137e-01 1.518811e-02 1.660850e-01 3.157999e-01 5.807858e-01 4.003863e-01 3.000078e-01 3.343919e-01 2.222892e-01
<VARIANCE> 39
 9.654449e+00 1.536620e+01 1.659674e+01 2.304527e+01 2.521103e+01 2.502013e+01 2.604061e+01 2.879777e+01 2.665090e+01 2.807633e+01 2.843885e+01 2.700040e+01 3.870556e+00 1.225926e+00 1.409487e+00 1.544819e+00 2.554570e+00 2.529056e+00 2.532024e+00 2.872152e+00 3.176039e+00 3.398918e+00 3.507739e+00 3.427276e+00 2.633135e+00 2.096446e-01 1.871710e-01 3.228557e-01 3.152410e-01 3.949697e-01 4.721241e-01 4.658619e-01 5.256198e-01 5.337129e-01 5.256296e-01 5.678189e-01 5.290194e-01 4.979790e-01 4.918323e-02
<GCONST> 1.061781e+02
<MIXTURE> 8 6.225795e-02
<MEAN> 39
 3.932966e+00 6.668845e+00 3.686153e+00 -6.201320e-01 -5.535175e+00 -5.110168e+00 -1.986508e+00 -4.999429e+00 -7.205132e+00 -3.287565e+00 -2.977442e+00 -2.197727e+00 1.517907e+01 -2.688288e+00 2.419765e+00 -1.405230e-01 1.671438e+00 2.125066e+00 -2.930472e-01 9.674520e-01 -1.004819e-01 1.013264e+00 -3.238391e-01 2.285528e-01 3.210930e-01 1.670691e-02 -1.287371e+00 -2.237818e-01 -2.332629e-01 1.675088e-01 6.892936e-01 5.565851e-01 2.311702e-01 4.287603e-01 4.798700e-01 2.106389e-01 2.022765e-01 4.565252e-02 2.703122e-01
<VARIANCE> 39
 1.583686e+01 1.807961e+01 3.822844e+01 4.295760e+01 3.885911e+01 4.098404e+01 4.092209e+01 5.620699e+01 3.707582e+01 3.963662e+01 3.617650e+01 3.399174e+01 2.154320e+00 1.122251e+00 2.261231e+00 2.240009e+00 4.241254e+00 4.072446e+00 4.183942e+00 4.066122e+00 4.333166e+00 3.686699e+00 3.437510e+00 3.609785e+00 3.586838e+00 1.007084e-01 1.577378e-01 3.394076e-01 3.196279e-01 3.702911e-01 4.386293e-01 5.530429e-01 5.371248e-01 5.810106e-01 4.918009e-01 5.446796e-01 4.706137e-01 4.278995e-01 1.433645e-02
<GCONST> 1.119115e+02
<MIXTURE> 9 7.558488e-02
<MEAN> 39
 9.060160e+00 5.449192e+00 4.848801e+00 6.861287e+00 -8.243905e+00 9.256003e-01 5.462688e-01 -1.242069e+01 -4.079342e+00 2.441265e+00 -7.756742e+00 -3.586816e+00 1.385498e+01 -7.717680e-01 1.261683e+00 1.296845e-01 -1.698139e-01 2.413828e+00 -6.175420e-01 -7.096396e-02 1.650125e+00 -5.628897e-01 -2.926683e-01 1.282131e-01 2.354001e-01 -4.569387e-01 -7.698343e-01 -4.507172e-01 -2.108088e-01 -5.817356e-01 8.684011e-01 -3.280800e-01 -2.540150e-01 1.012509e+00 2.524803e-01 -3.654686e-01 5.544783e-01 2.807517e-01 8.114363e-02
<VARIANCE> 39
 7.613683e+00 1.407562e+01 1.958733e+01 3.691619e+01 2.955210e+01 3.634987e+01 4.548030e+01 4.170024e+01 4.285793e+01 3.592596e+01 3.918258e+01 3.089310e+01 2.078851e+00 1.125938e+00 1.551481e+00 1.707363e+00 2.367521e+00 3.016325e+00 2.896208e+00 3.172793e+00 3.649427e+00 3.178823e+00 3.139079e+00 2.892065e+00 2.406492e+00 1.469080e-01 2.196731e-01 3.214422e-01 4.544739e-01 5.280769e-01 5.550606e-01 5.650223e-01 6.592777e-01 6.634551e-01 6.027806e-01 4.994620e-01 5.323638e-01 4.389249e-01 4.439121e-02
<GCONST> 1.096929e+02
<MIXTURE> 10 8.380515e-02
<MEAN> 39
 8.244421e+00 6.035347e+00 3.587854e+00 3.970376e+00 -3.268672e+00 -1.968224e+00 -2.242599e+00 -4.480912e+00 -2.074535e+00 -3.491280e+00 -4.286247e+00 -1.301294e+00 1.254404e+01 -3.842860e-01 6.779914e-01 2.536559e-01 2.763635e-01 5.105979e-01 5.633226e-04 -1.128335e-02 2.418121e-01 -1.610662e-01 -4.996619e-02 1.288017e-01 -1.064880e-01 -2.416703e-01 -4.200107e-01 -1.759191e-01 3.267821e-02 -5.676165e-02 2.637814e-01 1.386603e-02 1.215559e-01 1.053094e-01 -3.457517e-02 1.642057e-01 9.528980e-02 -2.530009e-02 2.646743e-02
<VARIANCE> 39
 1.098273e+01 1.764107e+01 2.032821e+01 3.148280e+01 2.517624e+01 2.845149e+01 3.431918e+01 3.358688e+01 3.065180e+01 3.439478e+01 3.110296e+01 2.647931e+01 3.016176e+00 4.386012e-01 8.178990e-01 8.965475e-01 1.001189e+00 1.258498e+00 1.261698e+00 1.351241e+00 1.462707e+00 1.402977e+00 1.462867e+00 1.299918e+00 1.212813e+00 4.433215e-02 1.461431e-01 1.943528e-01 2.170676e-01 2.792538e-01 2.748492e-01 2.752888e-01 2.890710e-01 2.827781e-01 2.696570e-01 2.681544e-01 2.618104e-01 2.290915e-01 1.263727e-02
<GCONST> 8.861435e+01
<MIXTURE> 11 5.309498e-02
<MEAN> 39
 1.007382e+01 3.327252e+00 7.763144e-02 -2.417868e+00 -1.001827e+01 -2.203984e+00 -6.413782e+00 -1.126447e+01 -3.905674e+00 -5.831055e+00 -3.348742e+00 1.178248e+00 1.497274e+01 -1.273256e-01 9.720396e-01 1.986135e-01 7.937544e-01 8.004014e-01 1.029439e-01 4.172626e-01 1.083044e+00 -4.191488e-01 6.586112e-02 -4.983369e-01 -6.837788e-01 -4.428137e-01 -8.043506e-01 -2.840678e-01 1.722183e-01 3.796291e-02 7.922515e-01 -3.598698e-01 4.195770e-01 7.250423e-01 8.817619e-02 4.589293e-01 1.463746e-01 -1.691632e-01 -2.057000e-02
<VARIANCE> 39
 1.363702e+01 2.364751e+01 3.434697e+01 4.809507e+01 4.918028e+01 5.571616e+01 5.349932e+01 5.851427e+01 6.101485e+01 7.055605e+01 8.951035e+01 7.317598e+01 2.012552e+00 1.239050e+00 1.460397e+00 2.164645e+00 2.606998e+00 2.991725e+00 3.583796e+00 3.885283e+00 3.954523e+00 4.106815e+00 4.169345e+00 4.820780e+00 4.129365e+00 1.288720e-01 2.867104e-01 3.774081e-01 5.304569e-01 6.648497e-01 7.051913e-01 7.916251e-01 8.168126e-01 8.217983e-01 8.632000e-01 8.687147e-01 1.013888e+00 7.727615e-01 4.954650e-02
<GCONST> 1.221080e+02
<MIXTURE> 12 5.666906e-02
<MEAN> 39
 2.054122e+00 3.669766e+00 3.236068e+00 6.246733e+00 3.597661e+00 1.008834e+00 1.797488e+00 -2.600274e+00 -3.020813e+00 -8.618486e-01 -4.096739e+00 -1.480656e+00 1.073777e+01 -1.351025e+00 -8.160952e-01 -9.141988e-01 3.946316e-02 5.851367e-01 5.515671e-01 4.459684e-01 7.886054e-01 6.987117e-01 1.497925e-02 4.634955e-01 3.616625e-01 -5.238178e-01 2.872860e-02 -1.458440e-01 -1.769474e-01 -2.882955e-01 -4.188425e-01 -1.768280e-01 -1.827489e-01 -8.285723e-02 1.380177e-01 7.367465e-02 2.227738e-01 1.240388e-01 1.536048e-01
<VARIANCE> 39
 1.345057e+01 1.782429e+01 2.212805e+01 2.509672e+01 3.090289e+01 3.427514e+01 3.445715e+01 3.561521e+01 3.446512e+01 3.870052e+01 3.368810e+01 2.790157e+01 3.250130e+00 1.309750e+00 1.804650e+00 1.810904e+00 2.070069e+00 2.349942e+00 2.341579e+00 2.422721e+00 2.662724e+00 2.520608e+00 2.599296e+00 2.538336e+00 2.266416e+00 1.954184e-01 2.358526e-01 3.438329e-01 3.596314e-01 3.887730e-01 4.727772e-01 5.189120e-01 5.249723e-01 5.684766e-01 5.370792e-01 5.362703e-01 5.308330e-01 4.522732e-01 4.593258e-02
<GCONST> 1.076763e+02
<MIXTURE> 13 6.015994e-02
<MEAN> 39
 8.908504e+00 2.134909e+00 3.336936e+00 3.698022e-01 -7.429208e+00 -3.363617e+00 -3.638105e+00 -7.754206e+00 -4.559639e+00 -3.790960e+00 -5.893210e+00 -1.262452e+00 1.501887e+01 -6.593398e-03 7.448088e-02 -9.433640e-02 1.475492e-01 7.303805e-02 -1.516380e-01 -1.086462e-01 1.445695e-01 1.520724e-01 2.067880e-01 -1.742264e-01 -4.116315e-02 -2.569178e-02 -2.966383e-01 -1.497076e-01 -2.463511e-01 -3.205701e-01 4.273767e-01 -1.523675e-01 -1.171419e-01 3.714387e-01 4.809404e-02 1.029872e-01 1.519612e-01 -1.549055e-01 6.929804e-02
<VARIANCE> 39
 1.032941e+01 2.101830e+01 2.826368e+01 4.932338e+01 3.654018e+01 6.149902e+01 5.243095e+01 5.447084e+01 5.234715e+01 5.541196e+01 4.521442e+01 4.457952e+01 1.998422e+00 1.119773e-01 2.732093e-01 3.763854e-01 4.834466e-01 6.703460e-01 7.573487e-01 9.665072e-01 1.006990e+00 1.079503e+00 1.112965e+00 1.027813e+00 9.585519e-01 4.118444e-03 8.212207e-02 1.357085e-01 2.858826e-01 2.990863e-01 3.626101e-01 4.217869e-01 4.067060e-01 4.640152e-01 3.964747e-01 3.810281e-01 3.498553e-01 3.202834e-01 2.711608e-03
<GCONST> 8.453613e+01
<MIXTURE> 14 5.477209e-02
<MEAN> 39
 7.495754e+00 4.145798e+00 4.781189e-01 -9.526459e-01 -4.750703e+00 -6.245574e+00 -4.856034e+00 -4.930083e+00 -6.801213e+00 -5.008795e+00 -5.460623e+00 -2.207050e+00 1.475480e+01 -1.370994e+00 6.369539e-01 5.309248e-01 5.268657e-01 1.266897e+00 3.719977e-01 6.914701e-02 4.705191e-01 5.352774e-01 8.933692e-02 4.333186e-01 -3.729259e-01 -1.962287e-01 -7.003632e-01 -3.243343e-01 1.619669e-01 -1.709461e-01 1.578530e-01 4.201532e-01 2.152426e-01 2.160150e-02 3.224636e-01 3.342815e-01 3.090679e-01 6.535180e-02 1.262318e-01
<VARIANCE> 39
 2.608653e+01 3.288979e+01 3.634057e+01 5.157785e+01 4.889729e+01 4.580236e+01 4.273674e+01 5.882249e+01 4.394728e+01 4.477398e+01 4.244504e+01 3.465956e+01 3.281507e+00 2.723945e+00 2.745930e+00 4.522533e+00 5.099508e+00 5.375692e+00 4.487861e+00 5.027740e+00 4.968802e+00 4.555498e+00 4.143133e+00 3.952292e+00 3.314301e+00 1.710551e-01 5.862473e-01 4.602588e-01 5.585101e-01 7.394130e-01 6.977030e-01 7.062734e-01 6.534851e-01 8.076504e-01 6.513429e-01 6.293896e-01 5.572501e-01 4.492370e-01 3.673185e-02
<GCONST> 1.237526e+02
<MIXTURE> 15 5.065506e-02
<MEAN> 39
 6.462478e+00 9.703960e+00 6.330447e+00 6.252330e+00 1.842492e-01 -1.274964e+00 1.873217e+00 -6.079334e+00 -7.536966e+00 1.446441e+00 -5.079814e+00 -2.595480e+00 1.181463e+01 -2.466208e+00 1.407169e-01 -1.486877e-01 7.521666e-02 3.150580e+00 3.095953e-01 -1.152017e-01 1.995103e+00 1.088354e+00 -8.561827e-01 3.180872e-01 1.044369e+00 -8.528399e-01 -6.123458e-01 -1.175432e+00 -6.708360e-01 -2.935119e-01 -2.958089e-01 1.132928e-01 -9.045729e-02 2.455502e-01 7.539507e-01 -2.661210e-03 4.142525e-01 2.327969e-01 1.716306e-01
<VARIANCE> 39
 9.501107e+00 1.115474e+01 1.461525e+01 2.602757e+01 2.923740e+01 2.748098e+01 2.731518e+01 3.594694e+01 3.590196e+01 3.315409e+01 3.328739e+01 2.303103e+01 2.936291e+00 1.473799e+00 2.513036e+00 2.443368e+00 3.648528e+00 3.169006e+00 3.757262e+00 4.271503e+00 4.119804e+00 4.309006e+00 3.754069e+00 3.897900e+00 3.103350e+00 4.203889e-01 2.188300e-01 2.687040e-01 3.344182e-01 4.276673e-01 5.403923e-01 4.910619e-01 5.331722e-01 6.077746e-01 5.863216e-01 5.674285e-01 5.160384e-01 3.982954e-01 5.903874e-02
<GCONST> 1.111690e+02
<MIXTURE> 16 6.354539e-02
<MEAN> 39
 7.860323e+00 8.398470e+00 4.775048e+00 2.477934e+00 -2.564367e+00 -4.918826e+00 -7.360548e+00 -1.041726e+01 -8.465323e+00 -5.736329e+00 -7.218856e+00 -4.910648e+00 1.361535e+01 -1.657526e+00 8.065293e-02 8.113593e-01 1.857587e+00 2.353674e+00 7.417713e-01 1.302791e+00 1.005839e+00 -3.315960e-02 4.659877e-01 8.233920e-01 -2.423951e-01 -8.148263e-01 -6.609241e-01 -8.123194e-01 -4.022693e-01 -8.178770e-03 1.497304e-01 4.669954e-01 7.012092e-01 7.819085e-01 7.995492e-01 4.900393e-01 5.569597e-01 4.887233e-01 -8.992170e-02
<VARIANCE> 39
 9.335338e+00 1.012481e+01 1.637810e+01 2.766731e+01 2.616558e+01 2.947049e+01 2.472880e+01 3.243287e+01 2.843175e+01 2.818071e+01 3.029997e+01 3.050824e+01 2.878692e+00 9.574499e-01 1.623615e+00 1.876899e+00 2.407543e+00 3.208110e+00 3.243325e+00 3.198208e+00 3.443315e+00 3.196565e+00 3.608492e+00 3.275509e+00 2.868951e+00 1.524379e-01 2.008897e-01 1.876803e-01 2.773964e-01 4.305964e-01 4.402426e-01 4.534821e-01 4.104970e-01 5.163308e-01 4.715621e-01 4.678218e-01 4.677594e-01 4.163031e-01 4.159797e-02
<GCONST> 1.048526e+02
~s "a2m"
<NUMMIXES> 16
<MIXTURE> 1 4.549886e-02
<MEAN> 39
 7.736156e+00 -9.709327e+00 -6.384222e+00 -7.176760e+00 7.757937e-01 1.264754e+00 -2.436029e+00 1.930573e+00 4.999086e+00 1.264627e+00 -1.010279e+00 -1.040833e+01 1.788080e+01 8.296987e-02 9.412193e-01 2.706594e-01 7.957001e-01 3.695558e-01 -1.151892e+00 -3.861299e-01 2.262099e-01 -3.523652e-01 8.269050e-01 -4.428665e-01 4.730318e-01 -3.022116e-01 -4.077723e-01 1.253587e+00 4.019234e-01 8.879246e-01 2.765625e-01 -2.950289e-01 1.760288e-01 -3.084367e-01 -4.769434e-01 1.713005e-01 -6.136696e-02 1.039707e+00 -4.205682e-01
<VARIANCE> 39
 9.680263e+00 1.662603e+01 1.712842e+01 2.882153e+01 3.270717e+01 5.102535e+01 3.128841e+01 3.769388e+01 3.830993e+01 3.482100e+01 4.352901e+01 2.759939e+01 2.000349e+00 7.247201e-01 1.404700e+00 1.651443e+00 2.178724e+00 2.816541e+00 4.218791e+00 3.248255e+00 3.412974e+00 2.791388e+00 2.648004e+00 3.535717e+00 2.548828e+00 9.925624e-02 3.286147e-01 3.040964e-01 3.380482e-01 4.725656e-01 6.835929e-01 6.603860e-01 6.018893e-01 6.346571e-01 6.748002e-01 6.195210e-01 6.326379e-01 4.758634e-01 3.595481e-02
<GCONST> 1.092079e+02
<MIXTURE> 2 7.761230e-02
<MEAN> 39
 6.742254e+00 -9.886062e+00 -6.603876e+00 -6.595148e+00 2.418147e+00 1.018219e-01 -8.850023e-02 2.240233e+00 5.789329e+00 -4.389720e-01 -5.011868e+00 -8.127773e+00 1.784357e+01 -3.245500e-02 -1.247878e-01 -4.826325e-02 2.310745e-01 2.254502e-01 -1.834316e-01 3.342896e-01 1.400019e-01 3.411511e-02 -2.382737e-01 -3.223740e-01 1.062859e-01 -3.042417e-02 -4.996103e-03 5.680194e-01 3.814869e-01 4.020343e-01 -3.620028e-01 -3.650169e-01 -2.995341e-01 -6.970344e-02 -2.953772e-01 1.907045e-01 2.907283e-01 4.958900e-01 -1.598164e-01
<VARIANCE> 39
 8.807328e+00 1.504514e+01 1.669328e+01 2.341596e+01 3.181141e+01 4.436314e+01 3.277894e+01 3.363097e+01 3.080355e+01 3.175576e+01 3.275919e+01 2.592182e+01 2.251454e+00 2.762031e-01 6.268971e-01 9.732388e-01 1.139705e+00 1.636816e+00 2.644047e+00 1.758506e+00 2.248433e+00 1.379309e+00 1.656117e+00 1.549931e+00 1.361148e+00 2.347920e-02 7.019897e-02 1.262350e-01 1.559076e-01 1.821914e-01 2.606054e-01 2.815903e-01 2.921094e-01 3.258750e-01 2.881642e-01 2.654845e-01 2.669016e-01 2.533120e-01 8.316522e-03
<GCONST> 8.693697e+01
<MIXTURE> 3 7.727398e-02
<MEAN> 39
 5.404886e+00 -1.069376e+01 -7.344835e+00 1.049677e+00 5.149829e-01 2.014344e+00 2.436025e+00 3.036623e+00 -4.288095e+00 -6.596784e+00 -4.953896e+00 2.083634e+00 1.730340e+01 5.021663e-03 -6.523709e-01 -4.971001e-01 7.883370e-01 9.346749e-01 7.215522e-01 -4.360900e-01 -5.442595e-01 -3.795319e-02 -2.678787e-02 2.497827e-01 5.978261e-02 2.825747e-02 -5.527820e-02 5.606515e-01 3.707569e-01 -1.646038e-01 -2.634744e-01 -4.331572e-01 -1.214235e-01 -8.766787e-02 3.753453e-01 2.633017e-01 1.161306e-01 -2.034290e-01 -1.314723e-01
<VARIANCE> 39
 8.505276e+00 1.911452e+01 2.185849e+01 2.532936e+01 3.232095e+01 2.647420e+01 3.970541e+01 2.917465e+01 3.344445e+01 2.595270e+01 2.915670e+01 2.258691e+01 2.989734e+00 3.312451e-01 7.120411e-01 9.800941e-01 1.111295e+00 1.931013e+00 1.466381e+00 2.040861e+00 1.813001e+00 1.770285e+00 1.620587e+00 1.439373e+00 1.396984e+00 3.186629e-02 9.054732e-02 1.579438e-01 1.615863e-01 2.165280e-01 2.769153e-01 2.790776e-01 3.278348e-01 3.263517e-01 2.933453e-01 3.113777e-01 2.754175e-01 2.392356e-01 9.471280e-03
<GCONST> 8.837142e+01
<MIXTURE> 4 6.076778e-02
<MEAN> 39
 5.812947e+00 -7.447761e+00 -8.010806e+00 -8.281693e-01 2.014081e+00 -1.410728e+00 3.566847e+00 7.674590e-01 -1.012745e+00 -3.802082e+00 -7.836596e+00 -1.468121e-01 1.651232e+01 8.014185e-01 -6.355407e-01 -5.653162e-01 -2.639894e-01 -2.121048e-01 -1.115697e-01 -1.276463e-02 -2.140523e-01 -3.823126e-01 -2.030151e-01 -4.536199e-01 -1.521743e-01 2.115772e-01 -7.080093e-01 4.871541e-01 5.869651e-01 3.236455e-01 1.122568e-01 6.529195e-02 -1.715157e-01 1.380643e-01 3.830225e-01 4.522578e-01 8.570082e-01 5.367044e-02 -2.109987e-01
<VARIANCE> 39
 1.120794e+01 2.220210e+01 2.851225e+01 3.258571e+01 4.818216e+01 4.371758e+01 4.484949e+01 4.019832e+01 4.683639e+01 5.415285e+01 3.152122e+01 2.554757e+01 2.777867e+00 1.522168e+00 2.806513e+00 2.586446e+00 2.652542e+00 5.680042e+00 4.295440e+00 3.727534e+00 3.449476e+00 3.041454e+00 3.018681e+00 2.732036e+00 2.493803e+00 1.723763e-01 3.224854e-01 4.835907e-01 5.104331e-01 6.172552e-01 7.789721e-01 6.715549e-01 7.648132e-01 8.127410e-01 8.121818e-01 8.257962e-01 5.650571e-01 4.590869e-01 4.481635e-02
<GCONST> 1.172432e+02
<MIXTURE> 5 7.436880e-02
<MEAN> 39
 6.802602e+00 -1.002021e+01 -9.290625e+00 -4.340820e+00 5.702215e+00 4.710547e+00 8.611280e-01 -1.567369e+00 2.038184e+00 -2.004366e+00 -3.909625e+00 -4.395615e+00 1.718673e+01 9.464323e-02 2.283983e-01 -1.275128e-01 1.267374e-01 2.398817e-01 2.100076e-01 -2.707002e-02 -1.685401e-01 5.630446e-02 4.050508e-02 3.465347e-02 8.178815e-02 -2.058139e-01 -7.476503e-03 2.147307e-01 8.823378e-02 5.832303e-02 -1.320478e-01 -1.372673e-01 -3.717461e-02 1.574465e-01 2.457859e-02 2.742041e-02 -2.298558e-02 3.285653e-02 -9.478742e-02
<VARIANCE> 39
 9.270969e+00 1.926676e+01 1.949990e+01 5.513332e+01 3.106628e+01 3.921444e+01 4.229990e+01 3.067071e+01 3.051711e+01 4.191804e+01 3.239893e+01 4.337636e+01 2.620934e+00 2.644895e-01 5.117044e-01 4.944017e-01 7.015842e-01 7.414849e-01 8.745834e-01 8.676266e-01 9.359905e-01 8.647397e-01 8.305039e-01 8.331676e-01 7.057207e-01 4.583583e-02 5.488473e-02 8.706465e-02 9.153540e-02 1.172667e-01 1.359251e-01 1.461295e-01 1.547234e-01 1.482035e-01 1.391740e-01 1.440381e-01 1.377287e-01 1.235055e-01 7.080286e-03
<GCONST> 7.533041e+01
<MIXTURE> 6 5.674867e-02
<MEAN> 39
 1.653614e+00 -1.652910e+01 -6.739996e+00 -3.007214e+00 6.574980e+00 -3.744450e+00 -3.590073e+00 -1.754398e+00 -5.106099e+00 -6.677411e+00 -9.942726e-01 6.267079e-01 1.930147e+01 8.447115e-02 2.070234e-02 1.684408e-01 4.485341e-01 2.463811e-01 2.004425e-01 -1.660867e-01 2.305298e-01 1.733851e-01 3.640687e-01 2.811671e-01 2.016756e-01 -3.062266e-02 1.557683e-01 3.611774e-01 2.146128e-02 -2.205538e-01 -3.803251e-01 -3.756207e-02 3.008502e-01 1.515499e-01 4.815423e-02 -3.442504e-02 -6.153777e-02 -1.323679e-02 -9.729996e-02
<VARIANCE> 39
 1.270104e+01 1.763124e+01 2.591614e+01 3.247911e+01 3.974691e+01 4.318771e+01 4.526931e+01 3.366819e+01 3.503631e+01 4.337087e+01 5.338256e+01 3.456629e+01 1.218820e+00 3.412658e-01 5.776783e-01 7.388293e-01 1.099265e+00 1.399466e+00 1.422345e+00 2.112753e+00 1.353354e+00 1.482612e+00 1.444903e+00 1.341331e+00 1.294099e+00 3.049750e-02 5.845938e-02 1.064432e-01 1.314205e-01 1.884574e-01 2.638464e-01 2.604853e-01 2.671400e-01 2.606252e-01 2.510628e-01 2.636102e-01 2.609450e-01 2.319941e-01 5.842117e-03
<GCONST> 8.659351e+01
<MIXTURE> 7 4.286169e-02
<MEAN> 39
 2.396582e+00 -1.541553e+01 -5.440672e+00 -6.355724e+00 3.438376e+00 -3.063223e+00 3.732772e+00 2.942493e-01 -4.328141e+00 -7.305652e+00 -2.353543e+00 2.142762e+00 1.907425e+01 -2.922531e-01 -1.482495e+00 -2.587600e-01 7.902132e-01 1.724129e+00 1.116284e+00 -2.567545e-01 -6.878284e-01 -7.415398e-01 -4.969897e-01 2.947318e-01 3.004141e-01 3.276158e-01 -5.571235e-02 1.051563e+00 1.988514e-01 7.144714e-01 -4.883178e-01 -1.353109e-01 -5.526633e-01 -6.850953e-02 4.285323e-01 5.919542e-01 2.221847e-01 -1.801245e-01 -3.368493e-01
<VARIANCE> 39
 1.444405e+01 2.042634e+01 2.467133e+01 4.120557e+01 4.755976e+01 4.422644e+01 5.043058e+01 4.138581e+01 4.178049e+01 4.168530e+01 5.859318e+01 3.973349e+01 1.784041e+00 7.730575e-01 1.826790e+00 1.667718e+00 2.687988e+00 4.015434e+00 3.120335e+00 3.818444e+00 2.937232e+00 2.998516e+00 3.388233e+00 2.639522e+00 2.529818e+00 1.582361e-01 2.779151e-01 3.590242e-01 3.364413e-01 6.852891e-01 6.030122e-01 6.659109e-01 7.868653e-01 7.523503e-01 6.203574e-01 6.878760e-01 6.489037e-01 5.566193e-01 3.964216e-02
<GCONST> 1.142354e+02
<MIXTURE> 8 5.702708e-02
<MEAN> 39
 7.432517e+00 -7.993084e+00 -9.662433e+00 -3.842692e+00 2.084597e+00 -1.721373e+00 4.303760e+00 -2.976871e+00 8.769219e+00 -1.852761e+00 -1.838425e+00 -8.742761e+00 1.740665e+01 2.852407e-01 -7.585958e-01 -3.953369e-01 -1.836088e-01 7.678036e-02 1.361526e-01 6.669155e-01 -2.620088e-01 4.501679e-01 -5.731251e-01 -8.439951e-03 -5.301911e-01 1.984407e-01 -5.735115e-01 6.094719e-01 6.354186e-01 3.549098e-01 7.985643e-02 -3.332642e-02 -5.749930e-01 4.741750e-01 -7.949580e-01 4.477357e-01 -4.050718e-02 8.358909e-01 -2.548748e-01
<VARIANCE> 39
 9.161961e+00 1.702053e+01 1.860711e+01 2.695605e+01 3.467400e+01 5.015596e+01 3.272088e+01 3.719035e+01 2.880022e+01 2.942160e+01 3.416920e+01 2.116607e+01 2.255700e+00 9.178755e-01 1.393901e+00 1.819225e+00 1.827326e+00 3.006305e+00 3.448159e+00 3.201851e+00 3.256832e+00 2.394298e+00 2.266515e+00 2.382797e+00 1.985498e+00 1.126889e-01 3.209175e-01 3.251152e-01 3.718993e-01 4.120782e-01 5.879852e-01 6.304176e-01 5.339677e-01 5.761244e-01 4.899799e-01 4.763104e-01 4.781936e-01 3.752359e-01 2.386427e-02
<GCONST> 1.056265e+02
<MIXTURE> 9 7.674195e-02
<MEAN> 39
 6.547463e+00 -1.029328e+01 -8.517082e+00 -8.860557e+00 4.348030e+00 2.951409e+00 1.024004e-01 -1.430517e+00 4.262128e+00 -2.761471e+00 -2.926806e+00 -8.755719e+00 1.820660e+01 -1.530451e-01 -2.730398e-01 -1.747558e-01 -6.908073e-02 5.270756e-01 1.774447e-01 2.733782e-01 -1.958973e-01 1.183651e-02 -2.953129e-01 -1.813527e-01 -1.056972e-01 2.577289e-02 5.843513e-02 3.977288e-01 2.507865e-01 3.348611e-01 -3.701137e-01 -3.920324e-01 -2.497555e-01 1.904202e-01 -1.766240e-01 2.791597e-01 3.374276e-02 3.218200e-01 -1.312906e-01
<VARIANCE> 39
 9.574809e+00 1.664144e+01 1.730813e+01 3.293430e+01 4.075912e+01 5.544798e+01 4.653550e+01 3.956126e+01 3.918690e+01 4.517428e+01 4.157180e+01 3.234542e+01 1.669044e+00 2.918369e-01 5.974743e-01 6.985086e-01 1.263652e+00 1.407109e+00 2.149056e+00 1.698437e+00 1.944004e+00 1.600048e+00 1.596176e+00 1.644693e+00 1.343436e+00 2.941340e-02 5.565167e-02 1.086417e-01 1.585406e-01 1.900523e-01 2.756400e-01 3.256905e-01 3.154036e-01 3.400414e-01 2.912698e-01 2.903335e-01 2.827215e-01 2.588050e-01 6.876273e-03
<GCONST> 8.884539e+01
<MIXTURE> 10 8.396588e-02
<MEAN> 39
 5.016329e+00 -1.123343e+01 -9.218892e+00 -1.277147e+00 5.043355e+00 1.073771e+00 -2.321167e+00 4.529253e-02 -1.830242e+00 -7.106052e+00 -4.530318e+00 -1.317449e+00 1.777858e+01 3.309067e-03 5.801402e-03 -7.648422e-02 2.794665e-02 2.054838e-01 5.343049e-02 -2.451654e-01 -9.731279e-02 9.908487e-02 1.082609e-02 8.358460e-02 -1.508815e-01 -5.781544e-02 2.058681e-02 1.338213e-01 1.166536e-01 -1.500716e-01 -2.183782e-01 -1.475459e-01 9.421178e-02 9.530616e-02 -6.605232e-03 6.509401e-03 -4.076852e-02 -9.823542e-03 -4.499163e-02
<VARIANCE> 39
 7.994888e+00 1.726095e+01 1.935511e+01 3.517259e+01 3.511026e+01 4.005005e+01 5.257689e+01 3.267920e+01 3.890301e+01 3.913365e+01 2.973523e+01 3.319333e+01 2.610054e+00 1.561952e-01 3.691696e-01 3.787530e-01 5.298955e-01 7.564819e-01 7.678863e-01 9.381291e-01 8.555720e-01 8.228465e-01 8.106759e-01 7.167683e-01 6.987913e-01 1.649210e-02 2.851854e-02 5.366159e-02 6.710758e-02 9.206193e-02 1.223667e-01 1.275772e-01 1.463998e-01 1.500800e-01 1.450807e-01 1.456124e-01 1.249625e-01 1.187228e-01 2.434889e-03
<GCONST> 6.895155e+01
<MIXTURE> 11 7.365008e-02
<MEAN> 39
 3.200069e+00 -1.100516e+01 -7.420783e+00 -3.910096e+00 -1.070609e+00 -2.168733e+00 1.811777e+00 1.364091e+00 -6.288881e+00 -1.103738e+01 -5.400209e+00 -6.583391e-01 1.827093e+01 -6.341689e-02 -3.081941e-01 -1.990015e-01 2.891575e-01 3.596251e-01 2.649383e-01 -6.649771e-02 -3.435757e-01 -2.384195e-01 -2.698851e-01 1.786846e-01 -8.749118e-02 2.195327e-02 1.026850e-01 5.417086e-01 4.276594e-01 -6.977171e-02 -4.312266e-01 -3.333522e-01 -1.248922e-01 4.908843e-02 3.212328e-01 4.614432e-01 7.935404e-02 -5.568212e-02 -1.188572e-01
<VARIANCE> 39
 7.326950e+00 1.610061e+01 1.895508e+01 2.284354e+01 3.458670e+01 2.370353e+01 3.891767e+01 3.084316e+01 3.737410e+01 2.488848e+01 2.656833e+01 2.160148e+01 2.063991e+00 1.855764e-01 5.066149e-01 7.550938e-01 7.573448e-01 1.740481e+00 1.212659e+00 1.675282e+00 1.279662e+00 1.453694e+00 1.211631e+00 1.145178e+00 1.105708e+00 1.584245e-02 4.685265e-02 1.095738e-01 1.174896e-01 1.775025e-01 2.343691e-01 2.485456e-01 3.109099e-01 2.978207e-01 2.596192e-01 2.449631e-01 2.340475e-01 2.102012e-01 5.351672e-03
<GCONST> 8.011176e+01
<MIXTURE> 12 6.944520e-02
<MEAN> 39
 4.101320e+00 -9.492696e+00 -7.532533e+00 -4.267830e+00 -2.982368e+00 -3.092212e+00 2.233521e+00 2.664733e+00 -3.973699e+00 -8.565364e+00 -7.534127e+00 -2.996778e-01 1.797660e+01 -2.944179e-02 -1.520744e+00 -9.275295e-01 3.935453e-02 9.137988e-01 1.161809e+00 1.667294e-01 -3.305284e-01 -8.828337e-01 -8.747264e-01 -3.550042e-01 -4.275870e-01 3.081087e-01 -5.041507e-01 6.183403e-01 4.791241e-01 7.105114e-01 4.106456e-01 3.928412e-02 -3.530147e-02 -1.378758e-01 4.924388e-01 7.382469e-01 8.655311e-01 8.798928e-02 -2.134661e-01
<VARIANCE> 39
 7.905923e+00 1.514410e+01 1.932727e+01 2.314633e+01 3.657463e+01 2.587373e+01 3.509273e+01 3.706607e+01 3.996955e+01 3.361664e+01 2.777950e+01 2.158417e+01 2.051696e+00 4.666117e-01 1.134065e+00 1.383848e+00 1.667073e+00 2.892468e+00 2.333818e+00 2.424620e+00 2.201689e+00 2.213830e+00 2.229383e+00 1.933789e+00 1.724059e+00 7.089450e-02 1.912526e-01 3.006757e-01 2.767744e-01 4.111852e-01 5.043280e-01 4.396077e-01 5.645523e-01 7.548243e-01 5.966812e-01 5.544134e-01 3.883678e-01 3.446496e-01 1.881957e-02
<GCONST> 1.003665e+02
<MIXTURE> 13 5.449753e-02
<MEAN> 39
 2.430045e+00 -1.480065e+01 -7.274894e+00 -5.487889e+00 3.473843e+00 -4.360641e+00 4.897466e-01 -1.054285e+00 -5.335568e+00 -1.063022e+01 -2.971305e+00 1.560275e-01 1.905007e+01 -2.303487e-01 -4.105493e-01 -7.379373e-02 4.427421e-01 2.855803e-01 1.162085e-01 8.229376e-02 -4.030769e-01 -3.257767e-01 -3.693628e-01 3.551575e-01 1.468273e-01 7.930841e-02 2.331121e-01 9.341642e-01 3.729815e-01 1.498504e-01 -7.233300e-01 -3.024069e-01 -2.504056e-01 3.959641e-02 3.376172e-01 6.529224e-01 -2.897258e-02 -1.405197e-01 -2.489900e-01
<VARIANCE> 39
 1.043501e+01 2.342444e+01 2.414860e+01 3.669828e+01 4.565667e+01 4.133105e+01 4.976073e+01 3.895164e+01 5.083460e+01 3.574206e+01 4.091871e+01 3.188196e+01 1.470898e+00 6.027119e-01 1.047396e+00 1.611108e+00 2.055484e+00 4.003206e+00 2.686663e+00 4.134766e+00 2.812235e+00 3.000476e+00 2.595916e+00 2.284366e+00 2.252933e+00 5.488995e-02 1.280945e-01 2.074774e-01 2.739275e-01 4.316537e-01 4.652923e-01 5.099860e-01 5.984262e-01 6.130418e-01 5.955998e-01 5.540020e-01 4.780980e-01 4.299130e-01 1.245025e-02
<GCONST> 1.052138e+02
<MIXTURE> 14 4.151724e-02
<MEAN> 39
 2.802546e+00 -1.585831e+01 -6.781990e+00 -2.411958e+00 5.579025e+00 -2.438806e+00 -2.841043e+00 -3.471929e-02 -5.919316e+00 -7.952652e+00 -1.190849e+00 1.173153e+00 1.918351e+01 -1.851733e-01 1.961908e-01 6.848714e-02 -3.674909e-01 -9.055642e-01 -5.773612e-01 4.918002e-01 -1.971361e-01 -6.774524e-01 -4.244592e-01 6.787923e-02 -1.009742e-01 -9.225940e-02 8.269726e-02 4.148490e-01 2.816297e-02 -4.222803e-01 -6.122703e-01 -2.799154e-01 2.062180e-01 -6.181302e-02 -2.565569e-02 7.359304e-03 -2.177245e-01 -2.135465e-01 -1.073240e-01
<VARIANCE> 39
 1.055961e+01 1.658712e+01 2.131340e+01 2.871501e+01 3.677284e+01 4.175978e+01 4.721505e+01 3.386908e+01 3.470696e+01 3.594340e+01 3.886190e+01 2.862235e+01 1.110203e+00 2.953862e-01 6.285439e-01 9.104783e-01 1.119122e+00 1.672559e+00 1.520298e+00 2.572515e+00 1.617959e+00 1.615387e+00 1.495262e+00 1.449838e+00 1.458655e+00 2.480771e-02 5.712616e-02 1.384099e-01 1.445835e-01 2.076118e-01 2.642132e-01 3.154275e-01 3.381310e-01 3.057572e-01 3.137802e-01 3.138345e-01 2.567202e-01 2.708779e-01 5.342350e-03
<GCONST> 8.753362e+01
<MIXTURE> 15 4.216116e-02
<MEAN> 39
 6.546780e+00 -9.590463e+00 -8.043730e+00 -5.964359e+00 3.218353e-03 -2.551861e-01 -1.371289e+00 1.884345e+00 5.084378e+00 -1.512002e+00 -6.577687e-01 -1.143207e+01 1.812291e+01 2.945731e-01 -1.574275e+00 -6.838031e-01 -8.477173e-01 1.993141e-01 1.262087e+00 7.587251e-01 -7.257584e-02 4.854582e-01 -1.053189e+00 3.181078e-01 -1.336035e+00 4.530733e-01 -5.949208e-01 5.739396e-01 2.859262e-01 5.722766e-01 4.228613e-01 -2.441674e-01 2.064628e-02 -1.041672e-01 -3.891203e-01 3.317663e-01 -2.407130e-01 1.110778e+00 -2.567891e-01
<VARIANCE> 39
 9.634935e+00 1.497336e+01 2.042546e+01 2.962628e+01 3.855243e+01 5.471252e+01 3.270246e+01 3.762193e+01 3.831322e+01 3.773046e+01 3.951490e+01 2.470581e+01 1.901010e+00 6.732661e-01 1.151905e+00 1.541879e+00 1.910768e+00 3.188349e+00 3.415945e+00 2.890716e+00 3.002116e+00 2.640521e+00 2.472207e+00 2.526647e+00 2.228764e+00 1.184876e-01 2.704377e-01 2.737817e-01 4.689915e-01 4.156866e-01 7.044669e-01 6.756915e-01 5.061210e-01 6.096354e-01 5.954703e-01 5.455379e-01 6.000967e-01 4.401371e-01 2.050834e-02
<GCONST> 1.069734e+02
<MIXTURE> 16 6.576426e-02
<MEAN> 39
 7.123717e+00 -1.195374e+01 -5.876840e+00 -8.380711e+00 1.535213e+00 4.221827e+00 -6.194018e+00 5.883620e+00 2.749482e-01 2.765561e+00 -5.666719e+00 -7.978456e+00 1.839695e+01 -5.444269e-02 -4.824492e-01 1.308683e-01 7.506213e-02 1.495714e-01 -9.689453e-02 1.753194e-01 5.647892e-01 -5.620189e-02 -1.912868e-01 -5.251589e-01 8.344544e-02 7.273616e-02 -2.535028e-01 9.918426e-01 2.485205e-01 7.694196e-01 -5.252672e-02 -7.545660e-01 4.605453e-01 -6.377955e-01 7.993071e-02 -1.664757e-01 3.135850e-01 6.709591e-01 -2.922945e-01
<VARIANCE> 39
 9.943564e+00 1.708410e+01 1.807818e+01 2.775433e+01 3.163339e+01 4.392315e+01 2.828628e+01 3.045288e+01 3.376190e+01 3.807363e+01 3.910471e+01 3.360074e+01 1.801942e+00 5.049244e-01 1.384273e+00 1.347706e+00 1.977214e+00 2.389755e+00 3.876644e+00 2.504807e+00 2.723328e+00 2.174595e+00 2.242916e+00 2.468942e+00 1.920717e+00 9.444559e-02 2.016117e-01 2.105994e-01 3.240597e-01 3.612609e-01 4.980613e-01 4.357398e-01 4.062457e-01 4.800689e-01 5.036758e-01 4.520649e-01 4.828677e-01 4.518455e-01 1.663044e-02
<GCONST> 1.019384e+02
~s "a3m"
<NUMMIXES> 16
<MIXTURE> 1 5.218369e-02
<MEAN> 39
 6.554247e+00 -5.159678e+00 -7.642955e+00 -3.186723e+00 -2.413715e-01 -7.359261e+00 -1.653840e+00 -6.669921e-02 5.207086e-02 -3.405627e+00 -8.873604e+00 -1.256139e+00 1.663241e+01 -2.281880e-02 3.506940e+00 1.573163e+00 2.193760e+00 6.089189e-01 -4.620889e-01 -4.515938e-01 -6.619386e-02 7.447563e-01 1.105057e+00 5.923520e-01 6.496927e-01 -1.293381e+00 -7.549717e-01 3.480958e-01 6.178802e-01 7.291119e-01 4.963430e-01 1.091250e+00 5.095090e-01 2.746758e-01 1.656527e-01 2.965133e-01 9.936941e-01 6.412614e-02 -3.819347e-01
<VARIANCE> 39
 8.517797e+00 1.710488e+01 2.533675e+01 3.046457e+01 4.465458e+01 4.296946e+01 4.616000e+01 4.483081e+01 5.044750e+01 7.678728e+01 4.267233e+01 3.163180e+01 2.060457e+00 1.684689e+00 2.220851e+00 2.272521e+00 2.767691e+00 4.187843e+00 3.698200e+00 4.363776e+00 4.148868e+00 4.182827e+00 4.039358e+00 3.144397e+00 3.028233e+00 3.617000e-01 2.922773e-01 3.597591e-01 4.351161e-01 5.615243e-01 7.202921e-01 6.679247e-01 7.462037e-01 8.544905e-01 8.197847e-01 1.105567e+00 7.407480e-01 5.741888e-01 4.767339e-02
<GCONST> 1.187130e+02
<MIXTURE> 2 4.346411e-02
<MEAN> 39
 6.514835e+00 -1.055062e+01 -4.599304e+00 -2.915184e+00 -1.655279e+00 -4.717359e+00 -1.034528e+00 7.499120e+00 6.564172e+00 -2.303802e+00 -5.683027e+00 -6.362858e+00 1.782551e+01 -3.485835e-01 7.617159e-01 2.224325e+00 1.165497e+00 -2.105352e+00 -2.149763e+00 -2.669334e-01 1.353113e+00 -6.002485e-01 -5.792226e-01 3.900395e-01 2.157088e+00 -2.052958e-01 -1.360893e-01 7.913066e-01 5.849533e-01 1.085908e-01 -1.147335e-01 2.246970e-01 -5.919323e-02 -8.308927e-01 -7.152900e-01 2.288166e-01 6.183127e-01 4.624804e-01 -1.690415e-01
<VARIANCE> 39
 9.442367e+00 1.703008e+01 1.865119e+01 2.141128e+01 3.020507e+01 3.943965e+01 3.983568e+01 3.222403e+01 3.252132e+01 3.172555e+01 3.038659e+01 2.832973e+01 2.327470e+00 4.976900e-01 1.176998e+00 1.244489e+00 1.722170e+00 2.421309e+00 2.620994e+00 3.170263e+00 2.795761e+00 2.620482e+00 2.231321e+00 2.716928e+00 2.043685e+00 6.279427e-02 1.437431e-01 1.930440e-01 2.199073e-01 3.096665e-01 4.560257e-01 4.740441e-01 4.748137e-01 4.855696e-01 4.124918e-01 4.204807e-01 4.253125e-01 3.801489e-01 1.489054e-02
<GCONST> 9.944745e+01
<MIXTURE> 3 6.219058e-02
<MEAN> 39
 5.099477e+00 -7.435331e+00 -5.979110e+00 -1.326791e+00 -3.615455e+00 -2.048087e+00 4.010819e+00 3.632340e+00 -3.656782e+00 -8.068212e+00 -6.646495e+00 8.979111e-01 1.685955e+01 2.193393e-01 1.371159e+00 1.255116e+00 7.938046e-02 -1.204247e+00 -9.223893e-01 -2.276506e-01 1.158196e-01 4.453204e-01 4.846002e-01 3.945119e-01 2.283603e-01 -3.399195e-01 -4.888224e-02 7.329777e-01 6.548772e-01 3.475663e-01 2.187010e-01 -1.515111e-01 -4.506876e-01 -3.393665e-01 3.479165e-01 4.674426e-01 3.735691e-01 -7.798024e-02 -2.319812e-01
<VARIANCE> 39
 6.874834e+00 1.465959e+01 1.993151e+01 2.378237e+01 3.380551e+01 2.618845e+01 3.158657e+01 2.741153e+01 3.498923e+01 2.844397e+01 2.490824e+01 2.081392e+01 2.490424e+00 4.159169e-01 1.056672e+00 1.350149e+00 1.220415e+00 2.543489e+00 2.026950e+00 2.374100e+00 2.118338e+00 2.170133e+00 2.106193e+00 1.976979e+00 1.616316e+00 4.786617e-02 1.583072e-01 2.275160e-01 2.324978e-01 3.242554e-01 4.492261e-01 3.783792e-01 4.197460e-01 4.485681e-01 4.055036e-01 3.905276e-01 3.249515e-01 3.047062e-01 1.982693e-02
<GCONST> 9.521511e+01
<MIXTURE> 4 6.500888e-02
<MEAN> 39
 6.107420e+00 -1.317410e+01 -8.927311e+00 -2.134914e+00 7.039421e+00 4.894316e+00 -3.621514e-01 -1.118554e-01 6.625696e-01 -2.693654e+00 -4.509087e+00 -1.008147e+00 1.650647e+01 -5.374225e-01 1.389965e+00 -6.740180e-02 9.649523e-01 6.830881e-01 6.242268e-01 7.138628e-01 5.543997e-01 6.862837e-01 3.569923e-01 1.752195e-01 5.865231e-01 -1.020639e+00 -4.974978e-01 7.908264e-01 2.471080e-01 4.711553e-01 -2.153770e-02 7.577745e-02 4.127890e-01 3.358423e-01 2.226823e-01 1.898886e-01 3.538827e-01 2.106894e-01 -3.634196e-01
<VARIANCE> 39
 1.351624e+01 2.665954e+01 2.365768e+01 6.321275e+01 3.564778e+01 4.015191e+01 4.617902e+01 3.306748e+01 3.392619e+01 4.240374e+01 3.505053e+01 4.788206e+01 2.447778e+00 1.387425e+00 1.792387e+00 1.674168e+00 1.814947e+00 1.864412e+00 2.616085e+00 2.547795e+00 2.603102e+00 2.227968e+00 2.221323e+00 2.228197e+00 1.978146e+00 2.417671e-01 2.380965e-01 3.302655e-01 3.367493e-01 4.195213e-01 3.884105e-01 4.246419e-01 4.318542e-01 4.265345e-01 4.071260e-01 4.128694e-01 3.943282e-01 3.727616e-01 3.211343e-02
<GCONST> 1.070927e+02
<MIXTURE> 5 9.951629e-02
<MEAN> 39
 7.174503e+00 -7.432478e+00 -8.621367e+00 -7.339501e+00 4.558201e+00 6.535257e-01 -1.072083e+00 -2.039501e-01 4.029787e+00 -9.745145e-01 -3.415965e+00 -7.463595e+00 1.741015e+01 4.109946e-01 1.040173e+00 4.685138e-01 5.271053e-01 -5.459099e-01 -2.592323e-01 -5.672109e-01 -2.095635e-01 -5.323855e-01 7.207476e-01 3.516752e-01 4.524350e-01 -3.688012e-01 1.486143e-03 4.135942e-01 5.105314e-01 5.556340e-01 -3.922983e-01 -1.164964e-01 -7.878582e-02 -2.103575e-01 -3.666702e-01 1.804369e-01 8.230367e-02 3.769602e-01 -1.803416e-01
<VARIANCE> 39
 9.086761e+00 1.553961e+01 1.937551e+01 3.428996e+01 3.717987e+01 5.418580e+01 4.857914e+01 4.014284e+01 3.984303e+01 4.770344e+01 4.669672e+01 3.038987e+01 2.120475e+00 3.886610e-01 8.176784e-01 1.134322e+00 1.949548e+00 2.077151e+00 2.824704e+00 2.430544e+00 2.604560e+00 2.393198e+00 2.298877e+00 2.420407e+00 1.930094e+00 4.936242e-02 8.254488e-02 1.559872e-01 2.646646e-01 3.059153e-01 3.888192e-01 4.072473e-01 4.622540e-01 5.208701e-01 4.124900e-01 4.163989e-01 4.232712e-01 3.265013e-01 1.343490e-02
<GCONST> 9.918591e+01
<MIXTURE> 6 7.156392e-02
<MEAN> 39
 4.603624e+00 -7.982492e+00 -6.411555e+00 -5.131420e+00 -2.223423e+00 -6.556541e+00 1.737536e+00 9.811618e-01 -1.167742e+00 -7.620608e+00 -7.645276e+00 -5.884613e-01 1.771248e+01 5.537251e-01 2.545638e+00 1.233576e+00 1.246066e+00 -5.417613e-01 -1.307630e+00 -9.843367e-01 -2.225479e-01 7.191465e-01 9.019970e-01 2.629597e-01 5.195004e-01 -7.622988e-01 -1.434216e-01 8.930125e-01 6.043442e-01 9.837543e-01 4.632097e-01 6.062031e-01 -1.964006e-01 -7.690881e-02 8.406299e-02 5.527061e-01 5.859842e-01 -7.192913e-02 -4.144177e-01
<VARIANCE> 39
 7.915773e+00 1.747131e+01 2.536581e+01 2.466892e+01 4.888725e+01 3.138345e+01 4.021637e+01 4.165440e+01 5.763130e+01 5.168357e+01 3.076032e+01 2.973680e+01 1.919357e+00 6.725827e-01 1.593874e+00 1.868031e+00 1.893702e+00 3.021158e+00 2.655908e+00 3.210619e+00 3.106753e+00 3.195811e+00 2.834588e+00 2.551566e+00 2.322133e+00 1.301326e-01 2.283047e-01 3.293595e-01 3.642625e-01 4.094027e-01 7.225549e-01 5.481762e-01 6.336926e-01 8.389595e-01 8.299490e-01 7.762372e-01 5.013184e-01 4.747761e-01 3.675104e-02
<GCONST> 1.097068e+02
<MIXTURE> 7 5.533628e-02
<MEAN> 39
 2.985104e+00 -8.228562e+00 -2.056417e+00 -5.652847e+00 -7.950682e+00 -1.568365e+00 6.629178e+00 1.847560e+00 -6.201019e+00 -7.376709e+00 -3.530319e+00 -2.604989e+00 1.761319e+01 -2.694506e-01 1.431044e+00 1.879075e+00 -1.250408e+00 -1.908875e+00 -7.974494e-02 6.693663e-02 -7.076387e-01 5.241311e-01 1.826100e+00 2.594416e-01 -8.236027e-01 -1.359901e-01 -1.597854e-02 3.443696e-01 2.587520e-01 -1.030915e-01 5.712030e-02 -5.404262e-02 -6.152152e-01 -3.933694e-01 3.129373e-01 3.915679e-01 -8.208333e-02 1.245316e-01 -2.768103e-02
<VARIANCE> 39
 7.283508e+00 1.473282e+01 1.774387e+01 2.666007e+01 2.447150e+01 2.909604e+01 2.745353e+01 3.209900e+01 2.814913e+01 2.702195e+01 2.121431e+01 2.226744e+01 2.639829e+00 1.541592e-01 5.537487e-01 6.864961e-01 9.109253e-01 1.186703e+00 1.245140e+00 1.511953e+00 1.390472e+00 1.691779e+00 1.544967e+00 1.608613e+00 1.100391e+00 1.577780e-02 2.379601e-02 7.481326e-02 9.478767e-02 1.220538e-01 1.668904e-01 1.749889e-01 2.601381e-01 2.320217e-01 2.113684e-01 2.345006e-01 1.782858e-01 2.014196e-01 2.325196e-03
<GCONST> 7.568364e+01
<MIXTURE> 8 3.886952e-02
<MEAN> 39
 5.589994e+00 -1.082633e+01 -2.938137e+00 -3.741246e+00 -3.592433e+00 -4.744054e+00 -1.465876e+00 8.132392e+00 6.517616e+00 -3.860608e+00 -4.159471e+00 -6.209084e+00 1.837934e+01 -2.636490e-01 4.006118e-01 1.479511e+00 6.150066e-01 -1.555732e+00 -1.321254e+00 1.348902e-01 9.065138e-01 -5.955235e-01 -4.695926e-01 7.211692e-01 1.312118e+00 -7.848532e-02 -5.353038e-02 3.748658e-01 3.884697e-01 -1.086076e-02 -2.667024e-01 -4.653035e-02 -1.212542e-01 -3.883213e-01 -3.875118e-01 2.513723e-01 4.281075e-01 2.715334e-01 -5.217722e-02
<VARIANCE> 39
 7.941614e+00 1.293156e+01 1.686421e+01 1.805588e+01 2.642546e+01 3.732222e+01 3.493319e+01 2.656107e+01 3.075370e+01 2.703598e+01 2.608266e+01 2.477712e+01 1.785728e+00 1.535873e-01 3.769040e-01 5.793966e-01 6.025247e-01 8.801252e-01 1.187047e+00 1.087265e+00 1.380815e+00 1.100094e+00 1.042878e+00 1.416008e+00 9.699103e-01 1.280443e-02 2.709080e-02 6.458807e-02 1.071073e-01 9.553871e-02 1.518683e-01 1.744909e-01 1.701155e-01 1.862021e-01 1.763306e-01 1.601739e-01 1.887095e-01 1.863904e-01 2.366327e-03
<GCONST> 7.119981e+01
<MIXTURE> 9 7.741110e-02
<MEAN> 39
 5.212960e+00 -1.094852e+01 -1.048109e+01 -1.229815e+00 5.498758e+00 -3.212386e-01 -3.728261e+00 -1.065888e+00 -1.211510e+00 -8.432738e+00 -4.479184e+00 -2.454654e+00 1.764050e+01 3.450880e-01 9.935558e-01 -6.607225e-02 -8.083078e-02 -3.239272e-02 -1.656066e-01 -3.643180e-01 -5.536226e-02 4.398013e-02 9.968740e-02 2.237061e-02 -3.133553e-01 -3.389124e-01 3.206653e-02 4.370009e-01 4.032721e-01 -6.907791e-02 -3.371578e-01 -9.862022e-02 1.915811e-01 1.093885e-01 -8.795144e-02 2.795158e-01 -4.490419e-03 7.780565e-02 -1.491102e-01
<VARIANCE> 39
 1.034661e+01 2.077972e+01 2.529717e+01 4.366389e+01 3.983820e+01 5.074248e+01 6.471915e+01 4.037328e+01 4.503362e+01 4.457157e+01 3.797725e+01 3.550247e+01 2.297646e+00 4.854549e-01 8.292292e-01 1.075470e+00 1.458264e+00 2.059263e+00 2.189490e+00 2.430996e+00 2.311368e+00 2.247591e+00 2.287805e+00 1.854858e+00 1.962298e+00 5.821998e-02 9.193542e-02 1.630514e-01 2.449590e-01 2.743730e-01 3.502258e-01 3.808956e-01 4.378307e-01 4.423933e-01 3.743819e-01 3.961748e-01 3.475820e-01 3.110798e-01 1.314119e-02
<GCONST> 9.901493e+01
<MIXTURE> 10 9.464920e-02
<MEAN> 39
 7.678195e+00 -7.570557e+00 -1.041813e+01 -4.021038e+00 6.402114e+00 5.090556e+00 3.814965e+00 -2.035547e+00 1.814406e+00 6.590877e-01 -4.483845e+00 -5.109174e+00 1.554480e+01 -4.069864e-01 8.276817e-01 -6.421024e-02 6.235876e-01 4.612000e-01 1.755642e-01 2.555785e-01 -1.156114e-01 4.508861e-02 2.883196e-02 -2.572421e-01 1.689324e-01 -5.979555e-01 -4.037705e-01 1.823973e-01 2.493173e-01 2.338800e-01 -3.228769e-02 -8.758443e-03 -3.557023e-02 2.880515e-01 1.473386e-01 -7.427679e-03 8.959380e-02 1.677806e-01 -1.556469e-01
<VARIANCE> 39
 9.740520e+00 2.141184e+01 2.120003e+01 5.798598e+01 3.116507e+01 4.147107e+01 3.910361e+01 2.940185e+01 2.973628e+01 4.046336e+01 3.010156e+01 4.153559e+01 2.589069e+00 7.243071e-01 1.339824e+00 1.311918e+00 1.597782e+00 1.518471e+00 1.709096e+00 1.710178e+00 1.761912e+00 1.565113e+00 1.561052e+00 1.482092e+00 1.357369e+00 1.220630e-01 1.496701e-01 2.358862e-01 2.488873e-01 2.765763e-01 2.806253e-01 2.998183e-01 3.227550e-01 3.130675e-01 2.676158e-01 2.695009e-01 2.574489e-01 2.447962e-01 1.766633e-02
<GCONST> 9.555727e+01
<MIXTURE> 11 4.778337e-02
<MEAN> 39
 2.823737e+00 -1.412285e+01 -6.376176e+00 -7.771419e+00 8.200452e-02 -7.010200e+00 8.416909e-01 -6.241428e-01 -4.834863e+00 -7.431358e+00 -1.027342e+00 1.171947e+00 1.858230e+01 1.056051e+00 2.377648e+00 7.020229e-01 6.376351e-02 -2.286577e+00 -1.386715e+00 -5.897071e-01 -3.232344e-01 4.307643e-01 7.103493e-01 -2.416031e-01 -3.450416e-01 -7.531974e-01 1.466437e-01 9.510019e-01 3.982962e-01 6.788875e-01 -1.305950e-01 1.631630e-01 -4.454319e-01 -2.608323e-01 1.293357e-01 3.585481e-01 -1.312661e-01 -1.245649e-01 -2.812415e-01
<VARIANCE> 39
 1.468314e+01 2.586603e+01 3.363065e+01 4.074468e+01 6.047617e+01 6.446616e+01 5.958480e+01 5.019947e+01 5.374187e+01 5.425937e+01 7.149662e+01 5.206675e+01 1.413668e+00 1.193702e+00 1.998875e+00 3.029782e+00 3.434452e+00 4.098067e+00 3.926896e+00 4.705099e+00 4.052958e+00 4.148436e+00 4.373935e+00 3.532234e+00 3.182081e+00 1.692121e-01 3.026451e-01 3.370775e-01 4.319393e-01 5.600545e-01 7.989873e-01 9.106202e-01 8.418679e-01 8.219633e-01 8.153338e-01 8.006533e-01 6.802551e-01 6.426206e-01 3.553672e-02
<GCONST> 1.211582e+02
<MIXTURE> 12 7.491585e-02
<MEAN> 39
 8.281545e+00 -6.416046e+00 -6.626797e+00 -6.342872e+00 1.900990e+00 -8.350472e-01 -4.199814e+00 1.494061e+00 2.751534e+00 3.452909e+00 -3.483061e-01 -8.880746e+00 1.699138e+01 -1.130548e-01 2.881083e+00 9.801264e-01 2.129515e+00 6.984191e-01 -7.194833e-01 -2.567311e-01 -8.056695e-01 -1.156678e+00 1.012094e+00 -1.138761e-01 1.461655e+00 -1.046748e+00 -5.920499e-01 6.526482e-01 4.432740e-01 7.645241e-01 1.952568e-01 2.476219e-01 5.491657e-01 -2.157589e-01 -9.536620e-02 -2.947685e-01 -1.576576e-01 7.222598e-01 -3.203451e-01
<VARIANCE> 39
 9.809280e+00 1.777738e+01 2.299547e+01 3.422624e+01 3.417914e+01 6.289897e+01 4.727567e+01 4.940274e+01 5.180630e+01 4.218469e+01 4.939680e+01 3.077501e+01 2.065283e+00 1.382772e+00 2.014631e+00 2.262502e+00 2.973628e+00 3.960398e+00 4.691779e+00 4.345551e+00 4.352303e+00 4.169724e+00 3.686822e+00 3.988268e+00 3.153775e+00 2.272377e-01 3.394521e-01 3.492000e-01 4.235691e-01 5.273063e-01 5.808244e-01 8.301430e-01 6.770043e-01 8.649201e-01 8.547943e-01 6.455048e-01 7.121763e-01 5.341401e-01 4.510176e-02
<GCONST> 1.176968e+02
<MIXTURE> 13 5.553370e-02
<MEAN> 39
 1.738211e+00 -1.169208e+01 -4.460235e+00 -5.153649e+00 -3.319850e+00 -6.725606e-01 4.420776e+00 -1.237701e+00 -9.795855e+00 -9.583232e+00 -1.623448e+00 -1.026946e+00 1.867517e+01 -2.389607e-01 8.876585e-01 1.090726e+00 -1.245211e+00 -1.620526e+00 1.521263e-01 8.115736e-01 -3.994942e-01 1.889115e-02 7.520748e-01 -2.216549e-01 -9.002706e-01 -9.132113e-02 1.622086e-02 4.162526e-01 2.690326e-01 -2.954910e-01 -2.671443e-01 -1.451818e-01 -2.310717e-01 -4.672877e-02 4.560749e-01 3.686959e-01 -2.599872e-01 -1.290033e-01 -4.346763e-02
<VARIANCE> 39
 8.849483e+00 1.821970e+01 1.693152e+01 2.848767e+01 2.502941e+01 2.870660e+01 2.989458e+01 3.330225e+01 2.828557e+01 2.740859e+01 2.594002e+01 2.561763e+01 2.028613e+00 1.542028e-01 5.195972e-01 5.333112e-01 9.995333e-01 1.163945e+00 1.284599e+00 1.558730e+00 1.295203e+00 1.592539e+00 1.289963e+00 1.314057e+00 1.089426e+00 1.499352e-02 2.881311e-02 8.484884e-02 9.629105e-02 1.516998e-01 1.774577e-01 2.081741e-01 2.507867e-01 2.247425e-01 2.416156e-01 2.398734e-01 1.904959e-01 1.949251e-01 2.317083e-03
<GCONST> 7.648576e+01
<MIXTURE> 14 7.379506e-02
<MEAN> 39
 2.925806e+00 -1.199422e+01 -7.039992e+00 -4.376603e+00 -1.459577e+00 -3.053393e+00 1.349361e+00 1.235225e+00 -7.988183e+00 -1.118351e+01 -4.122375e+00 -2.809014e-01 1.850175e+01 2.821253e-01 1.246486e+00 8.493702e-01 -5.448312e-01 -1.610865e+00 -1.008024e+00 3.617810e-01 1.376818e-01 -2.342500e-02 4.009880e-01 -7.323430e-02 -1.702114e-01 -2.921794e-01 2.486855e-01 7.892104e-01 5.329818e-01 1.934588e-01 -2.438673e-01 -3.161605e-01 -3.882171e-01 -2.302420e-01 5.155152e-01 5.870252e-01 -1.438780e-02 -5.331933e-02 -2.170620e-01
<VARIANCE> 39
 8.688466e+00 1.930280e+01 1.964024e+01 2.569266e+01 3.398255e+01 3.366866e+01 4.182985e+01 3.694463e+01 3.771347e+01 2.748579e+01 3.048832e+01 2.642089e+01 1.588861e+00 4.334646e-01 8.803716e-01 1.430533e+00 1.533991e+00 2.604403e+00 2.259668e+00 3.009178e+00 2.367045e+00 2.604030e+00 2.281889e+00 1.976215e+00 1.873867e+00 3.535423e-02 1.035878e-01 1.903394e-01 1.968093e-01 3.129961e-01 3.539678e-01 4.265658e-01 4.711770e-01 5.166852e-01 3.925716e-01 3.966700e-01 3.269620e-01 3.370496e-01 1.330061e-02
<GCONST> 9.641229e+01
<MIXTURE> 15 4.710703e-02
<MEAN> 39
 4.792860e+00 -1.050955e+01 -7.290668e+00 -2.722539e+00 1.066611e+00 -3.040259e+00 1.301179e+00 3.209270e+00 7.437701e-01 -8.932406e+00 -7.826928e+00 -1.769196e+00 1.773746e+01 -2.732718e-01 3.364278e-01 1.212851e+00 1.126671e-01 -1.661745e+00 -9.259911e-01 9.997040e-01 1.020469e+00 -6.347235e-01 -4.401206e-01 5.968283e-01 6.012082e-01 -6.721900e-02 1.539889e-02 4.169660e-01 4.626535e-01 -1.625714e-01 -5.125802e-01 -1.195503e-01 -1.018260e-01 -8.957684e-02 -1.401976e-01 4.755508e-01 3.598089e-01 -6.891126e-02 -7.329693e-02
<VARIANCE> 39
 7.492860e+00 1.614253e+01 2.013447e+01 2.772065e+01 3.136870e+01 3.309744e+01 4.372300e+01 3.457878e+01 5.035235e+01 3.787110e+01 2.510333e+01 2.756057e+01 2.619225e+00 1.625116e-01 4.841431e-01 5.635590e-01 8.427437e-01 1.197845e+00 1.406218e+00 1.521732e+00 1.413523e+00 1.371916e+00 1.422318e+00 1.343148e+00 1.180526e+00 1.653079e-02 3.673708e-02 8.078077e-02 1.228892e-01 1.626546e-01 2.017479e-01 2.394323e-01 2.967947e-01 2.979799e-01 2.765758e-01 2.713729e-01 2.567510e-01 2.505883e-01 3.295668e-03
<GCONST> 8.090993e+01
<MIXTURE> 16 4.060843e-02
<MEAN> 39
 4.538609e+00 -9.535590e+00 4.073667e-01 -2.790759e+00 -7.873605e+00 -8.622869e+00 9.392396e-02 9.639319e+00 3.792253e+00 -4.657848e+00 -1.957984e+00 -2.061573e+00 1.820603e+01 -5.684997e-01 1.417371e+00 2.806455e+00 2.764150e-01 -2.518759e+00 -1.008628e+00 -2.459828e-01 -5.896599e-01 -1.777480e+00 4.076072e-01 2.146482e+00 1.513149e+00 -1.554299e-01 -5.276913e-02 3.967325e-01 2.739833e-01 -1.189914e-01 2.138642e-01 5.333845e-01 -2.717029e-01 -9.705838e-01 -4.041648e-01 3.096065e-01 1.550736e-01 -2.289892e-01 -4.475690e-02
<VARIANCE> 39
 8.079665e+00 1.329543e+01 1.791831e+01 1.921133e+01 2.611542e+01 3.233469e+01 4.064059e+01 2.835757e+01 3.178082e+01 2.630186e+01 2.810191e+01 2.056662e+01 2.067257e+00 2.165777e-01 4.912118e-01 8.540917e-01 9.880469e-01 1.315915e+00 1.581777e+00 1.877223e+00 1.958895e+00 1.791090e+00 1.945501e+00 1.711387e+00 1.829375e+00 1.992023e-02 3.658859e-02 9.711932e-02 1.331720e-01 1.501435e-01 2.098331e-01 2.321363e-01 3.071833e-01 2.816015e-01 2.639722e-01 2.636864e-01 2.993595e-01 2.334376e-01 3.684559e-03
<GCONST> 8.194525e+01
~s "a4m"
<NUMMIXES> 16
<MIXTURE> 1 4.441918e-02
<MEAN> 39
 5.707252e+00 1.637354e+00 -2.959669e+00 1.492579e+00 -2.050141e+00 -7.550797e+00 -3.300745e-01 9.090763e-02 -9.087512e-02 -6.986964e+00 -5.066872e+00 1.888231e+00 1.454612e+01 -8.991834e-01 2.966039e+00 2.351841e+00 3.328858e+00 1.680730e+00 1.769053e+00 5.348702e-01 1.046509e+00 1.600331e+00 2.762145e+00 2.157610e+00 1.868645e-01 -1.847384e+00 -7.488087e-01 -8.577694e-01 -1.047209e-01 1.289276e-01 6.259426e-01 1.249464e+00 6.018138e-01 3.883754e-01 1.457678e-01 6.260917e-01 6.660148e-01 -8.825663e-02 -1.291692e-01
<VARIANCE> 39
 9.709885e+00 1.517982e+01 2.448020e+01 2.752160e+01 4.559085e+01 3.202227e+01 3.858541e+01 3.731232e+01 3.860692e+01 3.223227e+01 4.087459e+01 2.518884e+01 3.689872e+00 1.657925e+00 2.534308e+00 2.670602e+00 3.311472e+00 4.102756e+00 4.127099e+00 4.214812e+00 4.616165e+00 4.459401e+00 4.242068e+00 4.136049e+00 3.223153e+00 3.269336e-01 2.135920e-01 3.268054e-01 4.048193e-01 5.213054e-01 7.642438e-01 5.382439e-01 7.124799e-01 7.210528e-01 6.647412e-01 5.716260e-01 6.953222e-01 4.920816e-01 6.258159e-02
<GCONST> 1.163516e+02
<MIXTURE> 2 2.460545e-02
<MEAN> 39
 -9.110781e-01 -5.105693e+00 -2.463321e+00 6.351287e+00 5.224576e+00 4.925508e+00 4.169108e+00 5.369078e+00 2.250394e+00 -2.400134e-02 3.663589e+00 4.091312e+00 9.140582e+00 -1.179244e-01 5.510823e-01 4.542597e-01 2.208125e-01 -5.313633e-02 1.519734e-01 3.102531e-01 7.091156e-02 2.001180e-01 2.891387e-01 1.783516e-01 2.177930e-02 -2.258164e-01 1.890586e-02 3.359953e-02 -4.179695e-02 -6.054587e-02 -4.235706e-03 -5.209707e-02 -5.984940e-02 -8.934218e-02 -2.951401e-02 -3.090920e-02 -1.397649e-01 -1.251767e-01 5.103173e-02
<VARIANCE> 39
 1.221563e+01 4.398390e+01 2.196672e+01 2.497180e+01 3.117862e+01 3.828043e+01 3.055456e+01 2.563688e+01 3.227188e+01 3.524066e+01 3.055121e+01 2.434881e+01 8.782784e+00 4.131753e-01 1.051604e+00 9.752985e-01 1.033081e+00 1.569861e+00 1.655983e+00 1.671489e+00 1.809608e+00 1.768974e+00 1.757452e+00 1.630135e+00 1.419250e+00 9.331516e-02 8.836754e-02 2.180128e-01 1.728226e-01 1.972124e-01 2.455738e-01 3.040214e-01 3.043443e-01 3.301826e-01 3.535469e-01 3.444616e-01 2.895607e-01 2.750548e-01 2.297296e-02
<GCONST> 9.404771e+01
<MIXTURE> 3 8.038513e-02
<MEAN> 39
 5.773786e+00 -6.663487e+00 8.715500e-01 -1.293673e+00 -7.090806e+00 -7.407063e+00 -4.861909e-01 6.659754e+00 8.647265e-01 -3.027266e+00 -2.422936e+00 -4.203594e-02 1.667052e+01 -6.769333e-02 2.353745e+00 2.688580e+00 1.258075e+00 -1.149763e+00 -6.768732e-01 -7.058323e-01 -1.478604e+00 -1.152504e+00 3.881446e-01 1.135899e+00 1.158846e+00 -6.252622e-01 -1.352367e-01 3.837095e-01 -5.465732e-02 6.488836e-02 6.853850e-01 6.103231e-01 -6.296006e-03 -7.492461e-01 -1.461097e-01 1.077524e-02 -5.480015e-02 -3.128912e-01 -7.520828e-02
<VARIANCE> 39
 1.096833e+01 2.096803e+01 2.656211e+01 2.501051e+01 3.932291e+01 4.573990e+01 4.932714e+01 3.677502e+01 4.522911e+01 3.607706e+01 3.474817e+01 2.581326e+01 3.154056e+00 1.130503e+00 1.777207e+00 2.007455e+00 2.853404e+00 3.313371e+00 3.054669e+00 3.795888e+00 3.592391e+00 4.606488e+00 3.294920e+00 2.884350e+00 3.022369e+00 1.589005e-01 1.858181e-01 2.595681e-01 2.847400e-01 3.758017e-01 5.061098e-01 5.667049e-01 5.934777e-01 5.831103e-01 5.145019e-01 4.684290e-01 4.758017e-01 3.970026e-01 1.972795e-02
<GCONST> 1.097815e+02
<MIXTURE> 4 6.444395e-02
<MEAN> 39
 3.735949e+00 -9.303906e+00 -8.672106e+00 4.357709e+00 9.321815e+00 6.836235e+00 8.710399e-01 2.117360e+00 1.555041e+00 -5.607313e+00 -3.492295e+00 3.312884e+00 1.320335e+01 -1.555541e+00 1.998079e+00 8.176055e-01 1.371182e+00 6.217518e-01 1.030672e+00 1.440503e+00 1.268683e+00 1.017217e+00 1.085865e+00 1.352807e+00 6.347566e-01 -1.453516e+00 -4.040869e-01 3.864266e-01 4.174268e-01 -1.055138e-02 -3.026932e-01 -1.903069e-01 2.347792e-01 7.529081e-02 8.128814e-02 5.474150e-01 4.544881e-01 -1.767339e-01 -6.039932e-02
<VARIANCE> 39
 1.557557e+01 2.664050e+01 2.973931e+01 4.388273e+01 3.825715e+01 3.828180e+01 5.801707e+01 4.552871e+01 4.462503e+01 4.641007e+01 4.859505e+01 3.879542e+01 4.742291e+00 1.754366e+00 3.767877e+00 2.709702e+00 3.079293e+00 3.331326e+00 3.361043e+00 3.615984e+00 3.523249e+00 3.556709e+00 3.804663e+00 3.169355e+00 2.643017e+00 5.081008e-01 2.839173e-01 4.609015e-01 4.912716e-01 5.113980e-01 5.221675e-01 4.926419e-01 6.954886e-01 6.745436e-01 6.155352e-01 6.327206e-01 6.604553e-01 5.379522e-01 5.126101e-02
<GCONST> 1.193276e+02
<MIXTURE> 5 6.076444e-02
<MEAN> 39
 3.105793e+00 -4.813088e+00 4.686958e+00 -5.316782e+00 -1.225677e+01 -5.338060e+00 3.338825e+00 2.824876e+00 -1.399601e+00 -7.491647e-01 -4.650801e-02 -1.668468e+00 1.727250e+01 -3.908831e-01 1.940324e+00 2.536143e+00 -4.951730e-01 -1.332424e+00 -2.159254e-02 -1.377520e+00 -1.904044e+00 -4.825751e-01 1.563299e+00 1.043056e+00 3.819197e-01 -2.002347e-01 2.301812e-02 1.102539e-01 -1.570683e-01 1.905300e-01 6.359163e-01 2.183038e-01 -3.850784e-01 -2.707008e-01 -8.445092e-02 -3.081127e-01 -3.219544e-01 3.606470e-02 -3.732310e-02
<VARIANCE> 39
 7.239008e+00 1.830634e+01 1.878623e+01 2.350160e+01 2.259691e+01 4.145987e+01 3.566504e+01 3.737926e+01 2.916302e+01 3.106294e+01 2.513325e+01 1.941949e+01 2.939903e+00 2.589729e-01 8.181508e-01 1.058057e+00 1.144055e+00 1.355592e+00 1.383233e+00 2.296366e+00 1.859751e+00 3.276038e+00 2.207594e+00 1.809750e+00 1.491600e+00 2.973699e-02 4.311554e-02 1.129049e-01 1.158620e-01 1.593540e-01 2.056861e-01 2.404372e-01 3.257385e-01 2.803340e-01 2.576948e-01 2.937900e-01 2.571564e-01 2.892050e-01 5.413017e-03
<GCONST> 8.582994e+01
<MIXTURE> 6 6.708489e-02
<MEAN> 39
 -1.862601e+00 -3.197963e+00 -5.546479e+00 5.594425e+00 8.857871e+00 7.723112e+00 6.818997e+00 5.800543e+00 5.105018e+00 8.673337e-01 3.886569e-01 2.728587e+00 1.006806e+01 -1.642580e+00 1.520200e+00 1.423420e+00 1.126352e+00 -2.055500e-01 2.014119e-01 3.176405e-01 4.955098e-01 3.914729e-01 7.986397e-01 1.226311e+00 5.726247e-01 -9.420408e-01 3.281982e-01 -2.808522e-01 7.394997e-03 -4.356037e-01 -3.934757e-01 -5.513019e-01 -5.294937e-01 -5.357171e-01 -3.985865e-01 -1.487994e-01 -1.565926e-01 -2.870003e-01 3.113233e-01
<VARIANCE> 39
 1.933490e+01 3.907032e+01 3.629266e+01 4.344456e+01 5.182288e+01 5.118842e+01 4.682642e+01 4.312988e+01 4.782842e+01 5.080829e+01 4.283592e+01 3.990554e+01 8.097975e+00 2.462126e+00 3.994706e+00 3.541937e+00 3.732478e+00 4.179574e+00 4.761227e+00 4.407568e+00 4.603731e+00 4.682792e+00 4.867838e+00 4.193948e+00 4.401295e+00 5.493670e-01 4.370069e-01 7.350326e-01 6.116854e-01 5.845488e-01 7.519565e-01 7.723167e-01 7.636115e-01 8.308024e-01 8.389426e-01 7.809517e-01 6.633968e-01 5.980895e-01 8.980451e-02
<GCONST> 1.278846e+02
<MIXTURE> 7 8.327930e-02
<MEAN> 39
 7.417269e+00 9.829862e-01 -5.181482e+00 -5.754873e-01 5.560566e+00 -2.889119e+00 -3.912990e+00 -5.432792e-01 1.408555e+00 6.288047e+00 -3.177193e+00 -4.938254e+00 1.418478e+01 -1.705218e+00 3.156657e+00 1.677644e+00 2.827529e+00 1.203680e+00 6.023114e-01 9.381137e-01 -1.061625e-01 -1.151209e-01 1.734087e-01 3.784804e-01 1.967833e+00 -1.543293e+00 -8.885589e-01 -6.506039e-01 -4.616680e-03 -8.777445e-02 -1.843270e-01 5.616547e-01 7.471375e-01 3.615425e-01 2.809463e-01 -5.970460e-01 2.762578e-01 2.948689e-01 3.783304e-02
<VARIANCE> 39
 1.176813e+01 1.882387e+01 1.865680e+01 2.937115e+01 2.662492e+01 3.836817e+01 3.573592e+01 4.402128e+01 4.377452e+01 3.373213e+01 4.560632e+01 2.382660e+01 3.817268e+00 2.545595e+00 3.000364e+00 3.120440e+00 3.421141e+00 4.005639e+00 5.463771e+00 4.952182e+00 5.368279e+00 4.975787e+00 4.583467e+00 5.051359e+00 3.462086e+00 5.285835e-01 3.078227e-01 4.561641e-01 3.662332e-01 5.202127e-01 5.134310e-01 5.918424e-01 5.749016e-01 7.172875e-01 7.221531e-01 5.104197e-01 7.137348e-01 4.450392e-01 6.427962e-02
<GCONST> 1.188324e+02
<MIXTURE> 8 6.307805e-02
<MEAN> 39
 2.666797e+00 -5.180136e+00 -8.871905e+00 6.783378e-01 7.901933e+00 5.354755e+00 4.653067e+00 -4.232480e-01 3.173924e+00 3.196463e-03 -4.027367e+00 -2.690959e+00 1.268414e+01 -8.538423e-01 1.955099e-01 2.307301e-01 8.258376e-01 1.687416e-01 3.829850e-01 1.313588e-01 4.096753e-01 2.597724e-01 4.983220e-02 3.677429e-01 6.277194e-01 -6.075974e-01 -2.732960e-02 -8.267660e-02 6.092319e-02 -1.397772e-01 -1.573732e-01 -1.073874e-01 -8.118245e-02 1.573334e-01 -2.892562e-02 4.141906e-02 1.121390e-01 5.048656e-02 5.930774e-02
<VARIANCE> 39
 1.734364e+01 2.218891e+01 2.581968e+01 4.022137e+01 3.655915e+01 4.257188e+01 3.862081e+01 3.903699e+01 3.372029e+01 4.448511e+01 3.335135e+01 3.456989e+01 4.171734e+00 1.158736e+00 1.504327e+00 1.512647e+00 1.777617e+00 2.306759e+00 2.400827e+00 2.198068e+00 2.455438e+00 2.240866e+00 2.173209e+00 2.045276e+00 1.795244e+00 1.297585e-01 2.226726e-01 2.671814e-01 2.550626e-01 2.984539e-01 3.398710e-01 3.568602e-01 3.699400e-01 4.095944e-01 3.649571e-01 3.575637e-01 3.529842e-01 3.060643e-01 2.352045e-02
<GCONST> 1.034142e+02
<MIXTURE> 9 1.199049e-01
<MEAN> 39
 7.229275e+00 -6.584859e+00 -5.861367e+00 -4.575540e+00 -5.457357e-01 -2.843096e+00 -3.590871e+00 8.492736e-01 -2.334414e+00 -4.571276e+00 -3.493914e+00 -3.912355e+00 1.681453e+01 5.859185e-01 1.968977e+00 2.106194e+00 1.503070e+00 -1.541472e+00 -8.657153e-01 -4.884061e-01 -1.435421e+00 -4.031873e-01 1.103719e+00 -2.175854e-02 3.704594e-01 -6.655704e-01 -1.453818e-01 8.990927e-02 3.534760e-01 3.055365e-01 -8.218486e-03 1.027936e-01 9.879991e-02 -4.200858e-01 1.523244e-02 6.183362e-02 -5.786987e-02 1.014856e-01 -8.238042e-03
<VARIANCE> 39
 1.293627e+01 2.206662e+01 2.294347e+01 3.505920e+01 4.678073e+01 6.390973e+01 5.085369e+01 4.401315e+01 6.558995e+01 6.775510e+01 4.509561e+01 3.889468e+01 1.972169e+00 9.200847e-01 1.582007e+00 2.401510e+00 3.843894e+00 3.666327e+00 3.620418e+00 4.112021e+00 4.783631e+00 4.867858e+00 3.807370e+00 3.445246e+00 3.383194e+00 8.483789e-02 1.182574e-01 1.680474e-01 3.182849e-01 3.431396e-01 5.119740e-01 5.475952e-01 5.404546e-01 5.781565e-01 5.900010e-01 5.601478e-01 4.664781e-01 4.098321e-01 8.768810e-03
<GCONST> 1.112911e+02
<MIXTURE> 10 7.830779e-02
<MEAN> 39
 4.297308e+00 -3.863266e+00 -1.247915e+01 -4.225716e+00 7.635418e+00 6.483169e+00 7.002179e+00 -4.246962e-01 4.221116e+00 3.760213e+00 -5.343007e+00 -7.328882e+00 1.254056e+01 -1.973142e+00 1.577115e+00 8.626143e-01 1.704637e+00 -3.282974e-03 2.745588e-01 3.888814e-01 1.253567e+00 3.868062e-01 2.531200e-01 4.000344e-01 1.515093e+00 -1.241810e+00 -4.507550e-01 -3.143554e-02 6.841324e-01 3.348595e-01 -1.747073e-01 -2.169681e-01 -2.614865e-01 1.470363e-01 -9.135140e-02 -2.098853e-01 4.520662e-01 5.686756e-01 7.575397e-03
<VARIANCE> 39
