~o
<STREAMINFO> 1 26
<VECSIZE> 26<NULLD><MFCC_E_D_Z><DIAGC>
~v "varFloor1"
<VARIANCE> 26
 2.410688e-01 3.127773e-01 3.653315e-01 4.158072e-01 4.421177e-01 4.763149e-01 4.676805e-01 4.371874e-01 4.250153e-01 3.804600e-01 3.535985e-01 2.798695e-01 1.358470e+15 2.127602e-02 2.186051e-02 2.275662e-02 2.791638e-02 3.126965e-02 3.192639e-02 3.259144e-02 3.153103e-02 3.050195e-02 2.768976e-02 2.535908e-02 2.125006e-02 3.170103e+13
~s "b2m"
<NUMMIXES> 16
<MIXTURE> 1 1.964498e-02
<MEAN> 26
 -3.953652e+00 4.427402e+00 1.050932e+00 9.417302e+00 1.079261e+01 9.002256e+00 8.294161e+00 6.944286e+00 8.853666e+00 7.771311e+00 6.161888e+00 2.505981e+00 8.527699e+00 -2.445699e-02 -4.886600e-03 -5.104966e-03 5.562618e-02 1.632256e-01 3.116460e-01 2.659164e-01 1.749296e-01 2.475119e-01 2.588588e-01 1.827922e-01 3.514078e-02 -3.364098e-02
<VARIANCE> 26
 1.887829e+01 1.319347e+01 1.379650e+01 2.051093e+01 2.780437e+01 1.720518e+01 2.805482e+01 2.062128e+01 2.140395e+01 2.218856e+01 1.662997e+01 1.556807e+01 1.358470e+15 4.620019e-01 6.401747e-01 7.220238e-01 1.004348e+00 1.217640e+00 1.470317e+00 1.463421e+00 1.587476e+00 1.496792e+00 1.549402e+00 1.364994e+00 1.260717e+00 3.170103e+13
<GCONST> 1.504007e+02
<MIXTURE> 2 5.385499e-02
<MEAN> 26
 8.739407e+00 7.977068e+00 3.822550e+00 6.726892e+00 5.432683e+00 2.660825e+00 -1.320986e+00 -5.295856e+00 -3.621334e+00 -1.718218e-02 6.390092e-01 -1.826988e+00 1.307500e+01 -5.974929e-01 1.753042e+00 8.545395e-01 1.362667e+00 1.707289e+00 1.244464e+00 1.466001e+00 7.052170e-02 -5.016621e-01 -5.936975e-01 -2.779639e-01 -1.372718e-01 -6.469938e-01
<VARIANCE> 26
 1.777833e+01 1.827617e+01 2.186515e+01 2.130093e+01 2.155525e+01 2.643695e+01 2.695492e+01 2.511684e+01 3.113262e+01 2.317571e+01 2.134986e+01 1.842797e+01 1.358470e+15 1.683107e+00 2.267534e+00 2.213117e+00 2.691336e+00 2.459632e+00 3.057631e+00 2.969748e+00 2.829174e+00 3.163190e+00 2.714883e+00 2.414419e+00 1.802348e+00 3.170103e+13
<GCONST> 1.619547e+02
<MIXTURE> 3 5.444016e-02
<MEAN> 26
 -1.750931e+00 1.602345e+00 -9.374189e-02 5.955856e+00 6.569611e+00 4.745318e+00 4.283710e+00 3.718012e+00 4.063998e+00 1.909234e+00 2.247128e+00 2.358902e+00 1.026818e+01 -8.363676e-02 5.331686e-01 1.053177e-01 4.190968e-01 6.415332e-01 8.712924e-01 8.025356e-01 2.042593e-01 3.044555e-01 8.108675e-01 5.784631e-01 6.780237e-03 -2.188439e-01
<VARIANCE> 26
 1.881146e+01 2.857397e+01 2.472449e+01 2.253093e+01 2.484515e+01 2.726991e+01 2.617144e+01 2.833922e+01 2.760363e+01 3.022540e+01 2.490009e+01 2.002698e+01 1.358470e+15 2.325378e+00 3.529722e+00 2.536275e+00 2.247531e+00 2.401103e+00 2.504658e+00 2.699127e+00 3.315685e+00 3.070296e+00 2.920771e+00 2.430969e+00 2.247569e+00 3.170103e+13
<GCONST> 1.641160e+02
<MIXTURE> 4 8.120205e-02
<MEAN> 26
 -2.841347e+00 1.944582e+00 -6.354209e-01 5.116523e+00 6.052168e+00 5.384650e+00 4.640679e+00 3.195902e+00 3.270507e+00 2.924949e+00 3.445234e+00 2.437551e+00 9.724472e+00 -6.745347e-02 2.596544e-02 9.090851e-02 2.031921e-01 3.538842e-01 4.914508e-01 5.016593e-01 4.411792e-01 4.126451e-01 3.706431e-01 2.746543e-01 1.092489e-01 -8.831699e-03
<VARIANCE> 26
 1.055962e+01 1.028286e+01 1.063280e+01 1.095481e+01 1.288107e+01 1.692695e+01 1.498216e+01 1.768479e+01 1.656134e+01 1.588814e+01 1.616387e+01 1.264466e+01 1.358470e+15 1.457955e-01 2.903674e-01 4.025110e-01 5.526303e-01 7.290961e-01 9.237411e-01 1.000120e+00 1.120371e+00 1.181784e+00 1.187745e+00 1.083761e+00 1.014680e+00 3.170103e+13
<GCONST> 1.405068e+02
<MIXTURE> 5 8.379771e-02
<MEAN> 26
 -5.144777e+00 -5.878847e+00 2.160709e-01 3.250354e+00 4.280485e+00 9.377401e-01 3.945872e+00 6.925221e+00 3.732701e+00 -9.952691e-01 3.677413e+00 4.599438e+00 1.168261e+01 9.970590e-02 4.984543e-02 -5.786539e-02 1.246074e-01 1.648183e-01 2.050292e-01 5.455955e-02 5.546624e-02 1.248777e-01 4.030959e-02 -1.883363e-02 3.957597e-02 -4.698722e-02
<VARIANCE> 26
 1.436381e+01 2.366355e+01 2.480944e+01 2.080469e+01 2.494335e+01 2.891147e+01 3.113238e+01 3.072728e+01 2.994923e+01 3.164884e+01 3.567512e+01 2.175519e+01 1.358470e+15 3.185617e-01 5.272873e-01 6.045427e-01 7.845982e-01 9.693463e-01 1.252349e+00 1.333727e+00 1.483457e+00 1.495312e+00 1.548051e+00 1.416845e+00 1.260906e+00 3.170103e+13
<GCONST> 1.525111e+02
<MIXTURE> 6 1.262643e-01
<MEAN> 26
 6.799619e+00 9.295339e+00 4.622013e+00 7.277439e+00 5.642478e+00 2.435122e+00 -1.847977e-01 -3.283965e+00 -2.275646e+00 -4.979596e-01 -5.738192e-01 -1.918434e+00 1.252303e+01 -5.612551e-01 2.469071e-01 2.020487e-01 3.579427e-01 4.967964e-01 4.092072e-01 4.667825e-01 2.029175e-01 3.899618e-02 -6.644937e-02 3.661156e-02 1.635719e-01 -2.622075e-01
<VARIANCE> 26
 1.652821e+01 1.649231e+01 1.875445e+01 1.964768e+01 2.350689e+01 2.777951e+01 2.648118e+01 2.576104e+01 3.065545e+01 2.361591e+01 1.892226e+01 1.750477e+01 1.358470e+15 6.340482e-01 7.559337e-01 6.771149e-01 7.733265e-01 1.017683e+00 1.187758e+00 1.259681e+00 1.336887e+00 1.423545e+00 1.362203e+00 1.273968e+00 1.163065e+00 3.170103e+13
<GCONST> 1.510129e+02
<MIXTURE> 7 6.101225e-02
<MEAN> 26
 -1.620526e+00 3.637116e+00 5.055010e-01 6.930871e+00 7.428857e+00 6.732170e+00 5.379508e+00 3.385495e+00 4.340197e+00 3.697458e+00 4.148106e+00 2.403246e+00 9.588004e+00 6.998298e-02 1.044212e-01 1.214297e-01 -5.939765e-02 -1.962807e-01 -2.435786e-01 -2.638431e-01 -3.550270e-01 -1.986312e-01 2.376414e-02 4.393009e-02 -3.928149e-02 2.703457e-02
<VARIANCE> 26
 1.047556e+01 9.882932e+00 9.961421e+00 1.196347e+01 1.353691e+01 1.492700e+01 1.549383e+01 1.483092e+01 1.482697e+01 1.564263e+01 1.481086e+01 1.227985e+01 1.358470e+15 5.653569e-01 9.109853e-01 8.323283e-01 8.929137e-01 1.008890e+00 1.174982e+00 1.245127e+00 1.391541e+00 1.471397e+00 1.486384e+00 1.309094e+00 1.246382e+00 3.170103e+13
<GCONST> 1.455648e+02
<MIXTURE> 8 3.961348e-02
<MEAN> 26
 1.039598e+01 5.885139e+00 1.108444e+00 2.720963e+00 2.844675e+00 2.508717e+00 -2.348243e+00 -6.042626e+00 -4.524742e+00 -1.350903e+00 -1.461788e+00 -3.304807e+00 1.376569e+01 -5.537308e-01 1.541163e+00 9.851589e-01 1.629770e+00 1.498106e+00 6.605983e-01 1.032012e+00 8.145056e-02 -1.209478e-01 -6.986063e-01 -2.304244e-01 -1.871723e-01 -5.898235e-01
<VARIANCE> 26
 2.554229e+01 3.564826e+01 4.462563e+01 5.889439e+01 4.430751e+01 5.694537e+01 5.465625e+01 4.323425e+01 5.518309e+01 4.886460e+01 5.135056e+01 3.838536e+01 1.358470e+15 3.046537e+00 4.702980e+00 4.712393e+00 6.800891e+00 4.232760e+00 5.254471e+00 5.019892e+00 5.308461e+00 5.948873e+00 4.660089e+00 4.489527e+00 3.847727e+00 3.170103e+13
<GCONST> 1.781780e+02
<MIXTURE> 9 1.164948e-01
<MEAN> 26
 -3.270690e+00 1.282017e+00 -2.192074e+00 3.316374e+00 4.526907e+00 3.679797e+00 3.164913e+00 7.850966e-01 9.358736e-01 7.765824e-01 1.109245e+00 1.129375e+00 9.680346e+00 -2.744197e-02 -2.223221e-02 -2.400391e-02 -1.954788e-02 4.420605e-03 3.612391e-02 2.146070e-02 -2.925353e-02 -4.771810e-02 -3.452110e-02 -3.471164e-02 -3.642514e-02 1.828419e-03
<VARIANCE> 26
 1.174797e+01 9.223521e+00 1.214237e+01 9.989779e+00 1.198111e+01 1.673903e+01 1.469065e+01 1.718080e+01 1.575854e+01 1.498949e+01 1.432157e+01 1.233201e+01 1.358470e+15 1.060269e-01 2.152685e-01 3.372250e-01 4.821992e-01 6.286556e-01 7.626603e-01 8.443797e-01 9.973764e-01 1.066566e+00 1.057619e+00 1.032106e+00 9.614673e-01 3.170103e+13
<GCONST> 1.382813e+02
<MIXTURE> 10 6.613328e-02
<MEAN> 26
 8.283796e+00 7.637373e+00 3.295631e+00 5.241849e+00 2.000597e+00 -1.536449e+00 -3.967580e+00 -4.499192e+00 -2.984179e+00 -3.853725e+00 -6.168409e+00 -6.752233e+00 1.348963e+01 -6.464374e-01 4.557188e-01 3.501776e-01 5.474761e-01 5.913948e-01 5.229145e-01 5.916883e-01 2.183273e-01 1.415982e-01 -5.196194e-02 3.951298e-01 1.553440e-01 -3.383858e-01
<VARIANCE> 26
 1.487661e+01 2.075090e+01 2.355529e+01 2.373343e+01 2.569723e+01 2.999143e+01 3.118480e+01 3.212556e+01 3.644862e+01 3.432441e+01 2.762588e+01 2.628249e+01 1.358470e+15 1.027844e+00 1.338895e+00 1.029848e+00 1.233482e+00 1.450522e+00 1.710296e+00 1.781463e+00 1.815649e+00 1.897595e+00 1.959096e+00 1.946693e+00 1.811910e+00 3.170103e+13
<GCONST> 1.582668e+02
<MIXTURE> 11 6.903357e-02
<MEAN> 26
 8.381186e+00 8.244065e+00 2.723643e+00 5.321238e+00 4.418296e+00 2.066288e+00 -1.963831e+00 -5.566660e+00 -3.913662e+00 -2.023855e+00 -1.706304e+00 -3.158740e+00 1.309669e+01 -9.947438e-01 1.129689e+00 1.095122e+00 1.460676e+00 1.151591e+00 7.023562e-01 1.201679e+00 5.554101e-01 -7.648280e-02 -8.690922e-01 -6.804420e-01 -4.267522e-01 -5.526610e-01
<VARIANCE> 26
 1.562302e+01 1.582780e+01 1.974864e+01 2.285480e+01 1.944577e+01 2.785128e+01 2.912067e+01 2.398639e+01 2.638969e+01 2.424202e+01 2.143859e+01 2.077777e+01 1.358470e+15 1.573958e+00 2.552342e+00 2.075604e+00 2.830852e+00 2.190056e+00 2.774371e+00 2.650378e+00 2.702950e+00 2.958459e+00 2.361242e+00 2.201308e+00 2.031623e+00 3.170103e+13
<GCONST> 1.611202e+02
<MIXTURE> 12 4.249359e-02
<MEAN> 26
 -4.788642e+00 -4.287844e+00 -3.251812e+00 6.012684e-01 1.989259e+00 -8.485721e-01 3.820711e-01 1.956663e+00 2.058114e+00 -1.070562e+00 -4.623698e-01 2.088258e+00 1.081249e+01 7.447260e-03 -6.898393e-02 -1.129304e-01 -1.612158e-01 -1.985306e-01 -2.348156e-01 -2.914227e-01 -2.824826e-01 -1.992788e-01 -2.006157e-01 -1.672679e-01 -8.626761e-02 7.460020e-03
<VARIANCE> 26
 1.671150e+01 2.851142e+01 1.618475e+01 1.415575e+01 1.815957e+01 2.326228e+01 2.177840e+01 2.694707e+01 2.907875e+01 2.594289e+01 2.387279e+01 1.850847e+01 1.358470e+15 2.511109e-01 4.457948e-01 5.431421e-01 7.180237e-01 8.665364e-01 1.124760e+00 1.207385e+00 1.339843e+00 1.411707e+00 1.401330e+00 1.290822e+00 1.175142e+00 3.170103e+13
<GCONST> 1.488784e+02
<MIXTURE> 13 6.180571e-02
<MEAN> 26
 -2.807302e+00 1.891089e+00 -1.278453e+00 4.224623e+00 5.501711e+00 4.730676e+00 4.321425e+00 1.694345e+00 1.980668e+00 2.086790e+00 2.348549e+00 1.721409e+00 9.848752e+00 -2.510982e-02 -2.533461e-01 -1.195669e-01 -4.206735e-01 -6.536896e-01 -8.607913e-01 -7.591348e-01 -6.480828e-01 -4.628019e-01 -3.792983e-01 -2.734951e-01 -1.831707e-01 1.678970e-01
<VARIANCE> 26
 1.000589e+01 8.812109e+00 1.123671e+01 1.155477e+01 1.322131e+01 1.740095e+01 1.597660e+01 1.779142e+01 1.824251e+01 1.655679e+01 1.634467e+01 1.234558e+01 1.358470e+15 6.908393e-01 9.563403e-01 1.079294e+00 1.028043e+00 1.090797e+00 1.310836e+00 1.330709e+00 1.563282e+00 1.737608e+00 1.607020e+00 1.481290e+00 1.351034e+00 3.170103e+13
<GCONST> 1.476691e+02
<MIXTURE> 14 5.984339e-02
<MEAN> 26
 -2.645368e+00 1.185095e+00 -1.524237e+00 2.990031e+00 4.842538e+00 2.825984e+00 3.151650e+00 1.455614e+00 2.104245e+00 9.633991e-01 8.518481e-01 9.445825e-01 1.110348e+01 4.688799e-02 -4.399972e-01 1.696368e-01 -2.650524e-02 -3.572601e-01 -5.005657e-01 -2.339436e-01 -9.971278e-02 -6.554321e-02 -4.534264e-02 4.032313e-02 3.779382e-02 1.855586e-01
<VARIANCE> 26
 3.360382e+01 4.036792e+01 3.309241e+01 2.863359e+01 3.250280e+01 3.690826e+01 3.098363e+01 3.148265e+01 3.125165e+01 2.839471e+01 2.721850e+01 2.158545e+01 1.358470e+15 3.170746e+00 3.677785e+00 3.183383e+00 2.969394e+00 2.975152e+00 3.522478e+00 3.164544e+00 3.356002e+00 3.341051e+00 2.964470e+00 2.628470e+00 2.209469e+00 3.170103e+13
<GCONST> 1.683877e+02
<MIXTURE> 15 4.124878e-02
<MEAN> 26
 -2.917632e+00 3.560211e+00 -8.590969e-01 7.970024e+00 8.323479e+00 7.464141e+00 5.007858e+00 3.765811e+00 5.846346e+00 4.962113e+00 3.494903e+00 7.933019e-01 8.749679e+00 -3.142896e-02 -1.117657e-01 -1.631264e-01 -1.987413e-01 -1.229855e-01 -9.614367e-03 2.948501e-02 -7.763731e-02 -1.630440e-01 -1.997433e-01 -2.084605e-01 -1.356478e-01 7.024038e-04
<VARIANCE> 26
 2.090229e+01 1.524780e+01 2.470979e+01 1.764288e+01 2.061866e+01 1.805885e+01 2.374994e+01 2.180629e+01 1.848729e+01 2.005587e+01 1.825725e+01 1.666071e+01 1.358470e+15 1.956151e-01 2.942138e-01 4.137938e-01 5.717192e-01 6.895272e-01 8.502107e-01 9.053891e-01 1.046082e+00 1.054222e+00 1.094542e+00 1.023427e+00 9.416211e-01 3.170103e+13
<GCONST> 1.445832e+02
<MIXTURE> 16 2.311784e-02
<MEAN> 26
 4.565149e+00 5.859536e+00 1.946938e+00 3.799351e+00 3.024630e+00 -8.836840e-01 -2.870798e+00 -4.098175e+00 -2.025871e+00 -1.337257e+00 -3.620558e+00 -3.791211e+00 1.325378e+01 1.365060e+00 7.977588e-01 5.276309e-01 3.802603e-01 -2.625664e-01 -5.230411e-01 -1.050912e+00 -1.141877e+00 -9.388222e-01 -4.980124e-01 -5.379982e-01 -9.729664e-01 1.585372e-01
<VARIANCE> 26
 4.567316e+01 8.003295e+01 5.789582e+01 6.676028e+01 6.876525e+01 6.724586e+01 6.200179e+01 5.939597e+01 5.950792e+01 5.458221e+01 4.569938e+01 4.024813e+01 1.358470e+15 4.334869e+00 4.647866e+00 3.144365e+00 4.437087e+00 4.299958e+00 5.163597e+00 5.086503e+00 5.305606e+00 5.261334e+00 4.854192e+00 4.456637e+00 3.735142e+00 3.170103e+13
<GCONST> 1.805211e+02
~s "b3m"
<NUMMIXES> 16
<MIXTURE> 1 5.741260e-02
<MEAN> 26
 2.784395e+00 7.730112e+00 4.810616e+00 8.999914e+00 7.108416e+00 4.088859e+00 1.453008e+00 -1.652058e+00 -1.126837e+00 -1.393532e+00 -1.157438e+00 -1.903401e+00 1.122134e+01 -1.619813e+00 -1.301574e+00 -8.208083e-01 -2.842812e-01 4.898890e-01 1.092388e+00 1.644438e+00 1.591099e+00 1.418700e+00 9.528086e-01 8.719367e-01 7.644047e-01 -2.549628e-01
<VARIANCE> 26
 1.138958e+01 1.278097e+01 1.467916e+01 1.501544e+01 1.723166e+01 2.040721e+01 2.181732e+01 2.062952e+01 2.085309e+01 1.920114e+01 1.649681e+01 1.553483e+01 1.358470e+15 6.039727e-01 7.373109e-01 8.295689e-01 9.635604e-01 1.124202e+00 1.401268e+00 1.465229e+00 1.620375e+00 1.821471e+00 2.073303e+00 1.946759e+00 1.606431e+00 3.170103e+13
<GCONST> 1.503594e+02
<MIXTURE> 2 3.667929e-02
<MEAN> 26
 -1.386220e-01 3.613968e+00 1.007185e+00 6.449228e+00 6.300586e+00 4.764421e+00 4.295293e+00 3.270974e+00 5.957450e+00 4.989333e+00 4.337764e+00 1.841647e+00 1.055698e+01 -1.388465e+00 -1.578879e+00 -8.164456e-01 -1.164896e+00 -6.720080e-01 -4.145238e-01 5.655625e-01 8.138695e-01 1.049197e+00 8.362877e-01 1.058623e+00 9.544002e-01 6.258447e-01
<VARIANCE> 26
 1.233828e+01 1.053084e+01 1.169602e+01 1.651172e+01 1.838037e+01 2.123596e+01 1.867041e+01 1.726565e+01 1.658043e+01 1.858988e+01 1.582291e+01 1.502421e+01 1.358470e+15 1.485569e+00 1.409339e+00 1.650374e+00 1.609664e+00 1.922769e+00 2.294185e+00 2.118339e+00 2.341907e+00 2.429917e+00 2.475966e+00 2.210624e+00 1.851830e+00 3.170103e+13
<GCONST> 1.547979e+02
<MIXTURE> 3 8.170905e-02
<MEAN> 26
 8.761573e+00 1.029280e+01 4.273809e+00 6.254971e+00 5.848462e+00 3.768522e+00 2.907533e-01 -5.361759e+00 -3.945585e+00 -1.287916e-01 8.890039e-01 -1.458348e+00 1.244935e+01 -2.649779e+00 -1.917946e+00 7.291442e-02 -1.243393e-01 -2.467732e-01 -8.836405e-01 2.923189e-01 1.061396e+00 1.274938e+00 -1.348874e-01 -2.626472e-01 4.582930e-01 2.309941e-01
<VARIANCE> 26
 1.659746e+01 1.928260e+01 2.498380e+01 2.882724e+01 2.682084e+01 3.250520e+01 3.401565e+01 2.733329e+01 3.580260e+01 2.845957e+01 2.254810e+01 2.165580e+01 1.358470e+15 1.839577e+00 2.815013e+00 2.505616e+00 3.013207e+00 3.066839e+00 3.341034e+00 3.292737e+00 3.012864e+00 3.090835e+00 2.887256e+00 2.591177e+00 2.152172e+00 3.170103e+13
<GCONST> 1.649832e+02
<MIXTURE> 4 4.501739e-02
<MEAN> 26
 -3.662534e+00 1.115068e+00 -2.070376e-01 4.611900e+00 6.127848e+00 4.956697e+00 5.655215e+00 4.250852e+00 6.209917e+00 5.608317e+00 5.099433e+00 2.871907e+00 1.148791e+01 9.918539e-01 -4.843834e-01 3.837235e-01 -9.800614e-01 -1.204812e+00 -1.599862e+00 -1.421498e+00 -1.301638e+00 -9.042290e-01 -9.503801e-01 -9.378464e-01 -6.981035e-01 1.197509e+00
<VARIANCE> 26
 1.553468e+01 1.660491e+01 1.994051e+01 2.189750e+01 2.463899e+01 2.890453e+01 2.429462e+01 2.467385e+01 2.495649e+01 2.231847e+01 2.080818e+01 1.675014e+01 1.358470e+15 3.151577e+00 2.378520e+00 4.062953e+00 3.702196e+00 3.541268e+00 3.790544e+00 3.334388e+00 3.360528e+00 3.038610e+00 2.843143e+00 2.845492e+00 2.285638e+00 3.170103e+13
<GCONST> 1.642571e+02
<MIXTURE> 5 8.907187e-02
<MEAN> 26
 5.945995e+00 7.148792e+00 3.855112e+00 6.962232e+00 3.830000e+00 -4.917652e-01 -2.456933e+00 -2.728436e+00 -1.251107e+00 -3.525979e+00 -5.187851e+00 -5.740836e+00 1.239836e+01 -2.352095e+00 -1.718138e+00 -3.993909e-01 -9.856267e-01 -2.317867e-01 3.023492e-01 1.343500e+00 9.171941e-01 1.031155e+00 1.036319e+00 2.073653e+00 1.781526e+00 2.778634e-01
<VARIANCE> 26
 1.729587e+01 2.018558e+01 2.301946e+01 2.264252e+01 2.540435e+01 2.822005e+01 2.979164e+01 2.954059e+01 3.286482e+01 3.081943e+01 2.184056e+01 2.131548e+01 1.358470e+15 1.939620e+00 2.837059e+00 2.964808e+00 3.302568e+00 3.480728e+00 3.686330e+00 3.625172e+00 4.215205e+00 4.375351e+00 3.837231e+00 2.575902e+00 2.347806e+00 3.170103e+13
<GCONST> 1.661333e+02
<MIXTURE> 6 8.051419e-02
<MEAN> 26
 3.763980e+00 9.451873e+00 5.663694e+00 8.832170e+00 8.196050e+00 4.954261e+00 2.729178e+00 -2.313817e+00 -3.047346e+00 -1.571123e+00 -9.935017e-01 -9.341771e-01 1.169158e+01 -1.475881e+00 -2.314292e+00 -1.056973e+00 -1.384460e+00 -9.805046e-01 -6.928666e-01 -1.261066e-01 4.014294e-01 1.063768e+00 5.188496e-01 3.288025e-01 3.834804e-01 4.748361e-01
<VARIANCE> 26
 1.238663e+01 1.312771e+01 1.336554e+01 1.449633e+01 1.704355e+01 1.974829e+01 2.150318e+01 2.052045e+01 2.137901e+01 1.576568e+01 1.432119e+01 1.356156e+01 1.358470e+15 1.863842e+00 2.021297e+00 2.066463e+00 2.566977e+00 2.165760e+00 2.181762e+00 2.281017e+00 2.378858e+00 2.363286e+00 2.124233e+00 1.868005e+00 1.565863e+00 3.170103e+13
<GCONST> 1.559988e+02
<MIXTURE> 7 6.501772e-02
<MEAN> 26
 -2.040082e+00 3.725561e+00 1.119172e+00 6.574613e+00 7.514200e+00 6.604035e+00 5.906311e+00 2.434317e+00 2.735840e+00 1.939132e+00 2.516160e+00 1.463421e+00 1.073901e+01 1.269282e-01 -1.806963e+00 -6.538142e-01 -1.788628e+00 -1.788518e+00 -2.020660e+00 -1.424768e+00 -4.624630e-01 4.412630e-01 1.353683e-01 -1.710333e-01 -7.142752e-02 1.236442e+00
<VARIANCE> 26
 9.777729e+00 1.016379e+01 1.082209e+01 1.279782e+01 1.306619e+01 1.660110e+01 1.658263e+01 1.553776e+01 1.615963e+01 1.329240e+01 1.477652e+01 1.262591e+01 1.358470e+15 2.308542e+00 1.895491e+00 2.558630e+00 2.653701e+00 2.422583e+00 3.189504e+00 2.828436e+00 2.859469e+00 2.475127e+00 2.600286e+00 2.619371e+00 2.176716e+00 3.170103e+13
<GCONST> 1.559060e+02
<MIXTURE> 8 4.628384e-02
<MEAN> 26
 -3.460967e+00 1.791010e+00 1.582735e+00 5.757074e+00 5.376832e+00 2.528492e+00 4.399475e+00 2.533834e+00 3.907056e+00 1.616189e+00 2.544623e+00 1.664584e+00 1.246368e+01 7.818909e-01 -1.675187e+00 2.236711e+00 -8.638961e-01 -3.612348e+00 -3.515472e+00 -1.604702e+00 -6.292741e-01 -1.405051e+00 -9.889825e-01 -6.050074e-01 3.868812e-02 1.555998e+00
<VARIANCE> 26
 1.182785e+01 2.130635e+01 2.085384e+01 1.997156e+01 2.504352e+01 3.154192e+01 2.779767e+01 2.553117e+01 2.422653e+01 2.199230e+01 2.254841e+01 1.753248e+01 1.358470e+15 2.982101e+00 3.085724e+00 5.236896e+00 6.036122e+00 3.485942e+00 3.861594e+00 4.249270e+00 4.448102e+00 4.096779e+00 3.578184e+00 3.165993e+00 2.561062e+00 3.170103e+13
<GCONST> 1.667632e+02
<MIXTURE> 9 8.873380e-02
<MEAN> 26
 2.288519e+00 7.175735e+00 5.138147e+00 7.820292e+00 6.659333e+00 2.994679e+00 9.022583e-01 -3.152248e+00 -2.839694e+00 -2.626823e+00 -2.352494e+00 -2.457095e+00 1.231339e+01 -6.552634e-01 -2.889403e+00 -1.089329e+00 -1.932246e+00 -2.047442e+00 -1.513084e+00 -6.155490e-01 6.206448e-01 1.279913e+00 8.243689e-01 7.200031e-01 6.582552e-01 9.260581e-01
<VARIANCE> 26
 1.210989e+01 1.536619e+01 1.250147e+01 1.231821e+01 1.484309e+01 1.852915e+01 1.857974e+01 1.669857e+01 1.698293e+01 1.444394e+01 1.236163e+01 1.366159e+01 1.358470e+15 2.030862e+00 1.995354e+00 4.026756e+00 3.897971e+00 3.194605e+00 3.654888e+00 3.527236e+00 3.349137e+00 3.431511e+00 3.190113e+00 2.349487e+00 2.129244e+00 3.170103e+13
<GCONST> 1.590488e+02
<MIXTURE> 10 7.057437e-02
<MEAN> 26
 7.166419e+00 7.875950e+00 2.732501e+00 4.612002e+00 5.154312e+00 3.978048e+00 2.580685e-01 -6.606915e+00 -5.563930e+00 -1.525243e+00 8.839097e-01 -1.100004e+00 1.288803e+01 -1.447005e+00 -2.231439e+00 -5.758231e-01 -1.190046e+00 -9.711944e-01 -1.172544e+00 -5.238913e-01 1.102250e+00 1.842779e+00 5.241808e-01 -7.528597e-02 1.511072e-01 5.903326e-01
<VARIANCE> 26
 1.854391e+01 2.470863e+01 2.976165e+01 3.768393e+01 3.076823e+01 3.686692e+01 3.995355e+01 3.095285e+01 3.610070e+01 3.275672e+01 2.548157e+01 2.354065e+01 1.358470e+15 2.548727e+00 3.810339e+00 4.387946e+00 6.295485e+00 4.446028e+00 5.555595e+00 5.022962e+00 4.724443e+00 5.075644e+00 4.381146e+00 3.343196e+00 2.892091e+00 3.170103e+13
<GCONST> 1.718294e+02
<MIXTURE> 11 6.036079e-02
<MEAN> 26
 -3.019068e+00 1.218872e+00 -5.293718e-02 3.755436e+00 4.927962e+00 3.475241e+00 3.575782e+00 8.810352e-02 1.072291e+00 4.434197e-01 1.013161e+00 1.037420e+00 1.195610e+01 9.717545e-01 -1.776804e+00 -8.057150e-01 -1.832017e+00 -1.767112e+00 -1.518530e+00 -1.559277e+00 -5.286630e-01 5.234675e-01 5.057827e-01 -1.163565e-01 -4.508449e-01 1.349599e+00
<VARIANCE> 26
 9.944072e+00 1.377945e+01 1.148083e+01 1.066261e+01 1.206913e+01 1.497584e+01 1.373592e+01 1.523979e+01 1.611280e+01 1.358080e+01 1.377264e+01 1.110309e+01 1.358470e+15 2.611955e+00 2.347308e+00 2.493954e+00 2.826556e+00 2.467812e+00 3.701058e+00 3.078568e+00 3.244951e+00 2.500164e+00 2.933680e+00 3.248787e+00 2.497706e+00 3.170103e+13
<GCONST> 1.567702e+02
<MIXTURE> 12 5.139262e-02
<MEAN> 26
 5.418554e+00 5.577351e+00 3.507153e+00 4.861402e+00 1.870358e+00 -2.298789e+00 -4.330919e+00 -5.653597e+00 -3.745810e+00 -4.384355e+00 -5.236799e+00 -6.187593e+00 1.364422e+01 -1.250571e+00 -1.880621e+00 2.667536e-01 -1.144926e+00 -1.263116e+00 -8.439203e-01 3.620500e-01 8.444751e-01 5.237831e-01 6.852844e-01 1.138313e+00 1.358114e+00 5.696546e-01
<VARIANCE> 26
 2.036885e+01 3.184116e+01 3.441468e+01 2.825042e+01 3.113288e+01 3.205623e+01 3.014766e+01 2.968216e+01 2.910682e+01 3.033375e+01 2.392575e+01 2.459283e+01 1.358470e+15 2.434766e+00 3.850280e+00 5.574027e+00 4.514046e+00 5.196469e+00 4.904043e+00 4.439562e+00 4.703946e+00 4.827294e+00 4.157244e+00 3.241918e+00 3.118013e+00 3.170103e+13
<GCONST> 1.709875e+02
<MIXTURE> 13 8.488914e-02
<MEAN> 26
 4.339290e+00 7.577960e+00 3.945115e+00 7.072539e+00 4.524418e+00 1.181021e+00 -6.594836e-01 -2.733080e+00 -1.227921e+00 -1.331977e+00 -1.500955e+00 -2.294674e+00 1.189835e+01 -1.651687e+00 -1.446759e+00 -6.960941e-01 -7.030782e-01 -1.819179e-02 3.160622e-01 7.746075e-01 6.282514e-01 5.793743e-01 2.643436e-01 5.261869e-01 6.407938e-01 3.726554e-02
<VARIANCE> 26
 1.369274e+01 1.338161e+01 1.496137e+01 1.530496e+01 1.745718e+01 1.912626e+01 1.973803e+01 1.983484e+01 2.117353e+01 2.028204e+01 1.592107e+01 1.580047e+01 1.358470e+15 1.053571e+00 1.129238e+00 1.121887e+00 1.229713e+00 1.342258e+00 1.488234e+00 1.595860e+00 1.719836e+00 1.721656e+00 1.778724e+00 1.532335e+00 1.377044e+00 3.170103e+13
<GCONST> 1.517957e+02
<MIXTURE> 14 5.875465e-02
<MEAN> 26
 -3.623367e+00 -1.415215e+00 -2.011431e+00 1.063325e+00 2.200438e+00 6.824245e-01 1.505911e+00 -2.525879e-01 1.684540e+00 1.608776e+00 1.758605e+00 1.344460e+00 1.268716e+01 1.112452e+00 -5.143719e-01 1.679848e-01 -6.929290e-01 -6.171101e-01 -6.496703e-01 -1.111554e+00 -8.972210e-01 -1.779124e-01 1.629362e-02 -1.440110e-01 -4.315953e-01 1.121424e+00
<VARIANCE> 26
 1.749992e+01 2.025852e+01 1.809029e+01 1.680220e+01 1.926251e+01 2.307550e+01 2.240977e+01 2.278345e+01 2.153793e+01 1.898208e+01 1.799444e+01 1.503826e+01 1.358470e+15 2.935126e+00 2.271142e+00 3.515993e+00 3.045299e+00 2.894069e+00 3.738466e+00 3.170171e+00 2.935821e+00 2.814076e+00 2.813769e+00 2.717741e+00 2.135133e+00 3.170103e+13
<GCONST> 1.619590e+02
<MIXTURE> 15 5.440542e-02
<MEAN> 26
 7.948084e-01 3.654160e+00 4.292667e-01 4.764977e+00 4.270905e+00 2.369970e+00 1.769770e+00 1.145359e+00 4.392850e+00 4.268201e+00 3.415908e+00 1.139098e+00 1.107231e+01 -1.311768e+00 -1.758950e+00 -3.483929e-01 -1.192643e+00 -1.118316e+00 -9.811432e-01 1.229375e-01 2.398498e-02 -2.546898e-01 -6.060044e-01 -6.188714e-02 3.733593e-01 9.259333e-01
<VARIANCE> 26
 1.385059e+01 1.227138e+01 1.505752e+01 1.724440e+01 2.080570e+01 2.462883e+01 2.168464e+01 1.822581e+01 1.657677e+01 1.719819e+01 1.592318e+01 1.584053e+01 1.358470e+15 1.590565e+00 1.751459e+00 2.379634e+00 2.212287e+00 2.677033e+00 3.105253e+00 2.616670e+00 2.373706e+00 2.389946e+00 2.399938e+00 2.260988e+00 1.974613e+00 3.170103e+13
<GCONST> 1.576866e+02
<MIXTURE> 16 2.918365e-02
<MEAN> 26
 -4.730340e+00 -2.359371e+00 1.742675e+00 3.539480e+00 1.919967e+00 -2.978417e+00 8.593950e-01 1.779848e+00 3.721931e+00 -2.233989e-02 3.927601e-01 1.011763e+00 1.446962e+01 1.259416e+00 -1.478968e+00 2.437621e+00 -4.113669e-01 -3.606478e+00 -3.522015e+00 -2.237987e+00 -7.856770e-01 -1.434905e+00 -7.988682e-01 -5.452014e-01 -4.018696e-01 1.619998e+00
<VARIANCE> 26
 1.031064e+01 2.207018e+01 1.703548e+01 2.186504e+01 2.531438e+01 3.008999e+01 3.265878e+01 2.951084e+01 2.774454e+01 2.514615e+01 2.698976e+01 2.138975e+01 1.358470e+15 2.640915e+00 2.504715e+00 4.566804e+00 5.102505e+00 3.561208e+00 3.689090e+00 3.499420e+00 3.975977e+00 4.902164e+00 3.332966e+00 3.054924e+00 2.299550e+00 3.170103e+13
<GCONST> 1.664666e+02
~s "b4m"
<NUMMIXES> 16
<MIXTURE> 1 5.017623e-02
<MEAN> 26
 1.291385e-02 2.288702e+00 2.249803e+00 4.232722e+00 4.293749e+00 2.155435e+00 1.386721e+00 9.072396e-02 2.427144e+00 6.300798e-02 -5.252173e-01 -1.271649e+00 1.314697e+01 -2.827482e+00 -1.219508e+00 1.221295e-01 -1.673835e+00 -5.547130e-01 -1.479109e-01 5.433040e-01 6.000063e-01 6.789621e-01 4.642934e-01 1.201927e+00 1.371284e+00 9.832046e-01
<VARIANCE> 26
 3.071598e+01 2.996805e+01 3.830803e+01 3.549368e+01 3.489179e+01 4.014224e+01 3.737850e+01 3.344657e+01 3.051466e+01 3.184879e+01 2.749431e+01 2.306842e+01 1.358470e+15 6.261505e+00 5.480996e+00 4.616432e+00 5.176575e+00 4.942059e+00 4.883472e+00 4.966529e+00 4.715988e+00 3.961050e+00 4.281333e+00 3.834193e+00 2.801233e+00 3.170103e+13
<GCONST> 1.737162e+02
<MIXTURE> 2 7.036628e-02
<MEAN> 26
 4.080591e-01 1.026660e+00 7.155195e-01 3.578778e+00 4.126769e+00 3.713472e-01 -4.263490e-01 -2.482910e+00 1.148680e+00 1.027988e+00 1.320888e+00 -2.643602e-01 1.423446e+01 7.647100e-01 -3.183397e+00 -2.812392e+00 -2.899654e+00 -1.466058e+00 -9.981636e-01 -1.353776e+00 7.062389e-01 2.118834e+00 1.857277e+00 8.717995e-01 3.097370e-01 1.363331e+00
<VARIANCE> 26
 1.874447e+01 1.823191e+01 1.850670e+01 1.936769e+01 1.986837e+01 2.062748e+01 2.549816e+01 2.559971e+01 2.549760e+01 2.191098e+01 1.884156e+01 1.895860e+01 1.358470e+15 2.196469e+00 2.288960e+00 3.878283e+00 5.704666e+00 4.477120e+00 4.925492e+00 6.692140e+00 4.915024e+00 3.667796e+00 3.788409e+00 3.715266e+00 3.822638e+00 3.170103e+13
<GCONST> 1.667172e+02
<MIXTURE> 3 5.164048e-02
<MEAN> 26
 -1.784389e+00 -7.241413e-01 -1.976937e-04 3.885658e+00 5.683363e+00 2.751397e+00 1.184893e+00 -4.780114e-03 4.167398e+00 4.321073e+00 4.007479e+00 1.312466e+00 1.410370e+01 3.011526e+00 -2.864786e-01 -2.069494e+00 -2.669023e+00 -7.748815e-01 -5.482828e-01 -2.241821e+00 -1.493295e+00 -8.685342e-01 -1.495975e-01 -1.169777e-01 -2.294977e-01 1.292648e+00
<VARIANCE> 26
 1.506838e+01 2.115047e+01 1.812030e+01 2.263578e+01 2.003958e+01 2.217404e+01 2.486562e+01 2.747355e+01 3.136353e+01 2.390042e+01 2.033479e+01 1.804415e+01 1.358470e+15 3.033940e+00 3.581708e+00 3.778435e+00 6.259044e+00 3.670582e+00 4.855721e+00 4.503263e+00 3.805255e+00 3.776388e+00 3.747936e+00 3.434584e+00 3.115063e+00 3.170103e+13
<GCONST> 1.669370e+02
<MIXTURE> 4 6.035126e-02
<MEAN> 26
 -1.115096e+00 8.316842e-01 7.506844e+00 8.682999e+00 1.778354e+00 -4.404866e+00 -5.723424e-03 1.342991e-01 3.187930e-01 -1.219367e+00 1.850438e-01 1.318971e-01 1.477648e+01 -1.775675e-01 -1.559777e+00 3.349756e+00 -7.818173e-01 -4.271302e+00 -1.991193e+00 -8.575264e-01 -6.705640e-01 -1.933985e+00 -2.884913e-01 4.529377e-01 3.463821e-01 1.367930e+00
<VARIANCE> 26
 1.764890e+01 1.798706e+01 1.797427e+01 2.126232e+01 2.495044e+01 2.864147e+01 3.438047e+01 2.995329e+01 2.613994e+01 2.342969e+01 2.065010e+01 1.887285e+01 1.358470e+15 3.843848e+00 3.808013e+00 3.549073e+00 4.371468e+00 3.466522e+00 3.818871e+00 3.755926e+00 4.586227e+00 3.877735e+00 4.184081e+00 3.255011e+00 2.801619e+00 3.170103e+13
<GCONST> 1.671671e+02
<MIXTURE> 5 6.725316e-02
<MEAN> 26
 3.769889e+00 -1.407882e+00 1.164189e+01 6.381124e+00 -8.500942e+00 -8.402593e+00 -3.468320e+00 -1.199590e-01 -4.791374e+00 -4.000804e+00 2.760077e+00 1.313039e+00 1.654202e+01 5.858933e-01 -1.288339e+00 3.069702e+00 -1.397557e+00 -5.010995e+00 -1.109348e+00 -7.242263e-01 -2.338686e-01 -2.394264e+00 -2.321159e-01 1.443478e+00 2.706094e-01 1.165460e+00
<VARIANCE> 26
 9.655594e+00 1.459699e+01 2.870296e+01 2.516661e+01 2.181825e+01 2.113098e+01 2.844280e+01 2.365889e+01 3.059075e+01 2.681194e+01 1.743259e+01 1.607291e+01 1.358470e+15 2.432381e+00 3.756240e+00 3.835623e+00 3.687197e+00 3.573355e+00 4.906162e+00 4.795671e+00 5.683155e+00 5.180457e+00 5.451728e+00 3.237036e+00 3.168179e+00 3.170103e+13
<GCONST> 1.669377e+02
<MIXTURE> 6 6.084095e-02
<MEAN> 26
 -1.078815e+00 -3.721614e-01 1.080583e-01 2.078647e+00 1.958821e+00 -6.251506e-01 1.406277e+00 1.568201e+00 5.367565e+00 2.483200e+00 1.752442e+00 8.048526e-01 1.441830e+01 2.745443e+00 -2.083258e+00 -1.260926e+00 -2.851015e+00 -2.111449e+00 -1.799061e+00 -2.091859e+00 -1.124565e-01 2.624317e-01 -1.932335e-01 -1.938927e+00 -1.241817e+00 1.743709e+00
<VARIANCE> 26
 1.369312e+01 1.512011e+01 1.394081e+01 1.551468e+01 1.825002e+01 2.074870e+01 2.091340e+01 2.135021e+01 2.087946e+01 1.809729e+01 1.840748e+01 1.753730e+01 1.358470e+15 1.686956e+00 2.775650e+00 3.508678e+00 3.995548e+00 3.695593e+00 6.660402e+00 5.514707e+00 3.918800e+00 3.430992e+00 5.170326e+00 4.524148e+00 3.198707e+00 3.170103e+13
<GCONST> 1.641853e+02
<MIXTURE> 7 5.056365e-02
<MEAN> 26
 8.071722e+00 -4.225456e+00 -3.495094e+00 -2.427452e+00 -2.202990e+00 -2.402753e+00 -5.740702e+00 -2.004607e+00 4.788483e+00 6.694936e+00 1.462933e+00 -5.253918e+00 1.704976e+01 1.256958e+00 -2.833696e+00 -1.442958e+00 -1.981585e+00 -2.049464e+00 -1.043643e+00 -9.971380e-01 1.630007e+00 1.886968e+00 1.085946e+00 -7.775444e-01 -1.600600e+00 1.233194e+00
<VARIANCE> 26
 9.078509e+00 1.537208e+01 1.797839e+01 2.196005e+01 1.918261e+01 3.251782e+01 2.809223e+01 3.232914e+01 2.519057e+01 2.711270e+01 2.800751e+01 1.915334e+01 1.358470e+15 2.612593e+00 3.214241e+00 3.352781e+00 3.410446e+00 3.356671e+00 4.782254e+00 5.078041e+00 4.753273e+00 4.534835e+00 4.203218e+00 3.342720e+00 3.217658e+00 3.170103e+13
<GCONST> 1.665401e+02
<MIXTURE> 8 5.590062e-02
<MEAN> 26
 7.087580e+00 3.027995e+00 -3.510737e+00 -6.221690e+00 -1.407609e+00 4.920423e+00 2.135371e+00 -4.659155e+00 -2.504050e+00 4.577745e-01 2.987866e+00 2.402836e+00 1.553351e+01 2.307135e+00 -1.017030e+00 -2.154954e+00 -4.732900e+00 -2.514429e+00 1.524732e+00 -3.871854e-01 -9.492397e-01 -5.114202e-02 7.131546e-01 1.178577e+00 2.369621e-01 1.276555e+00
<VARIANCE> 26
 1.641230e+01 1.360012e+01 1.771732e+01 4.226559e+01 3.204681e+01 2.616504e+01 2.926258e+01 2.633781e+01 2.426046e+01 2.568689e+01 2.178914e+01 1.606265e+01 1.358470e+15 3.171389e+00 4.407074e+00 4.139207e+00 5.679473e+00 5.887781e+00 5.127277e+00 6.105114e+00 5.150908e+00 5.187490e+00 4.596407e+00 4.093480e+00 3.568892e+00 3.170103e+13
<GCONST> 1.699193e+02
<MIXTURE> 9 7.292517e-02
<MEAN> 26
 -6.589932e-01 -6.487166e-01 6.067911e+00 6.959469e+00 4.865001e-02 -7.298614e+00 -2.746402e+00 -1.319836e-01 1.004162e+00 -1.970793e+00 -9.830436e-01 -2.093780e-01 1.542961e+01 8.265769e-01 -1.560073e+00 3.205380e+00 -9.904228e-01 -4.953404e+00 -2.808897e+00 -1.990673e+00 -5.842454e-01 -2.104201e+00 -5.614045e-01 2.162393e-01 4.989277e-02 1.503615e+00
<VARIANCE> 26
 1.936435e+01 1.495309e+01 1.573267e+01 2.059266e+01 2.254664e+01 2.963796e+01 3.585983e+01 2.925582e+01 2.602420e+01 2.424103e+01 2.079429e+01 1.954853e+01 1.358470e+15 3.050483e+00 3.601008e+00 4.165067e+00 4.762057e+00 3.148836e+00 4.641923e+00 4.244556e+00 6.640781e+00 5.084099e+00 4.543855e+00 4.310685e+00 3.116035e+00 3.170103e+13
<GCONST> 1.682238e+02
<MIXTURE> 10 7.371983e-02
<MEAN> 26
 7.402899e+00 -2.286579e-01 -5.633742e+00 -7.224308e+00 -9.687377e-01 4.288567e+00 -9.622914e-01 -6.326205e+00 -8.238758e-01 4.730284e+00 4.338253e+00 -1.599090e+00 1.640554e+01 1.980233e+00 -2.735963e+00 -2.701676e+00 -4.440510e+00 -1.832504e+00 1.274685e+00 -1.041879e+00 -5.723925e-01 8.235284e-01 2.016590e+00 7.478372e-01 -1.418744e+00 1.517040e+00
<VARIANCE> 26
 1.487593e+01 1.188128e+01 1.541142e+01 3.091486e+01 2.041194e+01 2.817590e+01 2.919333e+01 2.279266e+01 2.679499e+01 2.872960e+01 2.674555e+01 1.997349e+01 1.358470e+15 2.855867e+00 3.683431e+00 3.648837e+00 4.542599e+00 4.324298e+00 5.610064e+00 6.074687e+00 4.946270e+00 6.694934e+00 5.040357e+00 5.286091e+00 4.092316e+00 3.170103e+13
<GCONST> 1.691860e+02
<MIXTURE> 11 7.788104e-02
<MEAN> 26
 -1.807793e+00 -1.798007e+00 -1.704933e+00 8.758057e-01 2.665366e+00 -1.623243e-01 -1.403156e+00 -3.162140e+00 1.355067e+00 1.996522e+00 1.858194e+00 2.423023e-01 1.476332e+01 3.053695e+00 -6.870499e-01 -1.920583e+00 -2.892180e+00 -1.502870e+00 -4.508996e-01 -2.358752e+00 -1.957724e+00 -6.404606e-01 4.789609e-01 3.928578e-01 -5.093439e-01 1.478398e+00
<VARIANCE> 26
 1.310081e+01 2.079898e+01 1.711360e+01 2.003467e+01 1.984774e+01 2.259067e+01 2.351962e+01 2.296628e+01 2.300447e+01 2.018244e+01 1.831636e+01 1.702540e+01 1.358470e+15 2.214262e+00 2.764662e+00 3.758122e+00 5.286886e+00 3.409096e+00 4.821601e+00 4.751582e+00 3.486885e+00 3.709498e+00 3.775929e+00 3.713851e+00 3.266970e+00 3.170103e+13
<GCONST> 1.649862e+02
<MIXTURE> 12 5.364499e-02
<MEAN> 26
 2.111174e+00 -2.704815e-01 1.161609e+01 1.469221e+00 -9.456998e+00 -9.349302e+00 -2.260195e+00 -3.539703e+00 -5.567523e+00 9.856471e-01 2.184691e-01 -5.618163e-01 1.658656e+01 3.449210e-01 -9.346471e-01 3.314408e+00 -3.903160e+00 -4.500145e+00 -1.340553e+00 -1.155643e+00 -1.982162e+00 -2.663226e+00 2.193609e+00 -1.004493e+00 2.828859e-01 1.337552e+00
<VARIANCE> 26
 1.023867e+01 1.390389e+01 2.770871e+01 2.891176e+01 2.357641e+01 2.373232e+01 2.547677e+01 3.089389e+01 3.362384e+01 2.637550e+01 1.947188e+01 2.022973e+01 1.358470e+15 2.431381e+00 3.657315e+00 3.810660e+00 3.500946e+00 3.461936e+00 5.417154e+00 5.070389e+00 6.849722e+00 5.222760e+00 4.146287e+00 4.028041e+00 3.898476e+00 3.170103e+13
<GCONST> 1.682050e+02
<MIXTURE> 13 8.134217e-02
<MEAN> 26
 1.885365e+00 -1.845016e-01 1.414447e+00 2.386796e+00 -3.394827e-01 -4.931468e+00 -3.023114e+00 -1.317745e+00 2.568011e+00 2.753417e-01 -8.546380e-01 -8.465649e-01 1.539089e+01 5.533041e-01 -3.698504e+00 -1.018660e+00 -2.451992e+00 -3.248830e+00 -2.583424e+00 -1.116706e+00 1.900338e+00 1.780557e+00 7.869858e-01 1.401130e-01 5.299038e-01 1.526535e+00
<VARIANCE> 26
 1.566543e+01 1.346867e+01 1.487171e+01 1.620481e+01 2.262100e+01 2.528409e+01 2.857934e+01 2.366367e+01 1.993800e+01 2.040374e+01 1.677953e+01 1.652884e+01 1.358470e+15 2.165361e+00 2.510750e+00 3.906148e+00 3.757792e+00 4.250608e+00 4.729307e+00 6.676042e+00 4.510668e+00 3.990453e+00 3.786468e+00 3.295226e+00 3.767786e+00 3.170103e+13
<GCONST> 1.650729e+02
<MIXTURE> 14 4.648546e-02
<MEAN> 26
 7.010599e+00 -5.715518e+00 -4.850484e+00 -5.500369e+00 -1.377958e+00 -3.480704e+00 -3.366868e+00 9.183784e-01 5.241863e+00 2.817167e+00 -5.611614e+00 -4.563626e+00 1.745630e+01 8.785055e-01 -4.193576e+00 -2.083740e+00 -3.552073e+00 -1.035724e+00 -5.018186e-01 2.680103e-01 2.061166e+00 6.369007e-01 -3.392741e-02 -2.747792e+00 -1.780579e-01 1.518113e+00
<VARIANCE> 26
 8.435445e+00 1.733994e+01 1.663292e+01 2.094485e+01 1.921885e+01 3.123273e+01 2.823495e+01 2.831265e+01 2.086769e+01 3.457096e+01 2.138401e+01 1.979243e+01 1.358470e+15 2.220984e+00 2.923783e+00 2.824999e+00 3.265093e+00 3.528483e+00 4.662724e+00 5.652460e+00 4.862180e+00 5.020822e+00 4.500139e+00 3.412965e+00 4.347694e+00 3.170103e+13
<GCONST> 1.662880e+02
<MIXTURE> 15 4.913292e-02
<MEAN> 26
 7.206776e-01 -1.278293e+00 -8.232742e-01 -2.971965e-01 -1.284452e+00 -3.708578e+00 -5.910750e-02 1.452958e+00 4.370375e+00 -5.611584e-01 -5.258157e-01 2.419451e-01 1.552839e+01 2.278920e+00 -2.854105e+00 -1.270094e+00 -3.414227e+00 -2.772813e+00 -2.679821e+00 -1.741746e+00 1.467252e-01 -5.105222e-01 -1.110922e+00 -2.937442e+00 -9.912852e-01 1.865212e+00
<VARIANCE> 26
 1.827172e+01 1.388858e+01 1.403908e+01 1.514575e+01 2.247809e+01 2.307038e+01 2.231087e+01 1.874506e+01 1.940877e+01 1.800840e+01 1.831366e+01 1.606716e+01 1.358470e+15 1.480579e+00 2.805929e+00 3.266839e+00 3.541961e+00 3.909191e+00 5.019484e+00 6.036149e+00 4.166687e+00 3.673889e+00 4.267174e+00 3.455643e+00 2.920595e+00 3.170103e+13
<GCONST> 1.635796e+02
<MIXTURE> 16 7.777569e-02
<MEAN> 26
 2.147761e+00 3.908204e+00 1.659958e+00 1.960383e+00 3.866288e+00 2.398166e+00 8.841414e-01 -3.762802e+00 -2.537133e+00 -2.851046e+00 -1.370466e+00 -8.246274e-01 1.391774e+01 2.671688e-01 -1.291799e+00 -1.702824e+00 -4.170162e+00 -1.787300e+00 2.739733e-01 -4.434713e-01 -4.443881e-01 5.134357e-01 5.169017e-01 1.180340e+00 1.379716e+00 1.008883e+00
<VARIANCE> 26
 2.296690e+01 2.412480e+01 2.028515e+01 2.505808e+01 2.663543e+01 2.875958e+01 3.017145e+01 2.599469e+01 2.580160e+01 2.164390e+01 2.044920e+01 2.058586e+01 1.358470e+15 2.226253e+00 2.767418e+00 3.474649e+00 5.676076e+00 4.910704e+00 3.427924e+00 3.929398e+00 3.797345e+00 3.652857e+00 3.454868e+00 3.111421e+00 2.437978e+00 3.170103e+13
<GCONST> 1.668271e+02
~s "d2m"
<NUMMIXES> 16
<MIXTURE> 1 4.140710e-02
<MEAN> 26
 6.423032e+00 5.111560e+00 1.081470e+01 7.124709e+00 -2.410477e+00 -2.752133e+00 1.395682e-01 1.608699e+00 -3.476917e-01 -2.530688e+00 -1.535967e+00 -6.075846e-01 1.386821e+01 3.266526e-01 1.936188e+00 -6.352048e-01 1.264672e+00 2.179173e+00 1.158634e+00 1.477265e+00 3.234050e-01 6.480310e-01 2.782361e-01 -5.781393e-01 -6.944672e-01 -8.648966e-01
<VARIANCE> 26
 1.188231e+01 1.762875e+01 2.207385e+01 2.290796e+01 2.276987e+01 2.381878e+01 2.749874e+01 2.372088e+01 2.573303e+01 1.919953e+01 2.061267e+01 1.851197e+01 1.358470e+15 1.242378e+00 1.451691e+00 1.867410e+00 1.895235e+00 2.626021e+00 2.527925e+00 2.246246e+00 2.302635e+00 2.329300e+00 2.043216e+00 1.720530e+00 1.576228e+00 3.170103e+13
<GCONST> 1.581587e+02
<MIXTURE> 2 7.669634e-02
<MEAN> 26
 4.459112e+00 8.335845e+00 7.626078e+00 8.997022e+00 3.380742e+00 1.647201e-01 3.649684e-01 -1.451725e+00 -1.380472e+00 -1.538598e+00 -1.370922e+00 -1.028980e+00 1.229205e+01 -2.400550e+00 -1.520148e+00 -1.189965e+00 -9.883566e-01 1.543407e+00 1.635960e+00 1.179200e+00 4.825193e-01 5.030935e-01 6.546385e-01 8.787827e-01 3.215631e-01 -3.527640e-02
<VARIANCE> 26
 1.161916e+01 1.504860e+01 1.873760e+01 1.899439e+01 2.423777e+01 2.672584e+01 2.450372e+01 2.364980e+01 2.203045e+01 1.894948e+01 1.759497e+01 1.637164e+01 1.358470e+15 1.822201e+00 3.036969e+00 3.045599e+00 4.036539e+00 3.751956e+00 3.234105e+00 3.099243e+00 3.386741e+00 3.484607e+00 2.828439e+00 2.353817e+00 2.277135e+00 3.170103e+13
<GCONST> 1.623231e+02
<MIXTURE> 3 6.963108e-02
<MEAN> 26
 5.551815e+00 8.830463e+00 7.678673e+00 8.903789e+00 3.286536e+00 -5.355511e-01 2.676293e-01 -1.727386e-01 2.563260e-02 -1.154970e+00 -2.110186e+00 -1.249859e+00 1.269782e+01 -5.921231e-01 2.830715e-01 -3.174537e-01 1.557928e-01 1.054473e+00 1.056669e+00 6.317086e-01 -3.177987e-02 -1.575081e-01 1.392219e-01 3.146434e-01 1.021710e-01 -3.693546e-01
<VARIANCE> 26
 1.135911e+01 1.551518e+01 1.826146e+01 1.740345e+01 2.176693e+01 2.677633e+01 2.383097e+01 2.083174e+01 2.130593e+01 1.716176e+01 1.759466e+01 1.580066e+01 1.358470e+15 5.987023e-01 1.026529e+00 9.140169e-01 1.030345e+00 1.346952e+00 1.567271e+00 1.559975e+00 1.489349e+00 1.560653e+00 1.326125e+00 1.273301e+00 1.254991e+00 3.170103e+13
<GCONST> 1.509948e+02
<MIXTURE> 4 3.958807e-02
<MEAN> 26
 -2.480617e+00 4.369362e+00 3.617753e+00 3.449718e+00 3.157948e+00 9.252021e-01 2.063724e+00 3.493474e-01 2.401412e+00 1.598542e+00 2.413473e+00 1.327332e+00 1.354139e+01 -1.379214e+00 -4.220730e-01 -2.148514e-01 9.828958e-02 1.079159e+00 7.400035e-01 9.359554e-01 4.301682e-01 3.392033e-01 4.042339e-01 3.738119e-01 1.471280e-02 -4.407748e-02
<VARIANCE> 26
 5.519837e+01 4.506603e+01 5.619328e+01 4.574122e+01 4.968159e+01 5.241200e+01 4.579610e+01 4.225010e+01 3.578742e+01 3.305681e+01 2.834108e+01 2.020812e+01 1.358470e+15 4.968159e+00 4.013121e+00 3.955423e+00 4.678879e+00 5.015826e+00 4.859084e+00 4.170265e+00 3.859274e+00 3.616958e+00 3.124188e+00 2.518009e+00 2.150522e+00 3.170103e+13
<GCONST> 1.742436e+02
<MIXTURE> 5 6.939948e-02
<MEAN> 26
 8.424191e+00 6.310042e+00 7.182548e+00 6.616245e+00 -1.372688e+00 -3.142066e+00 -1.529330e+00 -1.270599e+00 -7.242585e-01 -2.008244e+00 -4.090018e+00 -2.587287e+00 1.406872e+01 3.123019e-02 1.000456e+00 8.530851e-02 5.014577e-01 6.892872e-01 3.451290e-01 2.944119e-01 6.945214e-02 7.896943e-02 7.694161e-02 1.934365e-01 3.673217e-02 -3.832890e-01
<VARIANCE> 26
 1.302329e+01 2.832730e+01 3.055082e+01 3.103556e+01 3.468499e+01 3.311165e+01 3.927398e+01 4.383776e+01 4.085948e+01 3.701857e+01 3.054426e+01 3.103259e+01 1.358470e+15 6.881950e-01 9.407440e-01 1.022007e+00 1.215535e+00 1.643406e+00 1.647719e+00 1.853146e+00 1.909505e+00 1.899403e+00 1.690203e+00 1.606108e+00 1.482261e+00 3.170103e+13
<GCONST> 1.592313e+02
<MIXTURE> 6 7.519013e-02
<MEAN> 26
 5.208243e+00 7.375745e+00 6.178556e+00 5.936198e+00 8.252887e-01 -5.405046e-01 -5.002142e-01 -5.216191e+00 -4.323852e+00 -1.122436e+00 -2.360863e+00 -2.708348e+00 1.349056e+01 -3.193630e+00 -1.497519e+00 -2.348747e-01 -7.620726e-01 1.771245e+00 8.868835e-01 5.108938e-01 1.788007e+00 1.719731e+00 -2.728854e-02 1.166352e+00 8.613238e-01 1.805357e-01
<VARIANCE> 26
 1.790368e+01 2.552185e+01 2.633139e+01 3.131816e+01 3.546677e+01 3.325322e+01 3.619286e+01 3.375352e+01 3.094438e+01 3.369689e+01 2.631025e+01 2.530199e+01 1.358470e+15 3.349517e+00 5.542103e+00 4.721770e+00 6.727156e+00 5.881534e+00 6.157060e+00 6.967216e+00 6.062348e+00 5.539459e+00 5.994665e+00 5.496718e+00 4.502881e+00 3.170103e+13
<GCONST> 1.746118e+02
<MIXTURE> 7 8.052210e-02
<MEAN> 26
 6.191504e+00 5.323464e+00 7.351386e+00 8.389532e+00 2.906788e-01 -3.030998e+00 -2.361130e+00 -9.223469e-01 5.197540e-03 -2.577435e+00 -3.429043e+00 -1.707580e+00 1.360298e+01 -5.288265e-01 2.441237e+00 -2.680686e-02 1.563814e+00 2.982509e+00 1.931025e+00 1.558074e+00 -6.157846e-01 -4.256390e-01 -2.460771e-01 -4.308260e-01 -9.176575e-01 -9.139568e-01
<VARIANCE> 26
 1.069524e+01 2.286061e+01 2.039786e+01 2.637980e+01 2.860997e+01 2.833455e+01 2.565970e+01 2.370597e+01 2.520416e+01 2.171231e+01 1.906950e+01 2.004355e+01 1.358470e+15 1.655858e+00 2.174472e+00 3.381666e+00 3.875117e+00 3.454008e+00 3.745452e+00 3.590986e+00 3.407104e+00 3.584760e+00 2.856130e+00 2.530677e+00 2.365208e+00 3.170103e+13
<GCONST> 1.638978e+02
<MIXTURE> 8 4.742017e-02
<MEAN> 26
 7.084353e+00 -1.248499e+00 3.823679e+00 4.634248e+00 -4.686438e+00 -3.611705e+00 -3.953025e+00 -7.432841e-01 1.380119e+00 -1.165852e+00 -2.672786e+00 -9.839542e-01 1.528933e+01 -7.742460e-01 9.967538e-01 9.877743e-01 6.679586e-01 9.061108e-01 4.435414e-01 7.516261e-01 -5.142598e-01 -4.669024e-01 4.185774e-02 3.616491e-01 3.394442e-01 -4.636388e-01
<VARIANCE> 26
 1.664040e+01 3.569538e+01 5.440455e+01 6.636203e+01 7.374274e+01 5.300447e+01 5.859438e+01 6.128797e+01 5.685724e+01 4.867345e+01 4.141395e+01 3.681969e+01 1.358470e+15 2.076089e+00 3.750765e+00 4.703107e+00 6.011517e+00 7.227554e+00 5.541167e+00 6.487513e+00 6.052975e+00 5.692015e+00 4.941713e+00 4.678418e+00 3.668338e+00 3.170103e+13
<GCONST> 1.789426e+02
<MIXTURE> 9 7.909651e-02
<MEAN> 26
 4.340411e+00 7.871560e+00 5.751451e+00 6.989298e+00 3.219181e+00 4.060344e-01 -5.501686e-01 -2.429740e+00 -2.351217e+00 -2.694144e+00 -2.698836e+00 -2.471130e+00 1.269154e+01 -7.908804e-01 -1.975462e-01 -3.611701e-01 6.585217e-02 8.408204e-01 8.438309e-01 5.185096e-01 8.104284e-02 -2.688538e-02 4.934177e-02 2.399739e-01 1.264373e-01 -2.978356e-01
<VARIANCE> 26
 1.105907e+01 1.450426e+01 1.522895e+01 1.578016e+01 1.877318e+01 2.058610e+01 2.058459e+01 2.100466e+01 1.977483e+01 1.863181e+01 1.659924e+01 1.683060e+01 1.358470e+15 6.446316e-01 1.026495e+00 1.109927e+00 1.226752e+00 1.454100e+00 1.544848e+00 1.529937e+00 1.533919e+00 1.563121e+00 1.501695e+00 1.347232e+00 1.377384e+00 3.170103e+13
<GCONST> 1.508748e+02
<MIXTURE> 10 7.868356e-02
<MEAN> 26
 6.538898e+00 3.954692e+00 7.092127e+00 3.826946e+00 -3.757437e+00 -5.279836e+00 -3.061278e+00 -2.431040e+00 -3.399165e+00 -5.080917e+00 -5.436093e+00 -2.492690e+00 1.464923e+01 2.202809e-01 2.499106e+00 2.179780e-01 2.273486e+00 2.513594e+00 1.653321e+00 7.631876e-01 -6.690187e-01 -2.634018e-01 -1.035137e+00 -7.000130e-01 -1.573171e+00 -9.218328e-01
<VARIANCE> 26
 1.305280e+01 2.855642e+01 2.408142e+01 3.342603e+01 3.706311e+01 3.165559e+01 3.153909e+01 2.965334e+01 3.403113e+01 3.489085e+01 2.843176e+01 3.329730e+01 1.358470e+15 2.042941e+00 2.158375e+00 2.512222e+00 3.618598e+00 3.427633e+00 3.101620e+00 3.468718e+00 3.621264e+00 3.288902e+00 3.139584e+00 3.018458e+00 2.633343e+00 3.170103e+13
<GCONST> 1.671629e+02
<MIXTURE> 11 9.063204e-02
<MEAN> 26
 4.590412e+00 8.171047e+00 6.795353e+00 7.812003e+00 3.443690e+00 8.860305e-02 -4.824182e-01 -2.358278e+00 -2.560841e+00 -2.650825e+00 -2.922269e+00 -2.403731e+00 1.256405e+01 -2.507294e+00 -2.195957e+00 -5.159582e-01 -1.645813e+00 5.896727e-01 9.779719e-01 6.982197e-01 6.329588e-01 5.273634e-01 4.789712e-01 1.129791e+00 7.874205e-01 2.483458e-01
<VARIANCE> 26
 1.084232e+01 1.436713e+01 1.608147e+01 1.786571e+01 2.148353e+01 2.304925e+01 2.108372e+01 2.140509e+01 2.086336e+01 1.773629e+01 1.575658e+01 1.581962e+01 1.358470e+15 1.855353e+00 2.974275e+00 3.143377e+00 3.731191e+00 4.040190e+00 3.674234e+00 3.282363e+00 3.448242e+00 3.263852e+00 2.880903e+00 2.462431e+00 2.379690e+00 3.170103e+13
<GCONST> 1.614787e+02
<MIXTURE> 12 6.527454e-02
<MEAN> 26
 4.981978e+00 5.918808e+00 6.115592e+00 3.753801e+00 -5.135391e-01 -2.358027e+00 -2.832691e+00 -5.319448e+00 -6.366117e+00 -5.396303e+00 -5.457856e+00 -4.775288e+00 1.414002e+01 -2.648696e+00 -1.413404e+00 3.941514e-01 -8.635015e-01 1.105543e+00 7.940954e-01 4.033674e-01 1.208832e+00 1.443614e+00 7.038375e-01 1.756114e+00 6.953135e-01 1.885441e-01
<VARIANCE> 26
 1.858518e+01 2.514577e+01 2.521375e+01 3.205805e+01 3.465797e+01 3.202011e+01 3.189340e+01 3.090692e+01 2.703100e+01 2.981517e+01 2.526433e+01 2.668054e+01 1.358470e+15 2.563439e+00 3.376898e+00 3.828702e+00 5.117484e+00 5.259491e+00 5.519093e+00 5.485713e+00 5.048902e+00 4.671110e+00 4.550017e+00 4.001785e+00 3.770205e+00 3.170103e+13
<GCONST> 1.712634e+02
<MIXTURE> 13 4.707542e-02
<MEAN> 26
 6.954660e+00 4.184790e+00 5.248685e+00 3.229343e+00 -4.242139e+00 -4.128534e+00 -2.346380e+00 -5.209726e+00 -5.203331e+00 -3.068504e+00 -5.434161e+00 -3.093271e+00 1.509239e+01 -3.435197e-02 4.808324e-01 1.804891e-02 3.170284e-01 4.615936e-01 2.764435e-01 -1.455706e-01 -1.084241e-01 7.306253e-02 2.425593e-02 2.295724e-01 -9.876142e-02 -2.361787e-01
<VARIANCE> 26
 1.233460e+01 2.705151e+01 3.113888e+01 3.278347e+01 3.928877e+01 4.407398e+01 4.579951e+01 4.979799e+01 4.134735e+01 5.141650e+01 4.401568e+01 4.064017e+01 1.358470e+15 4.298447e-01 8.301460e-01 9.999442e-01 1.243206e+00 1.653072e+00 1.523543e+00 1.628597e+00 1.833052e+00 1.725965e+00 1.721392e+00 1.701809e+00 1.518431e+00 3.170103e+13
<GCONST> 1.600390e+02
<MIXTURE> 14 4.807178e-02
<MEAN> 26
 -2.984051e+00 4.001098e+00 1.835381e+00 1.773921e+00 3.939338e+00 1.116938e+00 1.367601e+00 -1.034141e+00 3.715149e-01 2.455215e-01 8.921069e-01 4.269402e-01 1.395842e+01 -5.756088e-01 -1.054435e+00 4.176246e-01 -5.511484e-02 -4.610779e-01 -5.243686e-01 -8.085325e-03 2.555086e-01 4.419644e-02 -1.267588e-01 -1.043370e-01 8.710055e-02 1.915971e-01
<VARIANCE> 26
 6.595022e+01 5.230224e+01 4.850425e+01 4.415420e+01 4.417912e+01 5.058887e+01 4.273999e+01 3.979885e+01 3.329427e+01 2.884776e+01 2.481037e+01 2.114488e+01 1.358470e+15 5.783264e+00 4.241050e+00 3.505751e+00 4.973069e+00 4.423953e+00 5.050596e+00 4.384616e+00 3.827295e+00 3.491346e+00 2.948230e+00 2.601647e+00 2.237369e+00 3.170103e+13
<GCONST> 1.738916e+02
<MIXTURE> 15 6.072142e-02
<MEAN> 26
 5.634054e+00 3.827747e+00 9.482802e+00 5.761007e+00 -4.245263e+00 -4.009888e+00 -2.459621e-01 4.526977e-01 -1.674269e+00 -2.724526e+00 -9.682797e-01 -3.197093e-01 1.414060e+01 -2.161939e-01 1.537657e+00 -6.785139e-01 1.006576e+00 2.483318e+00 1.330669e+00 1.035458e+00 -4.487754e-02 4.285231e-01 6.728698e-02 -5.104002e-01 -6.797844e-01 -7.825535e-01
<VARIANCE> 26
 1.098479e+01 2.123725e+01 2.161438e+01 2.626270e+01 2.493039e+01 2.407961e+01 2.677823e+01 2.458282e+01 2.372353e+01 1.946174e+01 2.045256e+01 1.918523e+01 1.358470e+15 1.474574e+00 1.680859e+00 1.838257e+00 2.199032e+00 2.577499e+00 2.642890e+00 2.446033e+00 2.450381e+00 2.250166e+00 2.015119e+00 1.869946e+00 1.644974e+00 3.170103e+13
<GCONST> 1.591546e+02
<MIXTURE> 16 3.059607e-02
<MEAN> 26
 5.612026e+00 -4.102205e+00 3.279691e+00 5.538654e-01 -6.031699e+00 -3.987964e+00 -4.015971e+00 5.517802e-01 -1.055706e+00 -2.179648e+00 -3.763586e+00 -7.436339e-01 1.634849e+01 -2.102900e-01 -5.086842e-01 4.103464e-01 -7.263824e-02 -3.764682e-01 5.403181e-01 -4.499969e-01 4.360424e-01 4.676951e-01 -5.841537e-02 4.867541e-01 1.596372e-01 -4.825680e-02
<VARIANCE> 26
 1.317454e+01 3.088173e+01 4.902765e+01 5.952471e+01 5.064581e+01 4.985128e+01 5.273832e+01 5.904848e+01 5.947198e+01 4.937917e+01 4.105590e+01 3.880965e+01 1.358470e+15 1.635892e+00 3.861759e+00 4.831849e+00 4.970553e+00 5.296319e+00 5.154703e+00 4.620224e+00 5.462865e+00 4.475326e+00 3.987102e+00 3.653420e+00 3.165798e+00 3.170103e+13
<GCONST> 1.758279e+02
~s "d3m"
<NUMMIXES> 16
<MIXTURE> 1 3.296348e-02
<MEAN> 26
 -2.399257e+00 3.787739e+00 4.952366e-01 8.709843e+00 9.161401e+00 8.467152e+00 6.814894e+00 4.694596e+00 6.417135e+00 4.679294e+00 4.860339e+00 1.918812e+00 8.938192e+00 -3.228489e-02 3.127215e-02 1.409223e-02 1.294085e-01 1.732543e-01 2.002574e-01 1.534920e-01 1.446336e-01 1.979021e-01 2.133323e-01 1.474512e-01 5.793886e-02 -1.484876e-02
<VARIANCE> 26
 1.187254e+01 1.584678e+01 1.206494e+01 1.407391e+01 1.811535e+01 1.691040e+01 2.025981e+01 2.127582e+01 1.855401e+01 2.026892e+01 1.721676e+01 1.548388e+01 1.358470e+15 2.191196e-01 3.903920e-01 5.085165e-01 7.001078e-01 8.903027e-01 1.046485e+00 1.155743e+00 1.244011e+00 1.225835e+00 1.296601e+00 1.134600e+00 1.042355e+00 3.170103e+13
<GCONST> 1.448274e+02
<MIXTURE> 2 2.992243e-02
<MEAN> 26
 -6.143873e-01 3.546860e+00 2.260206e+00 6.097125e+00 4.910339e+00 3.905316e+00 3.874646e+00 2.109921e+00 3.027702e+00 2.741506e+00 2.720499e+00 1.232077e+00 1.112923e+01 -1.580345e+00 -1.189992e+00 -1.191026e+00 -6.243178e-01 6.196836e-01 9.551042e-01 1.266410e+00 1.292617e+00 1.540497e+00 1.495024e+00 1.396929e+00 9.019859e-01 5.177632e-02
<VARIANCE> 26
 1.190463e+01 1.277461e+01 1.513377e+01 1.711130e+01 2.152806e+01 2.237607e+01 2.086767e+01 2.081341e+01 1.962383e+01 2.183399e+01 1.877343e+01 1.644826e+01 1.358470e+15 1.818154e+00 1.867625e+00 1.972498e+00 2.376446e+00 2.506257e+00 2.608317e+00 2.392549e+00 2.485175e+00 2.505635e+00 2.457249e+00 2.205346e+00 1.933338e+00 3.170103e+13
<GCONST> 1.580377e+02
<MIXTURE> 3 5.878284e-02
<MEAN> 26
 -3.321479e+00 -1.082853e+00 -3.886790e-01 3.351336e+00 4.188955e+00 3.259382e+00 4.382612e+00 4.199708e+00 2.699370e+00 1.564953e+00 3.434723e+00 3.185908e+00 1.049743e+01 -3.112280e-02 1.654448e-01 3.881603e-02 3.899078e-01 5.935642e-01 7.511228e-01 6.515114e-01 4.904521e-01 4.931000e-01 4.489826e-01 2.641510e-01 6.593193e-02 -8.030554e-02
<VARIANCE> 26
 9.010895e+00 1.706529e+01 1.672460e+01 1.286072e+01 1.521731e+01 1.898364e+01 1.896657e+01 2.335619e+01 2.013040e+01 2.065864e+01 2.309601e+01 1.569943e+01 1.358470e+15 3.094667e-01 6.564261e-01 7.292743e-01 8.283405e-01 9.805108e-01 1.162301e+00 1.241612e+00 1.436292e+00 1.446981e+00 1.494203e+00 1.389470e+00 1.265117e+00 3.170103e+13
<GCONST> 1.477535e+02
<MIXTURE> 4 9.623540e-02
<MEAN> 26
 -3.438957e+00 -8.278400e-01 2.351182e+00 2.783255e+00 2.815961e+00 1.514627e+00 4.031510e+00 4.375998e+00 2.945927e+00 7.840760e-01 2.238970e+00 2.991666e+00 1.243591e+01 9.168710e-02 4.261230e-01 -2.682557e-01 6.776701e-01 4.925190e-01 3.606570e-01 2.556642e-01 -1.012504e-01 -4.174599e-02 -3.442390e-02 -2.544651e-01 -1.689832e-01 -2.871080e-01
<VARIANCE> 26
 3.376549e+01 3.399693e+01 3.868519e+01 3.793966e+01 4.145920e+01 4.467803e+01 4.267415e+01 3.777560e+01 3.432355e+01 3.481507e+01 3.600458e+01 2.565870e+01 1.358470e+15 2.010758e+00 2.486501e+00 2.434101e+00 2.586583e+00 2.897457e+00 3.324883e+00 3.191238e+00 3.145102e+00 2.917454e+00 2.778192e+00 2.359013e+00 2.085190e+00 3.170103e+13
<GCONST> 1.685848e+02
<MIXTURE> 5 5.737924e-02
<MEAN> 26
 -5.374970e+00 -4.402701e+00 -3.824130e-01 1.609321e+00 2.556397e+00 3.651776e-01 2.901428e+00 4.743515e+00 2.918724e+00 3.707241e-01 2.393538e+00 3.254117e+00 1.129135e+01 9.055150e-02 1.019763e-01 5.760510e-02 7.017453e-02 -8.743889e-02 -1.721194e-01 -2.579878e-01 -1.714268e-01 -2.156616e-02 1.137035e-01 1.894932e-01 1.603632e-01 -4.040745e-02
<VARIANCE> 26
 2.332041e+01 2.852854e+01 2.754891e+01 1.941917e+01 2.247415e+01 2.668891e+01 2.783097e+01 3.075136e+01 2.733855e+01 2.919656e+01 2.979830e+01 2.235467e+01 1.358470e+15 2.106418e-01 3.455819e-01 4.601748e-01 6.314569e-01 7.723021e-01 9.322291e-01 1.004204e+00 1.196196e+00 1.252147e+00 1.224936e+00 1.147274e+00 1.067847e+00 3.170103e+13
<GCONST> 1.494619e+02
<MIXTURE> 6 1.031764e-01
<MEAN> 26
 -2.214528e+00 2.286478e+00 -1.064790e-01 4.977725e+00 6.086647e+00 5.709770e+00 4.457704e+00 2.263283e+00 2.589306e+00 2.591497e+00 3.008248e+00 1.920769e+00 9.720072e+00 -3.813565e-03 4.291954e-02 3.527437e-02 5.281696e-02 5.749521e-02 5.952061e-02 2.070237e-02 1.180266e-02 4.840256e-02 9.381308e-02 9.299549e-02 5.045414e-02 -8.580332e-03
<VARIANCE> 26
 8.754455e+00 8.954020e+00 9.606312e+00 1.012099e+01 1.056645e+01 1.391895e+01 1.353825e+01 1.452221e+01 1.475983e+01 1.323183e+01 1.411621e+01 1.145617e+01 1.358470e+15 8.875584e-02 1.983857e-01 3.040642e-01 4.576049e-01 6.111495e-01 7.428750e-01 8.712523e-01 9.721505e-01 1.018953e+00 1.022714e+00 9.961597e-01 9.038478e-01 3.170103e+13
<GCONST> 1.362575e+02
<MIXTURE> 7 6.611092e-02
<MEAN> 26
 -1.487114e+00 4.136038e+00 4.894925e+00 4.771491e+00 4.873213e+00 1.728003e+00 1.582719e+00 -1.605680e+00 -9.313072e-01 -1.036686e+00 -3.963770e-01 -1.288315e+00 1.352194e+01 -4.089469e+00 -1.559296e+00 -1.304949e+00 -1.693827e+00 7.595781e-01 5.768088e-01 1.316504e+00 1.206210e+00 1.447619e+00 1.048758e+00 1.749755e+00 1.112566e+00 8.056351e-01
<VARIANCE> 26
 2.902411e+01 4.451582e+01 3.445303e+01 4.030409e+01 3.287613e+01 3.450583e+01 3.243214e+01 3.098115e+01 2.723297e+01 2.596955e+01 2.294297e+01 2.002802e+01 1.358470e+15 3.897387e+00 5.686953e+00 4.315243e+00 5.343518e+00 5.100575e+00 5.036208e+00 4.493675e+00 5.122664e+00 4.749534e+00 4.517560e+00 3.987403e+00 3.171880e+00 3.170103e+13
<GCONST> 1.729776e+02
<MIXTURE> 8 4.366131e-02
<MEAN> 26
 4.842899e-01 -3.057145e+00 6.312785e+00 1.736701e+00 -2.556841e+00 3.697497e-01 -4.473928e-01 2.191149e-01 2.784613e-02 -1.344178e+00 8.207543e-01 1.511370e+00 1.493451e+01 -1.324952e+00 -1.876464e+00 3.096897e-01 -1.476281e+00 -1.160169e+00 -3.002845e-01 -2.619944e-01 1.175132e+00 8.450198e-01 1.766265e-01 1.086631e+00 1.085130e+00 5.728968e-01
<VARIANCE> 26
 2.407757e+01 3.660833e+01 3.728716e+01 5.458929e+01 4.017580e+01 5.575777e+01 4.399461e+01 4.171815e+01 3.878070e+01 3.440870e+01 3.660916e+01 2.870281e+01 1.358470e+15 1.979846e+00 3.243295e+00 3.825745e+00 4.503620e+00 5.224512e+00 5.543265e+00 5.374987e+00 5.123338e+00 5.318059e+00 4.666183e+00 3.776691e+00 3.380735e+00 3.170103e+13
<GCONST> 1.746463e+02
<MIXTURE> 9 8.225798e-02
<MEAN> 26
 -2.933953e+00 1.177721e+00 -2.161352e+00 2.767026e+00 4.166250e+00 3.410268e+00 3.332462e+00 5.088853e-01 4.904462e-01 7.101108e-01 9.372599e-01 1.255573e+00 9.652764e+00 -2.036741e-02 -3.257082e-02 -8.746257e-02 -1.670734e-01 -2.695957e-01 -3.419718e-01 -3.908418e-01 -4.135236e-01 -3.726297e-01 -2.643247e-01 -1.673252e-01 -1.015998e-01 -2.340548e-03
<VARIANCE> 26
 8.866801e+00 7.546406e+00 1.058509e+01 8.613238e+00 1.018049e+01 1.463972e+01 1.373015e+01 1.481363e+01 1.513976e+01 1.344173e+01 1.306859e+01 1.173959e+01 1.358470e+15 1.483026e-01 3.125990e-01 4.659518e-01 6.213129e-01 7.799888e-01 9.099935e-01 1.020656e+00 1.167255e+00 1.231212e+00 1.225206e+00 1.170999e+00 1.084571e+00 3.170103e+13
<GCONST> 1.392732e+02
<MIXTURE> 10 1.052010e-01
<MEAN> 26
 4.481176e+00 3.289328e+00 4.165252e+00 4.445608e+00 -1.056481e+00 -2.722245e+00 -1.759719e+00 -2.845688e+00 -2.287323e+00 -2.050688e+00 -3.262012e+00 -1.994015e+00 1.427494e+01 -4.058552e-01 4.370982e-01 -4.053739e-01 5.415844e-02 6.349168e-01 3.974330e-01 1.103852e-01 -3.271030e-01 -1.127703e-01 1.160613e-01 3.116370e-01 -8.024509e-02 -1.733960e-01
<VARIANCE> 26
 3.476520e+01 4.272731e+01 4.031348e+01 4.221935e+01 4.729006e+01 4.191553e+01 4.573598e+01 5.063984e+01 4.535139e+01 3.961859e+01 3.519086e+01 3.174446e+01 1.358470e+15 1.496845e+00 2.005454e+00 2.146404e+00 2.231661e+00 2.894360e+00 2.934028e+00 2.916468e+00 3.113638e+00 2.859977e+00 2.451936e+00 2.390059e+00 2.119438e+00 3.170103e+13
<GCONST> 1.688934e+02
<MIXTURE> 11 7.247646e-02
<MEAN> 26
 -3.615418e+00 -1.108474e+00 -2.264917e+00 1.349847e+00 2.217957e+00 6.705036e-01 1.702526e+00 9.634659e-01 3.633633e-01 -4.931390e-01 2.857924e-01 1.771670e+00 1.011500e+01 -7.163963e-02 -4.910964e-02 -6.419171e-02 8.371306e-02 2.630293e-01 4.169455e-01 4.545936e-01 3.662835e-01 2.505822e-01 1.077642e-01 -5.648807e-03 -6.430906e-02 -2.114430e-02
<VARIANCE> 26
 1.180738e+01 1.865786e+01 1.497902e+01 1.056292e+01 1.284236e+01 1.674270e+01 1.758793e+01 2.201179e+01 1.898743e+01 1.770612e+01 1.854453e+01 1.480840e+01 1.358470e+15 1.507271e-01 3.272876e-01 4.369251e-01 5.730029e-01 6.942607e-01 8.278460e-01 8.944914e-01 1.082329e+00 1.166378e+00 1.187146e+00 1.163235e+00 1.063706e+00 3.170103e+13
<GCONST> 1.424970e+02
<MIXTURE> 12 5.642001e-02
<MEAN> 26
 -3.770835e+00 1.085535e+00 5.196169e+00 2.216128e-01 5.469340e+00 2.051000e+00 1.979392e+00 -3.968484e-01 -2.029751e+00 -1.120532e+00 7.008320e-02 -6.027610e-01 1.430261e+01 -1.967969e+00 -1.777093e+00 -8.956077e-02 -2.369700e+00 -1.217512e+00 -1.588488e+00 -2.685370e-01 4.681205e-01 3.234652e-01 5.158619e-01 9.534227e-01 1.109924e+00 9.727755e-01
<VARIANCE> 26
 2.107591e+01 2.806296e+01 3.229906e+01 3.507296e+01 2.464243e+01 3.600764e+01 2.722235e+01 2.796920e+01 2.272244e+01 2.056875e+01 1.925616e+01 1.962816e+01 1.358470e+15 3.309241e+00 2.829344e+00 3.368688e+00 3.101398e+00 3.890956e+00 3.881509e+00 3.644951e+00 3.800026e+00 3.501922e+00 2.778709e+00 2.546731e+00 2.278851e+00 3.170103e+13
<GCONST> 1.665978e+02
<MIXTURE> 13 6.169100e-02
<MEAN> 26
 -3.914381e+00 9.858714e-01 -3.963709e-01 6.299888e+00 7.548543e+00 6.409739e+00 5.256173e+00 4.736092e+00 4.901308e+00 3.469955e+00 3.490202e+00 1.928635e+00 9.603477e+00 -6.109020e-02 -1.507155e-01 -1.647552e-01 -2.513005e-01 -2.527036e-01 -2.491687e-01 -2.368974e-01 -2.611928e-01 -2.951170e-01 -3.017983e-01 -2.582150e-01 -1.614652e-01 1.621838e-02
<VARIANCE> 26
 1.880068e+01 1.961595e+01 1.821649e+01 1.511679e+01 1.928720e+01 2.029590e+01 2.253764e+01 2.241665e+01 2.057177e+01 2.253676e+01 2.175006e+01 1.683005e+01 1.358470e+15 3.246614e-01 5.477777e-01 6.294914e-01 8.081324e-01 9.753235e-01 1.211032e+00 1.283417e+00 1.429074e+00 1.378416e+00 1.332960e+00 1.220884e+00 1.137863e+00 3.170103e+13
<GCONST> 1.487898e+02
<MIXTURE> 14 3.295954e-02
<MEAN> 26
 -4.718839e+00 -4.500437e+00 -2.134051e+00 -4.909911e-01 6.012146e-01 -1.712710e+00 5.020348e-01 2.478853e+00 8.677425e-01 -1.428072e+00 -3.793077e-01 2.619803e+00 1.134950e+01 -5.104630e-02 -1.853209e-01 -2.129452e-01 -3.168673e-01 -4.187704e-01 -5.425271e-01 -5.493158e-01 -4.243486e-01 -3.360838e-01 -3.596912e-01 -3.061001e-01 -1.189864e-01 2.561901e-02
<VARIANCE> 26
 1.633980e+01 2.601633e+01 2.029445e+01 1.562670e+01 1.723301e+01 2.273719e+01 2.335365e+01 2.622863e+01 2.352057e+01 2.336189e+01 2.329083e+01 1.964736e+01 1.358470e+15 3.118060e-01 5.345773e-01 6.397957e-01 7.779010e-01 9.248520e-01 1.162793e+00 1.246568e+00 1.394994e+00 1.469051e+00 1.431709e+00 1.294750e+00 1.247270e+00 3.170103e+13
<GCONST> 1.497117e+02
<MIXTURE> 15 6.209398e-02
<MEAN> 26
 -2.799330e-01 3.347251e+00 1.654438e+00 4.974283e+00 4.133641e+00 2.564055e+00 2.806280e+00 5.728247e-01 8.085953e-01 5.462592e-01 7.214009e-01 5.252419e-01 1.147741e+01 -1.637262e+00 -1.232640e+00 -9.449692e-01 -1.230573e+00 -9.610832e-02 6.567918e-02 2.861454e-01 7.021335e-02 2.851430e-01 3.981020e-01 5.873855e-01 3.192433e-01 3.364374e-01
<VARIANCE> 26
 1.517243e+01 1.594417e+01 1.746956e+01 1.565026e+01 1.853862e+01 2.096624e+01 1.875766e+01 1.921785e+01 1.811648e+01 1.629723e+01 1.597741e+01 1.384059e+01 1.358470e+15 2.396473e+00 2.387138e+00 2.515957e+00 2.361357e+00 2.523684e+00 2.610228e+00 2.403010e+00 2.505457e+00 2.381497e+00 2.195699e+00 1.951204e+00 1.731831e+00 3.170103e+13
<GCONST> 1.578318e+02
<MIXTURE> 16 3.867082e-02
<MEAN> 26
 9.433352e-01 -2.527750e+00 7.014951e+00 7.477944e-02 -2.414406e+00 -5.857213e-01 -3.363350e+00 -1.318552e+00 -1.598625e+00 -3.005478e+00 -1.006154e+00 -2.747989e-01 1.568695e+01 -7.421269e-01 -2.249063e+00 3.374808e-01 -2.082526e+00 -1.787876e+00 -9.404339e-01 -1.243320e+00 1.514809e+00 1.086985e+00 4.936489e-01 8.892664e-01 8.886879e-01 7.438082e-01
<VARIANCE> 26
 1.938855e+01 2.789362e+01 2.758807e+01 4.067828e+01 4.019440e+01 4.953110e+01 3.602889e+01 3.488696e+01 3.438723e+01 2.715317e+01 2.651372e+01 2.502415e+01 1.358470e+15 1.403998e+00 2.488734e+00 3.115140e+00 3.456438e+00 3.810055e+00 4.870358e+00 4.706962e+00 4.786214e+00 5.054638e+00 3.918148e+00 3.347516e+00 3.235727e+00 3.170103e+13
<GCONST> 1.701345e+02
~s "d4m"
<NUMMIXES> 16
<MIXTURE> 1 3.346242e-02
<MEAN> 26
 -3.753510e+00 -1.308707e+00 3.480131e+00 2.653364e-01 -1.151581e+00 -1.260194e+00 5.191248e+00 7.277390e+00 7.097209e+00 6.258916e+00 6.778511e+00 5.459444e+00 1.311326e+01 -3.692895e-01 4.212790e-01 -6.214402e-01 1.116346e+00 1.306423e+00 1.529366e+00 1.244788e+00 6.466564e-01 7.873008e-01 4.567041e-01 1.981538e-02 -6.150264e-02 -5.036041e-01
<VARIANCE> 26
 3.060392e+01 4.213772e+01 4.411940e+01 5.494102e+01 1.039027e+02 6.794495e+01 7.210973e+01 6.220879e+01 6.118747e+01 5.688741e+01 5.753317e+01 3.972135e+01 1.358470e+15 2.467704e+00 3.151423e+00 3.211365e+00 4.359424e+00 5.763187e+00 4.917779e+00 4.873407e+00 5.541903e+00 5.281040e+00 4.919668e+00 4.358820e+00 3.744024e+00 3.170103e+13
<GCONST> 1.792130e+02
<MIXTURE> 2 3.068323e-02
<MEAN> 26
 3.654497e-01 -4.908447e-01 7.452432e+00 8.527292e-01 -5.209759e+00 -5.492280e+00 1.699544e-01 3.443878e+00 -4.485600e-03 -7.627025e-01 1.804984e+00 4.339633e+00 1.512626e+01 5.854779e-01 3.345700e-01 -5.847150e-01 1.210508e+00 -8.488821e-01 -6.733395e-01 6.131015e-01 5.352079e-01 7.247869e-01 2.207621e-01 -1.788487e-01 3.352787e-01 -2.202494e-01
<VARIANCE> 26
 2.072234e+01 1.732173e+01 2.252964e+01 3.363976e+01 3.861435e+01 3.685970e+01 3.548178e+01 2.674998e+01 2.704369e+01 2.436630e+01 2.460072e+01 1.974186e+01 1.358470e+15 1.859854e+00 2.048708e+00 2.331444e+00 2.855810e+00 5.227205e+00 4.733751e+00 3.924849e+00 2.719614e+00 2.724505e+00 2.355357e+00 2.362843e+00 2.073650e+00 3.170103e+13
<GCONST> 1.652816e+02
<MIXTURE> 3 6.660245e-02
<MEAN> 26
 -1.558713e+00 7.160654e+00 3.166857e+00 6.251550e+00 3.433960e+00 3.028917e-01 1.088929e+00 -1.490650e+00 -6.028260e-01 -1.598725e+00 -8.903351e-01 -7.921006e-01 1.371586e+01 -3.089916e+00 -2.130359e-01 -1.331778e+00 -3.445560e-01 1.111142e+00 1.086575e+00 1.070616e+00 5.179467e-01 7.594528e-01 6.656525e-01 1.000199e+00 5.203795e-01 3.940401e-01
<VARIANCE> 26
 5.786039e+01 3.571201e+01 3.484233e+01 2.628958e+01 3.186009e+01 3.093264e+01 2.897562e+01 2.620176e+01 2.342976e+01 2.146153e+01 1.966738e+01 1.832609e+01 1.358470e+15 5.795385e+00 4.093290e+00 3.044032e+00 2.795023e+00 2.897303e+00 2.933196e+00 2.871046e+00 3.439789e+00 3.342985e+00 2.775851e+00 2.562485e+00 2.231208e+00 3.170103e+13
<GCONST> 1.675126e+02
<MIXTURE> 4 5.662027e-02
<MEAN> 26
 -9.121685e+00 2.841710e+00 3.932875e+00 1.323537e+00 2.604429e+00 -5.684748e-01 3.390357e+00 7.807245e-01 1.003855e-01 -1.484240e-01 1.543974e+00 1.517865e+00 1.599212e+01 2.024166e+00 1.280326e+00 1.494273e+00 8.983989e-01 -1.403333e+00 -2.178836e+00 -1.679743e+00 -9.709212e-01 -9.822217e-01 -1.042348e+00 -9.820045e-01 -4.855650e-01 2.861359e-01
<VARIANCE> 26
 4.531191e+01 3.181854e+01 4.263992e+01 4.024804e+01 3.524089e+01 3.992355e+01 3.445859e+01 2.882834e+01 3.203883e+01 2.816804e+01 2.563692e+01 1.862479e+01 1.358470e+15 3.633390e+00 2.532948e+00 3.233134e+00 3.039611e+00 3.762353e+00 4.314888e+00 3.655928e+00 3.296314e+00 3.296450e+00 2.718401e+00 2.430129e+00 2.111757e+00 3.170103e+13
<GCONST> 1.691721e+02
<MIXTURE> 5 8.254201e-02
<MEAN> 26
 6.737808e+00 2.617522e+00 3.225143e+00 4.736806e+00 -2.179649e+00 -3.080494e+00 -3.521868e+00 -4.254177e+00 -1.999350e+00 -1.452913e-01 -2.124271e+00 -1.881890e+00 1.487335e+01 -3.422304e-02 6.119227e-01 -7.055486e-01 -3.170167e-01 5.608152e-01 5.189379e-01 4.220077e-03 -7.159324e-01 -3.904244e-01 2.475688e-01 6.491068e-01 1.679435e-02 -8.619779e-02
<VARIANCE> 26
 1.624181e+01 3.528218e+01 3.876858e+01 3.973029e+01 4.996043e+01 4.578193e+01 5.151930e+01 5.749211e+01 5.453596e+01 3.993595e+01 3.983321e+01 3.314435e+01 1.358470e+15 1.537422e+00 2.235623e+00 2.686380e+00 3.919968e+00 3.917303e+00 3.796978e+00 4.332358e+00 4.854921e+00 4.452395e+00 3.636002e+00 3.431170e+00 2.933758e+00 3.170103e+13
<GCONST> 1.724365e+02
<MIXTURE> 6 1.223041e-01
<MEAN> 26
 -7.500643e+00 1.383977e+00 4.678994e-01 1.730048e+00 4.559988e+00 2.638521e+00 4.659792e+00 2.009098e+00 3.835975e+00 3.509082e+00 4.333753e+00 2.205662e+00 1.419843e+01 -2.443881e+00 -7.339002e-01 -7.255784e-01 -1.191283e+00 -3.241927e-01 -3.014421e-01 7.326732e-01 6.567306e-01 7.205026e-01 5.508147e-01 8.862767e-01 7.408315e-01 9.036179e-01
<VARIANCE> 26
 4.086323e+01 3.128444e+01 3.163153e+01 3.743732e+01 2.980473e+01 3.048842e+01 2.710562e+01 2.466998e+01 2.264632e+01 2.161539e+01 2.071745e+01 1.516850e+01 1.358470e+15 5.778066e+00 3.463498e+00 3.716586e+00 3.664160e+00 3.105932e+00 3.348287e+00 3.404387e+00 3.597056e+00 3.278576e+00 2.944507e+00 2.880055e+00 2.345317e+00 3.170103e+13
<GCONST> 1.678407e+02
<MIXTURE> 7 7.465181e-02
<MEAN> 26
 3.586233e+00 -3.788580e+00 7.881077e+00 -1.254879e+00 -8.936400e+00 -6.707299e+00 -4.913014e+00 2.407154e+00 2.137912e-01 -2.569524e-01 1.108627e+00 2.338396e+00 1.710451e+01 7.379926e-01 -1.644732e+00 -4.761256e-01 -1.124307e+00 -2.621557e+00 -1.143043e+00 -6.409621e-01 1.844870e+00 9.261660e-01 9.509493e-01 6.285493e-01 3.164199e-01 5.778830e-01
<VARIANCE> 26
 9.170298e+00 1.801032e+01 2.326494e+01 2.936399e+01 3.421281e+01 3.234491e+01 3.886996e+01 3.289244e+01 3.320303e+01 2.649945e+01 2.338140e+01 2.113642e+01 1.358470e+15 1.848017e+00 2.095715e+00 3.374154e+00 2.906535e+00 3.948856e+00 4.403206e+00 5.150732e+00 3.820269e+00 4.827446e+00 3.704747e+00 3.230161e+00 3.234096e+00 3.170103e+13
<GCONST> 1.671987e+02
<MIXTURE> 8 5.120762e-02
<MEAN> 26
 -2.717608e+00 5.327236e+00 8.131212e+00 -1.293727e+00 -3.759094e+00 -9.269972e+00 1.676384e-01 -3.925139e+00 -3.874342e+00 -8.177363e-01 2.060122e+00 1.918392e+00 1.706564e+01 1.942334e+00 -1.245758e+00 1.286603e+00 -8.604603e-01 -4.469943e+00 -2.343138e+00 -1.353747e+00 1.982768e-01 -2.737307e-01 3.494455e-01 4.229229e-01 1.073462e+00 5.713467e-01
<VARIANCE> 26
 1.383640e+01 1.587235e+01 2.686530e+01 2.002808e+01 3.358104e+01 2.520467e+01 2.294049e+01 2.540617e+01 2.376695e+01 2.140123e+01 1.891007e+01 1.859760e+01 1.358470e+15 3.573712e+00 2.685956e+00 3.187772e+00 4.178602e+00 3.197542e+00 4.117405e+00 4.163151e+00 4.180821e+00 3.632590e+00 3.945248e+00 2.956767e+00 3.186089e+00 3.170103e+13
<GCONST> 1.657912e+02
<MIXTURE> 9 1.065778e-01
<MEAN> 26
 -7.789921e+00 -8.013089e-01 1.027250e+00 -1.521265e+00 3.422841e+00 1.345661e+00 3.349245e+00 3.138710e-01 1.419680e+00 2.005794e+00 3.227048e+00 1.541437e+00 1.538044e+01 -1.097129e+00 -5.597411e-01 2.016136e-01 -1.893127e+00 -1.940683e+00 -2.216468e+00 -6.912295e-01 -3.655306e-01 -3.161575e-01 -2.111058e-01 8.100725e-02 3.940063e-01 1.265403e+00
<VARIANCE> 26
 2.001545e+01 2.664041e+01 2.831364e+01 3.310073e+01 2.863238e+01 3.333468e+01 2.726709e+01 2.857000e+01 2.477277e+01 2.253131e+01 2.085447e+01 1.741214e+01 1.358470e+15 4.731622e+00 3.109462e+00 3.526261e+00 3.036674e+00 3.829453e+00 3.737869e+00 3.460932e+00 3.703755e+00 3.267602e+00 2.676758e+00 2.460543e+00 2.245967e+00 3.170103e+13
<GCONST> 1.667277e+02
<MIXTURE> 10 7.936092e-02
<MEAN> 26
 2.898643e+00 6.721304e+00 4.025054e+00 5.315391e+00 1.930390e+00 -8.551706e-01 -9.135809e-01 -4.043521e+00 -3.403929e+00 -2.727492e+00 -2.619039e+00 -2.410918e+00 1.371850e+01 -1.026146e+00 -1.017867e-01 -5.638096e-01 -5.605367e-01 2.074868e-01 1.711403e-01 -3.615627e-02 -2.505354e-01 1.064074e-01 2.242067e-01 4.729943e-01 2.786113e-01 1.534534e-01
<VARIANCE> 26
 4.026188e+01 2.317906e+01 2.694606e+01 2.430888e+01 2.771564e+01 2.778896e+01 2.730711e+01 2.619794e+01 2.488329e+01 2.306269e+01 2.006360e+01 1.979043e+01 1.358470e+15 4.319252e+00 2.926963e+00 2.575719e+00 2.717496e+00 2.794235e+00 2.790335e+00 2.851594e+00 3.045485e+00 2.919274e+00 2.251084e+00 2.188822e+00 1.979692e+00 3.170103e+13
<GCONST> 1.646438e+02
<MIXTURE> 11 6.099442e-02
<MEAN> 26
 1.976278e+00 -2.486869e+00 4.727139e+00 -4.288436e+00 -6.269464e+00 -7.760216e+00 -4.297294e+00 1.289418e+00 5.899733e-01 -8.842329e-01 -1.164725e+00 9.067785e-01 1.731574e+01 1.706264e+00 -2.563253e+00 -9.791903e-01 -1.869882e+00 -2.321453e+00 -1.121707e+00 -1.051812e+00 2.016851e+00 9.111518e-01 6.010720e-01 -1.024745e+00 1.129836e-02 6.682994e-01
<VARIANCE> 26
 1.217811e+01 2.083085e+01 2.400384e+01 2.740110e+01 4.267390e+01 3.462505e+01 4.002958e+01 3.179325e+01 3.382611e+01 2.699396e+01 2.136957e+01 2.030173e+01 1.358470e+15 3.013546e+00 2.523287e+00 4.111409e+00 3.546507e+00 4.081939e+00 5.192726e+00 6.059400e+00 4.372129e+00 5.316027e+00 5.176448e+00 4.771231e+00 3.797346e+00 3.170103e+13
<GCONST> 1.703296e+02
<MIXTURE> 12 6.188099e-02
<MEAN> 26
 4.889887e+00 -1.252076e+00 2.877154e+00 -1.018062e+00 -5.208980e+00 -2.422621e+00 -4.676166e+00 -3.070625e+00 -2.330749e+00 -1.421696e+00 -3.424473e+00 -2.639338e+00 1.637767e+01 -3.089307e-02 -3.889301e-01 -5.370699e-01 -8.688090e-01 -2.100133e-01 2.505402e-01 -4.740633e-01 2.734627e-01 4.048893e-01 2.498332e-01 2.407377e-01 -1.179754e-01 1.768313e-01
<VARIANCE> 26
 1.914642e+01 5.347552e+01 5.969394e+01 7.192398e+01 6.514828e+01 5.854054e+01 6.484760e+01 6.800523e+01 6.737543e+01 5.628046e+01 4.587106e+01 3.698944e+01 1.358470e+15 1.280042e+00 2.107271e+00 3.292861e+00 4.316412e+00 3.785147e+00 3.938321e+00 4.504430e+00 4.385334e+00 3.916479e+00 3.689930e+00 3.214279e+00 2.726987e+00 3.170103e+13
<GCONST> 1.755018e+02
<MIXTURE> 13 5.594129e-02
<MEAN> 26
 -5.643199e+00 -5.242578e+00 2.078931e+00 4.905629e-01 8.575017e-01 -1.228288e+00 4.139920e+00 6.170537e+00 5.124560e+00 5.144850e-01 2.198966e+00 5.204247e+00 1.424951e+01 -1.153140e-01 -5.684422e-01 -6.515617e-01 -6.462288e-02 3.115923e-01 -2.516308e-02 -4.447918e-02 2.143234e-01 2.649319e-01 -3.094164e-01 -5.486890e-01 -1.103780e-01 9.802115e-02
<VARIANCE> 26
 4.633343e+01 5.625766e+01 6.202332e+01 7.524393e+01 9.018771e+01 7.982401e+01 7.629436e+01 7.010977e+01 7.013734e+01 6.453442e+01 6.471861e+01 4.983377e+01 1.358470e+15 3.618635e+00 4.005424e+00 3.582575e+00 4.408724e+00 4.916539e+00 5.372869e+00 5.638528e+00 5.431762e+00 5.171014e+00 4.686453e+00 4.205592e+00 3.719908e+00 3.170103e+13
<GCONST> 1.820613e+02
<MIXTURE> 14 4.649934e-02
<MEAN> 26
 -9.864351e+00 4.917270e+00 3.152558e+00 -3.942669e-01 1.842305e+00 -9.714163e-01 3.009023e+00 -3.179563e+00 -6.325530e-01 9.331846e-01 2.556757e+00 -4.207451e-01 1.734615e+01 1.543649e+00 4.701499e-01 1.702796e+00 -1.303518e+00 -3.836786e+00 -3.358712e+00 -2.007894e+00 -1.896562e+00 -1.892753e+00 -1.029597e+00 -9.306144e-01 -2.075305e-01 8.832760e-01
<VARIANCE> 26
 2.594057e+01 3.999972e+01 4.446615e+01 3.280252e+01 3.099516e+01 3.721369e+01 3.793652e+01 3.906729e+01 3.825708e+01 3.323475e+01 2.783126e+01 2.194427e+01 1.358470e+15 4.285727e+00 2.838188e+00 3.851958e+00 3.778799e+00 3.630169e+00 3.733218e+00 3.623528e+00 4.120249e+00 3.318118e+00 3.456366e+00 3.270060e+00 2.710344e+00 3.170103e+13
<GCONST> 1.709694e+02
<MIXTURE> 15 4.495580e-02
<MEAN> 26
 -1.046712e-01 -2.438409e-01 7.882765e+00 1.759610e+00 -3.902690e+00 -6.189091e+00 -4.366982e+00 -4.013589e-01 -9.959947e-01 -3.679894e+00 -5.723032e-01 2.168226e+00 1.648921e+01 1.626943e+00 -3.926105e-01 -4.525263e-01 1.574663e-01 -2.080872e+00 -2.922073e+00 -1.920728e+00 7.083164e-02 5.159467e-01 1.082736e-01 1.362621e-01 4.471365e-01 4.277433e-01
<VARIANCE> 26
 2.193888e+01 1.877694e+01 2.402162e+01 3.883138e+01 3.218348e+01 3.890462e+01 3.164109e+01 2.207415e+01 2.613010e+01 2.118876e+01 1.929197e+01 1.724837e+01 1.358470e+15 3.058640e+00 2.325116e+00 2.986979e+00 2.688040e+00 4.064212e+00 4.672705e+00 4.853830e+00 3.014503e+00 3.409718e+00 2.843364e+00 2.834689e+00 2.490283e+00 3.170103e+13
<GCONST> 1.662797e+02
<MIXTURE> 16 2.572185e-02
<MEAN> 26
 -4.689424e+00 7.774991e+00 6.148380e+00 -2.314594e+00 -6.794421e+00 -9.548243e+00 -9.618102e-01 -7.447541e+00 -3.905705e+00 -1.641223e+00 9.229659e-01 -9.818875e-01 1.770231e+01 3.420953e+00 -1.493919e+00 1.723943e+00 -1.785927e+00 -4.539725e+00 -2.545796e+00 -1.901104e+00 -3.689877e-01 -1.672812e+00 -5.131549e-01 -1.431779e+00 1.568239e-01 2.121088e-01
<VARIANCE> 26
 1.815736e+01 2.118079e+01 3.542462e+01 2.336600e+01 3.493948e+01 2.495090e+01 2.414784e+01 3.495583e+01 2.693357e+01 2.185448e+01 2.016948e+01 1.777782e+01 1.358470e+15 2.440113e+00 3.219218e+00 4.664460e+00 4.921436e+00 3.485264e+00 4.370600e+00 4.493871e+00 4.707671e+00 3.786316e+00 4.449320e+00 3.456786e+00 2.823357e+00 3.170103e+13
<GCONST> 1.682294e+02
~s "f2m"
<NUMMIXES> 16
<MIXTURE> 1 1.977119e-02
<MEAN> 26
 -6.754912e+00 2.559585e+00 2.188063e+00 8.243807e+00 6.794606e+00 4.982878e+00 4.834962e+00 2.244570e+00 3.110355e+00 -7.379717e-01 1.218943e+00 5.800704e-01 1.507963e+01 -4.326781e+00 3.533190e-01 5.540926e-01 1.772684e+00 1.487823e+00 1.925976e+00 2.244176e+00 1.961223e+00 2.339288e+00 2.647383e+00 2.796558e+00 1.522546e+00 -3.489073e-02
<VARIANCE> 26
 2.280094e+01 1.922484e+01 1.762360e+01 1.614424e+01 2.354598e+01 2.414103e+01 2.026785e+01 2.028480e+01 1.834361e+01 1.941493e+01 1.666045e+01 1.545384e+01 1.358470e+15 2.002753e+00 3.426174e+00 2.883214e+00 2.985810e+00 3.408278e+00 3.785007e+00 3.051033e+00 3.456389e+00 3.240390e+00 3.153929e+00 2.638349e+00 2.271203e+00 3.170103e+13
<GCONST> 1.623456e+02
<MIXTURE> 2 3.535681e-02
<MEAN> 26
 -1.041432e+01 1.018405e+00 1.103876e+00 7.380316e+00 5.010406e+00 4.463020e+00 5.617908e+00 4.920802e+00 6.540093e+00 4.123413e+00 5.405742e+00 3.141220e+00 1.520414e+01 -2.461130e+00 -4.428670e-01 -4.824122e-01 4.373915e-01 6.261471e-01 1.243114e+00 1.320055e+00 1.774341e+00 2.072922e+00 2.138208e+00 1.924644e+00 1.297176e+00 8.710913e-02
<VARIANCE> 26
 1.870242e+01 1.829263e+01 1.658529e+01 1.843122e+01 2.367316e+01 2.419657e+01 2.135019e+01 2.077070e+01 1.865052e+01 2.003244e+01 1.611332e+01 1.541657e+01 1.358470e+15 2.300722e+00 1.600378e+00 1.849574e+00 1.665661e+00 2.004435e+00 2.221325e+00 2.054412e+00 2.139460e+00 1.826588e+00 1.943250e+00 1.743761e+00 1.581859e+00 3.170103e+13
<GCONST> 1.568426e+02
<MIXTURE> 3 1.202328e-01
<MEAN> 26
 -9.148330e+00 2.210642e+00 5.718476e-01 6.616058e+00 4.022180e+00 3.306118e+00 3.562737e+00 2.618237e+00 3.711162e+00 2.234282e+00 1.898786e+00 1.708513e+00 1.455031e+01 -1.909696e+00 7.288545e-03 -1.412381e-01 7.117258e-01 3.456424e-01 8.222752e-01 3.423960e-01 3.358901e-02 -3.462931e-02 7.711802e-02 1.305431e-01 1.506907e-01 -3.065153e-02
<VARIANCE> 26
 3.474602e+01 2.174881e+01 1.792417e+01 2.219995e+01 2.421925e+01 2.529897e+01 2.439388e+01 2.136036e+01 2.135920e+01 1.839235e+01 1.855422e+01 1.491192e+01 1.358470e+15 4.419898e+00 2.047192e+00 2.015758e+00 1.956990e+00 2.119072e+00 2.244224e+00 2.187383e+00 2.036576e+00 1.785713e+00 1.711244e+00 1.624414e+00 1.547719e+00 3.170103e+13
<GCONST> 1.592685e+02
<MIXTURE> 4 3.984441e-02
<MEAN> 26
 -1.733794e+00 3.116321e+00 -1.713837e+00 3.277187e+00 6.144548e+00 5.586109e+00 2.586268e+00 -8.812872e-01 1.336996e+00 1.351195e+00 5.862533e-01 -2.851585e-01 1.467454e+01 -5.203515e+00 -1.378608e-01 1.361080e+00 2.817626e+00 6.649513e-01 -2.722298e-01 1.659132e+00 1.684051e+00 8.677250e-01 4.376565e-01 4.299682e-01 8.584858e-01 -1.427664e-01
<VARIANCE> 26
 2.337971e+01 1.332567e+01 1.457956e+01 2.186801e+01 1.864400e+01 2.309635e+01 2.232513e+01 1.928240e+01 1.967668e+01 2.402584e+01 1.735883e+01 1.846352e+01 1.358470e+15 1.272981e+00 3.374838e+00 2.826270e+00 4.319631e+00 3.823599e+00 4.965620e+00 4.923579e+00 3.790899e+00 3.778588e+00 4.440206e+00 3.916610e+00 2.848086e+00 3.170103e+13
<GCONST> 1.643442e+02
<MIXTURE> 5 9.634200e-02
<MEAN> 26
 -1.098459e+01 -2.012227e-01 -4.521765e-01 5.243898e+00 2.400117e+00 1.421696e+00 1.844700e+00 1.821063e+00 3.109003e+00 1.986168e+00 2.232435e+00 1.299319e+00 1.524987e+01 -1.676865e+00 -8.669546e-01 -1.059445e+00 -4.406029e-01 -2.542905e-01 4.188559e-01 5.731581e-01 1.108845e+00 1.542210e+00 1.803897e+00 1.681711e+00 1.198886e+00 1.104850e-01
<VARIANCE> 26
 1.689841e+01 2.153848e+01 2.044852e+01 2.275257e+01 2.418527e+01 2.738101e+01 2.423729e+01 2.255005e+01 2.265885e+01 2.258145e+01 2.008012e+01 1.783672e+01 1.358470e+15 1.746973e+00 1.211182e+00 1.192555e+00 1.241452e+00 1.377942e+00 1.565728e+00 1.560513e+00 1.660921e+00 1.536949e+00 1.464438e+00 1.421309e+00 1.469232e+00 3.170103e+13
<GCONST> 1.550856e+02
<MIXTURE> 6 6.263790e-02
<MEAN> 26
 -9.216895e+00 1.414111e+00 -2.842263e+00 2.971961e+00 -7.171826e-01 -1.411512e+00 4.206297e-01 1.254002e+00 3.897721e+00 4.724668e+00 3.612300e+00 3.577456e+00 1.473278e+01 -2.185958e+00 -6.673613e-01 -1.119576e+00 -6.262963e-01 -1.058690e+00 -6.190299e-01 -6.778872e-01 -4.897395e-01 -2.650204e-01 1.632665e-01 5.056219e-01 6.064016e-01 1.340274e-01
<VARIANCE> 26
 1.930744e+01 2.355475e+01 2.374269e+01 2.167085e+01 2.973083e+01 3.212907e+01 3.007355e+01 2.597730e+01 2.493486e+01 2.199920e+01 2.004072e+01 1.815857e+01 1.358470e+15 2.433826e+00 1.622673e+00 1.390253e+00 1.481959e+00 1.811033e+00 1.952849e+00 1.760099e+00 1.780605e+00 1.720196e+00 1.691803e+00 1.616333e+00 1.509856e+00 3.170103e+13
<GCONST> 1.582697e+02
<MIXTURE> 7 5.467893e-02
<MEAN> 26
 -3.018671e+00 -1.566890e-01 -4.686617e+00 1.914266e+00 6.231091e+00 7.453040e+00 5.976957e+00 2.504710e+00 3.539538e+00 1.352171e+00 -5.385751e-01 -7.477541e-01 1.432873e+01 -3.620019e+00 3.874973e-01 4.293996e-01 1.284015e+00 -3.640225e-02 -4.615158e-01 3.997438e-01 1.099770e+00 4.261665e-01 4.790631e-01 8.283496e-01 8.515385e-01 -1.291867e-01
<VARIANCE> 26
 3.133191e+01 1.650505e+01 1.754838e+01 2.134451e+01 2.652442e+01 2.904488e+01 2.591447e+01 2.705997e+01 2.542936e+01 2.941926e+01 2.439195e+01 2.066914e+01 1.358470e+15 2.331439e+00 2.961828e+00 2.192862e+00 2.831459e+00 2.781017e+00 3.480531e+00 3.417594e+00 3.311901e+00 3.275827e+00 3.649075e+00 3.155165e+00 2.479460e+00 3.170103e+13
<GCONST> 1.649245e+02
<MIXTURE> 8 6.081374e-02
<MEAN> 26
 -4.532865e+00 2.028018e+00 6.553185e+00 8.304775e+00 2.533547e-01 -3.503349e+00 1.706769e+00 9.934192e-01 3.937083e-01 -3.903530e-01 6.554241e-01 1.196694e+00 1.523464e+01 -3.920250e+00 -6.000956e-01 -2.269700e+00 1.143243e+00 3.017885e+00 1.735190e+00 6.760703e-01 1.347672e+00 2.448456e+00 6.296439e-01 4.545757e-01 5.350536e-01 -1.001227e-01
<VARIANCE> 26
 2.575804e+01 1.616719e+01 1.934216e+01 1.877613e+01 2.448627e+01 2.720325e+01 3.038586e+01 2.376913e+01 2.267816e+01 1.980985e+01 1.758567e+01 1.650249e+01 1.358470e+15 1.200080e+00 2.761124e+00 3.177034e+00 3.551749e+00 3.353440e+00 3.907176e+00 3.642782e+00 5.322637e+00 3.832631e+00 3.728396e+00 3.706305e+00 2.332652e+00 3.170103e+13
<GCONST> 1.644814e+02
<MIXTURE> 9 1.144677e-01
<MEAN> 26
 -8.898009e+00 2.209792e+00 -7.757834e-01 5.223299e+00 1.270948e+00 5.416231e-01 1.963947e-01 -6.183434e-01 -8.511335e-03 -6.247463e-01 -1.037456e+00 -1.667629e-01 1.463523e+01 -1.791472e+00 -3.100964e-01 -4.863375e-01 2.071997e-01 -6.384614e-02 2.699857e-01 -1.081578e-01 -3.271542e-01 -4.365093e-01 -3.864680e-01 -2.019699e-01 -1.675202e-02 6.464157e-02
<VARIANCE> 26
 2.279313e+01 1.950790e+01 1.925219e+01 2.088182e+01 2.207733e+01 2.523385e+01 2.359960e+01 2.322857e+01 2.324678e+01 2.042121e+01 1.825858e+01 1.707729e+01 1.358470e+15 2.710763e+00 1.516548e+00 1.365997e+00 1.441439e+00 1.564466e+00 1.756742e+00 1.701734e+00 1.757013e+00 1.698436e+00 1.655650e+00 1.507440e+00 1.493801e+00 3.170103e+13
<GCONST> 1.563887e+02
<MIXTURE> 10 8.503992e-02
<MEAN> 26
 -1.202093e+01 -1.824529e+00 -2.443608e+00 4.296710e+00 2.486920e+00 1.155119e+00 9.051986e-01 2.715696e-01 1.110517e+00 8.018941e-01 -3.741568e-01 7.236526e-01 1.538219e+01 -1.840836e+00 -1.608291e+00 -1.717782e+00 -1.013051e+00 -8.797996e-01 -3.442088e-01 -1.726223e-01 4.293014e-01 8.789808e-01 9.807155e-01 7.366589e-01 5.595498e-01 2.462638e-01
<VARIANCE> 26
 1.532446e+01 1.973588e+01 2.028096e+01 2.065919e+01 2.129514e+01 2.442055e+01 2.198228e+01 2.469623e+01 2.187644e+01 1.980029e+01 1.821981e+01 1.639740e+01 1.358470e+15 2.331646e+00 1.417339e+00 1.437744e+00 1.733247e+00 1.607801e+00 1.853119e+00 1.785651e+00 1.655579e+00 1.546449e+00 1.432352e+00 1.480161e+00 1.493147e+00 3.170103e+13
<GCONST> 1.556610e+02
<MIXTURE> 11 5.356338e-02
<MEAN> 26
 -8.257918e+00 2.159916e+00 3.473633e+00 8.331167e+00 1.723339e+00 -2.328411e+00 -1.256935e+00 -1.656350e+00 -1.143058e+00 -1.687396e+00 -1.270800e+00 -3.564100e-02 1.495675e+01 -3.011658e+00 -1.157637e+00 -1.804636e+00 -1.683298e-01 1.012572e+00 1.173997e+00 3.091938e-01 8.222417e-01 1.436547e+00 7.071661e-01 1.377342e-01 1.611854e-01 1.031135e-01
<VARIANCE> 26
 2.523756e+01 2.467319e+01 2.358791e+01 2.591973e+01 3.328235e+01 3.574497e+01 3.499908e+01 3.455873e+01 3.158910e+01 2.683204e+01 2.358406e+01 2.262748e+01 1.358470e+15 2.616046e+00 2.218700e+00 2.885135e+00 2.218774e+00 2.631132e+00 2.821163e+00 3.281782e+00 3.319500e+00 2.704314e+00 2.642835e+00 2.742151e+00 2.085939e+00 3.170103e+13
<GCONST> 1.654872e+02
<MIXTURE> 12 3.113120e-02
<MEAN> 26
 -1.072910e+01 2.982893e-01 -3.350788e+00 3.487376e+00 -2.948460e-01 -1.557353e+00 -9.450744e-01 -1.661221e+00 -4.948893e-01 8.303141e-01 -5.451476e-01 1.657564e+00 1.508931e+01 -2.088894e+00 -1.196574e+00 -1.747859e+00 -1.270577e+00 -1.427646e+00 -1.017661e+00 -1.223642e+00 -1.067227e+00 -9.110519e-01 -7.550540e-01 -5.260747e-01 -1.830019e-01 2.336407e-01
<VARIANCE> 26
 1.453663e+01 1.957896e+01 1.984930e+01 2.022569e+01 2.282706e+01 2.765901e+01 2.850674e+01 2.748621e+01 2.524085e+01 2.137521e+01 1.716095e+01 1.714307e+01 1.358470e+15 1.396671e+00 1.305398e+00 1.396130e+00 1.305839e+00 1.477496e+00 1.876578e+00 1.752137e+00 1.820185e+00 1.781405e+00 1.555101e+00 1.478320e+00 1.403794e+00 3.170103e+13
<GCONST> 1.555800e+02
<MIXTURE> 13 5.994985e-02
<MEAN> 26
 -9.744725e+00 -6.193023e-01 -6.759574e-01 5.058377e+00 4.153284e+00 3.328362e+00 3.519030e+00 3.430958e+00 4.711061e+00 3.032114e+00 2.302621e+00 1.253562e+00 1.512194e+01 -2.947367e+00 -8.892422e-01 -3.273711e-01 3.738974e-01 -1.671525e-01 1.749069e-01 5.177241e-01 9.703007e-01 1.011877e+00 9.695934e-01 9.520617e-01 8.194759e-01 2.620561e-01
<VARIANCE> 26
 1.351154e+01 1.485456e+01 1.339399e+01 1.526836e+01 1.733849e+01 1.832095e+01 1.729673e+01 1.553435e+01 1.491221e+01 1.553590e+01 1.401366e+01 1.289197e+01 1.358470e+15 2.254404e+00 1.377613e+00 1.507340e+00 1.569380e+00 1.729727e+00 2.208452e+00 1.923495e+00 1.820059e+00 1.674024e+00 1.687290e+00 1.656328e+00 1.480590e+00 3.170103e+13
<GCONST> 1.528592e+02
<MIXTURE> 14 5.258114e-02
<MEAN> 26
 1.920709e+00 2.241386e+00 -3.563051e+00 9.251843e-01 3.066357e+00 1.829390e+00 -2.117336e+00 -4.284928e+00 -1.088687e+00 -1.094859e+00 -1.676844e+00 -2.393508e+00 1.499790e+01 -4.678262e+00 7.370546e-01 1.679365e+00 2.631320e+00 9.422238e-01 8.327947e-01 2.205856e+00 1.309711e+00 8.489273e-01 3.881368e-01 9.205141e-01 7.182782e-01 -3.652039e-01
<VARIANCE> 26
 2.223932e+01 1.464254e+01 1.715782e+01 2.531945e+01 1.885140e+01 2.724427e+01 2.725504e+01 2.443091e+01 2.782147e+01 4.005059e+01 2.809430e+01 2.415453e+01 1.358470e+15 1.481256e+00 3.402759e+00 3.072340e+00 4.582667e+00 3.835325e+00 4.626077e+00 4.393032e+00 4.152488e+00 4.360923e+00 4.536194e+00 3.947996e+00 2.757946e+00 3.170103e+13
<GCONST> 1.672700e+02
<MIXTURE> 15 5.324675e-02
<MEAN> 26
 -5.632277e+00 -3.767291e-02 -7.600493e+00 -9.468111e-01 2.186130e+00 5.364594e+00 4.912045e+00 1.843548e+00 2.010723e+00 7.276856e-01 -9.048700e-01 -7.471967e-01 1.422795e+01 -2.762029e+00 -3.647629e-01 -5.192495e-02 6.714906e-01 -6.552903e-01 -1.082465e+00 -6.037104e-01 4.017106e-01 2.464679e-01 5.943505e-02 1.819237e-01 4.154699e-01 7.322330e-02
<VARIANCE> 26
 2.371516e+01 1.965353e+01 2.411735e+01 2.322063e+01 2.755721e+01 2.923952e+01 3.193711e+01 2.957761e+01 3.016763e+01 3.001014e+01 2.477639e+01 2.063771e+01 1.358470e+15 2.554420e+00 1.935123e+00 1.901273e+00 2.059357e+00 2.176062e+00 2.692902e+00 2.680690e+00 2.630584e+00 2.598016e+00 2.557419e+00 2.345976e+00 2.000066e+00 3.170103e+13
<GCONST> 1.629015e+02
<MIXTURE> 16 6.034330e-02
<MEAN> 26
 -5.036130e+00 2.341850e+00 1.811515e+00 6.259960e+00 3.495614e+00 9.460447e-01 1.341305e-01 -1.050221e+00 -4.809202e-01 -3.045061e+00 -2.666255e+00 -2.602582e+00 1.501048e+01 -4.232469e+00 -1.865465e-01 2.427391e-01 9.945934e-01 7.905593e-01 1.650668e+00 1.875028e+00 1.467861e+00 1.554606e+00 1.663131e+00 2.032301e+00 1.274015e+00 7.237682e-03
<VARIANCE> 26
 1.771232e+01 1.692696e+01 1.293451e+01 1.543976e+01 1.911555e+01 1.973860e+01 2.032974e+01 2.007508e+01 2.002008e+01 2.088609e+01 1.569079e+01 1.455435e+01 1.358470e+15 1.661855e+00 2.174667e+00 1.967340e+00 2.230413e+00 2.385562e+00 2.906238e+00 2.179867e+00 2.924556e+00 3.106017e+00 2.803628e+00 2.287836e+00 1.902138e+00 3.170103e+13
<GCONST> 1.583160e+02
~s "f3m"
<NUMMIXES> 16
<MIXTURE> 1 1.779558e-02
<MEAN> 26
 -8.794944e+00 3.041450e+00 1.619732e+00 9.598118e+00 9.431548e+00 8.910862e+00 9.054688e+00 6.795348e+00 8.509606e+00 5.371747e+00 6.158916e+00 3.452350e+00 1.270485e+01 -5.170297e-02 2.252551e-01 1.520767e-01 3.047878e-01 2.336237e-01 4.287991e-01 3.089646e-01 2.635570e-01 3.947576e-01 5.665790e-01 4.241192e-01 1.736452e-01 -1.301718e-01
<VARIANCE> 26
 3.139665e+01 2.073144e+01 2.149488e+01 2.101896e+01 2.473004e+01 1.954061e+01 2.146866e+01 2.246538e+01 2.116786e+01 2.392452e+01 1.848889e+01 1.824852e+01 1.358470e+15 2.291658e+00 1.729906e+00 1.638138e+00 1.602584e+00 1.864053e+00 1.916516e+00 1.890887e+00 1.864737e+00 1.900945e+00 1.863678e+00 1.574152e+00 1.460344e+00 3.170103e+13
<GCONST> 1.576899e+02
<MIXTURE> 2 4.689981e-02
<MEAN> 26
 -1.162162e+01 -7.029757e-01 -1.315298e+00 5.213023e+00 3.698892e+00 3.332491e+00 4.204040e+00 4.141043e+00 5.616174e+00 4.296141e+00 4.273709e+00 3.051810e+00 1.441883e+01 -9.123785e-02 2.238675e-01 3.347248e-01 7.055087e-01 1.021149e+00 1.271359e+00 1.046288e+00 7.365158e-01 5.399013e-01 5.341796e-01 3.902781e-01 1.640432e-01 -1.375235e-01
<VARIANCE> 26
 2.411032e+01 1.991032e+01 2.104480e+01 1.889538e+01 1.958493e+01 2.018514e+01 2.058768e+01 1.977941e+01 1.995274e+01 2.014233e+01 1.919553e+01 1.568123e+01 1.358470e+15 1.726321e+00 1.455575e+00 1.397554e+00 1.404197e+00 1.384196e+00 1.440809e+00 1.547547e+00 1.685931e+00 1.765195e+00 1.609475e+00 1.448516e+00 1.457664e+00 3.170103e+13
<GCONST> 1.546056e+02
<MIXTURE> 3 9.846883e-02
<MEAN> 26
 -7.956617e+00 1.760022e+00 4.921217e-03 7.336313e+00 6.422502e+00 6.303439e+00 5.161846e+00 4.175728e+00 5.141460e+00 3.770319e+00 4.133698e+00 2.362545e+00 1.205741e+01 -6.938165e-02 1.470100e-02 3.103597e-02 1.068858e-01 1.407329e-01 2.238752e-01 1.785793e-01 1.378569e-01 1.696260e-01 2.246974e-01 1.786228e-01 8.613762e-02 -2.517589e-02
<VARIANCE> 26
 3.205811e+01 1.461090e+01 1.257717e+01 1.299765e+01 1.733709e+01 1.604434e+01 1.734540e+01 1.714161e+01 1.658851e+01 1.646141e+01 1.524582e+01 1.384403e+01 1.358470e+15 2.357635e-01 3.820529e-01 4.406206e-01 5.944051e-01 7.348282e-01 9.270192e-01 1.013051e+00 1.102168e+00 1.141949e+00 1.113235e+00 1.042385e+00 9.969478e-01 3.170103e+13
<GCONST> 1.435061e+02
<MIXTURE> 4 8.383667e-02
<MEAN> 26
 -1.089446e+01 -2.657478e+00 -3.365587e+00 2.609243e+00 2.583126e+00 2.091070e+00 2.381898e+00 3.116019e+00 3.548917e+00 2.514570e+00 1.731456e+00 1.929770e+00 1.385460e+01 -7.983281e-02 4.505118e-02 7.414682e-02 2.216114e-01 1.997595e-01 2.143476e-01 1.152837e-01 1.425128e-01 3.708610e-01 6.469092e-01 6.657110e-01 4.079887e-01 -4.825620e-02
<VARIANCE> 26
 2.500379e+01 1.836583e+01 1.638729e+01 1.227824e+01 1.567250e+01 1.825581e+01 1.858023e+01 1.903072e+01 1.929037e+01 2.100202e+01 1.813086e+01 1.557796e+01 1.358470e+15 5.568984e-01 4.379540e-01 5.512924e-01 7.026284e-01 7.820414e-01 8.800166e-01 9.588724e-01 1.058499e+00 1.116219e+00 1.055656e+00 9.770877e-01 1.044473e+00 3.170103e+13
<GCONST> 1.457896e+02
<MIXTURE> 5 1.026237e-01
<MEAN> 26
 -1.242860e+01 -4.669662e-01 -1.062756e+00 6.705199e+00 4.648451e+00 4.873842e+00 4.606034e+00 3.810003e+00 5.159505e+00 3.836940e+00 4.066753e+00 2.738897e+00 1.472181e+01 2.003723e-01 -5.808416e-01 -5.173768e-01 -6.687002e-01 -6.882463e-01 -7.162231e-01 -4.266582e-01 -1.121291e-01 1.966452e-01 3.809512e-01 4.054283e-01 2.916000e-01 6.806616e-02
<VARIANCE> 26
 1.945477e+01 1.937884e+01 1.668097e+01 1.677023e+01 1.566899e+01 1.805941e+01 1.859297e+01 1.693163e+01 1.747484e+01 1.703925e+01 1.650479e+01 1.282629e+01 1.358470e+15 1.477992e+00 1.273100e+00 1.175628e+00 1.237612e+00 1.242483e+00 1.314950e+00 1.419718e+00 1.555566e+00 1.555672e+00 1.443551e+00 1.306308e+00 1.253376e+00 3.170103e+13
<GCONST> 1.513246e+02
<MIXTURE> 6 7.179603e-02
<MEAN> 26
 -1.191905e+01 -8.646981e-01 -3.667496e+00 3.745295e+00 1.148288e+00 9.876750e-01 3.188872e-01 -5.224723e-01 6.284099e-01 1.231537e+00 1.347423e+00 2.050774e+00 1.478090e+01 -1.944063e-02 -4.176007e-01 -1.111206e-01 6.445258e-02 5.960608e-01 8.827685e-01 1.136311e+00 1.093673e+00 8.761544e-01 5.837256e-01 3.510047e-01 1.674344e-01 -2.938381e-02
<VARIANCE> 26
 1.990802e+01 2.366246e+01 2.147800e+01 2.039537e+01 2.066721e+01 2.339958e+01 2.186057e+01 1.938855e+01 1.879577e+01 1.954175e+01 1.890041e+01 1.685762e+01 1.358470e+15 1.527453e+00 1.144693e+00 1.071666e+00 1.225334e+00 1.321289e+00 1.410398e+00 1.335197e+00 1.400534e+00 1.506465e+00 1.503606e+00 1.387592e+00 1.329018e+00 3.170103e+13
<GCONST> 1.533647e+02
<MIXTURE> 7 4.101429e-02
<MEAN> 26
 -1.251449e+01 -3.186907e+00 -5.853555e+00 1.196786e+00 2.781087e-01 2.047263e-01 6.491648e-02 -1.694665e-01 1.799413e+00 3.079172e+00 2.617765e+00 3.165993e+00 1.511486e+01 4.699472e-01 -4.166257e-02 1.539213e-02 -3.140405e-02 -2.672037e-02 -3.668707e-01 -6.273627e-01 -6.989844e-01 -3.239631e-01 1.911378e-01 4.853027e-01 3.279920e-01 -5.055431e-02
<VARIANCE> 26
 1.817905e+01 2.093414e+01 1.794222e+01 1.463901e+01 1.604922e+01 1.758463e+01 1.809515e+01 1.665152e+01 1.552819e+01 1.701797e+01 1.639869e+01 1.553567e+01 1.358470e+15 1.683132e+00 1.057872e+00 1.056776e+00 1.220671e+00 1.193410e+00 1.169611e+00 1.171467e+00 1.265957e+00 1.493369e+00 1.457531e+00 1.389920e+00 1.344522e+00 3.170103e+13
<GCONST> 1.506601e+02
<MIXTURE> 8 3.550937e-02
<MEAN> 26
 -1.012482e+01 -4.633904e+00 4.757776e-01 5.421099e+00 4.848590e+00 1.974914e+00 5.244782e+00 7.727777e+00 6.295959e+00 1.814222e+00 5.339581e+00 4.796552e+00 1.369541e+01 7.886296e-02 9.081843e-02 -1.829363e-02 2.176378e-01 2.912429e-01 2.947920e-01 4.400708e-03 -9.217633e-02 -5.060471e-02 -6.595866e-02 -1.665566e-01 -9.292328e-02 -8.939552e-02
<VARIANCE> 26
 4.157841e+01 2.877537e+01 2.908554e+01 3.688630e+01 3.594222e+01 3.438428e+01 3.925652e+01 3.205370e+01 3.863731e+01 4.438703e+01 3.325452e+01 2.299925e+01 1.358470e+15 5.130408e-01 7.038452e-01 8.057436e-01 9.871286e-01 1.172721e+00 1.478255e+00 1.495395e+00 1.583406e+00 1.541367e+00 1.416480e+00 1.247932e+00 1.309948e+00 3.170103e+13
<GCONST> 1.575633e+02
<MIXTURE> 9 1.241047e-01
<MEAN> 26
 -9.379457e+00 4.313520e-01 -1.528343e+00 5.537809e+00 4.552693e+00 4.210460e+00 3.253610e+00 1.915151e+00 2.543902e+00 1.717161e+00 1.706588e+00 1.436836e+00 1.292825e+01 -6.881849e-02 -8.435417e-02 -9.059979e-02 -5.428737e-02 -6.984179e-02 -3.478653e-02 -7.085057e-02 -1.463783e-01 -2.427419e-01 -3.066565e-01 -3.072166e-01 -1.929923e-01 1.228428e-03
<VARIANCE> 26
 3.059198e+01 1.506709e+01 1.440197e+01 1.287119e+01 1.509140e+01 1.589131e+01 1.610950e+01 1.671323e+01 1.692688e+01 1.579013e+01 1.472218e+01 1.272829e+01 1.358470e+15 2.840039e-01 4.698678e-01 5.004777e-01 6.226872e-01 7.925529e-01 9.258282e-01 1.027457e+00 1.148909e+00 1.158432e+00 1.058535e+00 9.951656e-01 1.008301e+00 3.170103e+13
<GCONST> 1.438536e+02
<MIXTURE> 10 6.746884e-02
<MEAN> 26
 -1.282064e+01 -1.590130e+00 -3.372644e+00 4.237648e+00 2.874636e+00 3.633044e+00 2.710624e+00 2.054024e+00 2.655721e+00 2.438488e+00 1.652213e+00 2.090234e+00 1.504659e+01 1.771034e-01 -8.967934e-01 -8.574361e-01 -1.105215e+00 -1.107358e+00 -1.185051e+00 -9.108275e-01 -6.597305e-01 -4.125445e-01 -3.125831e-01 -1.451703e-01 1.133476e-02 1.828866e-01
<VARIANCE> 26
 1.629738e+01 1.817987e+01 1.726395e+01 1.555936e+01 1.492177e+01 1.806994e+01 1.825421e+01 1.685563e+01 1.677611e+01 1.651536e+01 1.613840e+01 1.292182e+01 1.358470e+15 1.859426e+00 1.284666e+00 1.224616e+00 1.238388e+00 1.298669e+00 1.448499e+00 1.573314e+00 1.666902e+00 1.667459e+00 1.506060e+00 1.347641e+00 1.282574e+00 3.170103e+13
<GCONST> 1.516437e+02
<MIXTURE> 11 5.723298e-02
<MEAN> 26
 -1.226882e+01 -9.945932e-01 -5.075544e+00 2.389972e+00 -1.006209e+00 -1.479187e+00 -1.940177e+00 -2.789063e+00 -1.467698e+00 -2.061964e-01 -3.046224e-01 1.471384e+00 1.504510e+01 -1.629446e-01 -5.878717e-01 -3.257159e-01 -1.648921e-01 2.671414e-01 5.132657e-01 6.252567e-01 4.712047e-01 2.186270e-01 -1.264952e-03 -8.115330e-02 -5.975377e-02 3.301761e-02
<VARIANCE> 26
 1.680165e+01 2.380449e+01 2.114820e+01 1.959203e+01 2.189680e+01 2.437781e+01 2.317517e+01 2.139103e+01 1.986704e+01 2.008042e+01 1.838850e+01 1.817077e+01 1.358470e+15 1.228608e+00 1.147447e+00 1.139907e+00 1.254793e+00 1.315251e+00 1.402957e+00 1.300982e+00 1.383654e+00 1.539462e+00 1.547653e+00 1.484568e+00 1.395299e+00 3.170103e+13
<GCONST> 1.535200e+02
<MIXTURE> 12 7.497700e-02
<MEAN> 26
 -1.178057e+01 -3.534930e+00 -5.455601e+00 1.099937e+00 1.561549e+00 1.086518e+00 6.976465e-01 1.099463e+00 1.513119e+00 1.340613e+00 -8.995401e-01 6.180173e-01 1.332625e+01 -3.859017e-02 -1.203630e-01 -1.386453e-01 -1.005215e-01 -1.133659e-01 -1.288680e-01 -1.532117e-01 -1.357946e-01 -7.362270e-02 -2.329423e-02 5.603276e-03 1.041741e-02 -1.018396e-02
<VARIANCE> 26
 2.374088e+01 1.550696e+01 1.500519e+01 1.179179e+01 1.428106e+01 1.871131e+01 1.598663e+01 1.820853e+01 2.050522e+01 1.840271e+01 1.628190e+01 1.416375e+01 1.358470e+15 3.951678e-01 3.669623e-01 4.900580e-01 6.331663e-01 7.217747e-01 8.374855e-01 9.135869e-01 1.023974e+00 1.070608e+00 1.022816e+00 9.788053e-01 9.725889e-01 3.170103e+13
<GCONST> 1.438075e+02
<MIXTURE> 13 7.422085e-02
<MEAN> 26
 -1.317397e+01 -2.489815e+00 -3.848145e+00 3.126498e+00 1.157421e+00 1.000565e+00 1.838086e+00 2.439351e+00 4.288373e+00 3.959342e+00 2.825917e+00 2.495759e+00 1.513075e+01 -1.511194e-01 -3.623629e-01 -7.593501e-03 4.284047e-01 8.223099e-01 8.413823e-01 5.563204e-01 1.475562e-01 -1.291491e-01 -2.313561e-01 -2.826742e-01 -2.329462e-01 3.037844e-04
<VARIANCE> 26
 1.528989e+01 2.037170e+01 2.220278e+01 1.924146e+01 2.016109e+01 1.983505e+01 1.936954e+01 1.816185e+01 1.850118e+01 1.788942e+01 1.730277e+01 1.498594e+01 1.358470e+15 1.482531e+00 1.394689e+00 1.518137e+00 1.554761e+00 1.466657e+00 1.503996e+00 1.515163e+00 1.579639e+00 1.589130e+00 1.517981e+00 1.404654e+00 1.407320e+00 3.170103e+13
<GCONST> 1.535413e+02
<MIXTURE> 14 2.009861e-02
<MEAN> 26
 -1.216863e+01 -2.564515e+00 -6.883300e+00 3.287420e-01 -1.335662e+00 -1.013440e+00 -1.488742e+00 -1.857865e+00 -5.949627e-01 7.927248e-01 1.457286e-01 1.846301e+00 1.507718e+01 -6.559071e-02 -3.790913e-01 -4.898157e-01 -5.145013e-01 -6.462902e-01 -8.294812e-01 -9.862583e-01 -1.064056e+00 -9.524762e-01 -6.951146e-01 -3.892078e-01 -1.563295e-01 7.336315e-02
<VARIANCE> 26
 1.770597e+01 1.946250e+01 1.688590e+01 1.467969e+01 1.602908e+01 1.747069e+01 1.724318e+01 1.770718e+01 1.665692e+01 1.742651e+01 1.587218e+01 1.466339e+01 1.358470e+15 1.221059e+00 8.945222e-01 8.819634e-01 1.050377e+00 1.079788e+00 1.150838e+00 1.204381e+00 1.244505e+00 1.392737e+00 1.444380e+00 1.325249e+00 1.308591e+00 3.170103e+13
<GCONST> 1.494330e+02
<MIXTURE> 15 4.256173e-02
<MEAN> 26
 -9.669888e+00 1.725715e+00 2.270746e-01 8.361920e+00 7.006811e+00 6.954251e+00 6.288236e+00 4.570292e+00 6.017554e+00 3.653519e+00 4.211703e+00 2.373968e+00 1.317611e+01 -3.687244e-01 -4.087532e-01 -3.415782e-02 -9.468886e-02 -3.267559e-01 -3.384010e-01 -2.899851e-01 -2.686977e-01 -3.184811e-01 -3.805068e-01 -3.711159e-01 -2.321145e-01 1.532651e-01
<VARIANCE> 26
 3.695551e+01 2.133705e+01 1.843842e+01 2.066112e+01 2.037077e+01 2.145102e+01 2.153220e+01 2.178008e+01 2.008335e+01 2.013054e+01 1.926487e+01 1.552562e+01 1.358470e+15 2.328068e+00 2.514675e+00 1.996498e+00 1.963911e+00 2.095431e+00 2.347414e+00 2.331085e+00 2.342820e+00 2.171956e+00 1.928877e+00 1.651023e+00 1.566051e+00 3.170103e+13
<GCONST> 1.590703e+02
<MIXTURE> 16 4.139242e-02
<MEAN> 26
 -1.146272e+01 -2.480886e+00 -2.821042e+00 3.260090e+00 2.274613e+00 1.345566e+00 3.158990e+00 4.282877e+00 5.028328e+00 3.455721e+00 3.125205e+00 3.311086e+00 1.420251e+01 2.076859e-02 2.861032e-02 1.683319e-01 3.399562e-01 3.185804e-01 1.634186e-01 -2.506098e-01 -7.475559e-01 -1.112048e+00 -1.250582e+00 -1.065324e+00 -5.591165e-01 -3.328606e-02
<VARIANCE> 26
 2.926917e+01 2.751742e+01 2.531109e+01 2.474720e+01 2.598218e+01 2.995842e+01 2.832355e+01 2.684809e+01 2.715094e+01 3.121199e+01 2.869713e+01 2.289834e+01 1.358470e+15 6.181468e-01 8.024805e-01 8.872716e-01 1.048480e+00 1.238927e+00 1.437374e+00 1.481259e+00 1.553604e+00 1.512370e+00 1.334083e+00 1.290866e+00 1.386156e+00 3.170103e+13
<GCONST> 1.552908e+02
~s "f4m"
<NUMMIXES> 16
<MIXTURE> 1 2.762513e-02
<MEAN> 26
 -9.730311e+00 -1.522849e+00 1.120847e+00 5.858142e+00 5.660733e+00 3.913045e+00 6.585779e+00 6.631109e+00 8.598575e+00 4.878833e+00 5.907162e+00 4.149478e+00 1.330294e+01 6.582610e-01 3.513014e-01 1.147432e-01 7.663911e-02 5.040343e-01 5.699430e-01 2.306131e-01 -1.377319e-01 3.183506e-03 2.471801e-01 1.028007e-01 -2.875248e-02 -2.016566e-01
<VARIANCE> 26
 5.047313e+01 7.481271e+01 6.545702e+01 6.344025e+01 8.499149e+01 7.169173e+01 5.247601e+01 5.877855e+01 6.090378e+01 5.664153e+01 4.215633e+01 3.533319e+01 1.358470e+15 4.060159e+00 3.598841e+00 3.549350e+00 3.805202e+00 4.051833e+00 3.791970e+00 3.762389e+00 4.007142e+00 3.968892e+00 3.812310e+00 3.035060e+00 2.576506e+00 3.170103e+13
<GCONST> 1.779901e+02
<MIXTURE> 2 3.957234e-02
<MEAN> 26
 -7.301403e+00 -3.389962e+00 -6.505652e+00 9.109650e-01 4.211051e+00 4.923509e+00 3.192910e+00 1.461904e-01 1.332884e+00 2.868543e+00 1.878267e+00 2.348582e+00 1.466735e+01 5.739678e+00 2.358134e+00 3.746103e-01 -2.531475e+00 -1.458984e+00 7.783136e-01 4.154369e-01 -4.572260e-01 -9.255279e-01 -9.869806e-01 -2.066494e-01 -2.346695e-01 4.955207e-03
<VARIANCE> 26
 1.799402e+01 1.446112e+01 1.273553e+01 1.703936e+01 1.642867e+01 1.966871e+01 2.021422e+01 1.909983e+01 1.992094e+01 1.915315e+01 1.646901e+01 1.430418e+01 1.358470e+15 1.547951e+00 2.257579e+00 2.138382e+00 3.549298e+00 3.634665e+00 3.087171e+00 3.338755e+00 3.402396e+00 2.787677e+00 2.684055e+00 2.295932e+00 1.959780e+00 3.170103e+13
<GCONST> 1.594415e+02
<MIXTURE> 3 1.127915e-01
<MEAN> 26
 -1.084622e+01 -3.169070e+00 -3.513083e+00 4.353916e+00 4.620035e+00 3.485748e+00 2.874137e+00 2.620355e+00 4.915220e+00 4.572040e+00 3.538543e+00 2.301213e+00 1.493929e+01 2.592515e+00 4.617873e-01 6.103802e-02 -4.199543e-01 3.295237e-01 1.053278e-01 -1.941186e-01 -5.677788e-01 -6.824825e-01 -6.340412e-01 -5.739748e-01 -5.199382e-01 -3.426666e-01
<VARIANCE> 26
